svm_type c_svc
kernel_type rbf
gamma 0.25
nr_class 4
total_sv 496
rho 0 0 0 0 0 0
label 1 2 3 4
nr_sv 124 124 124 124
SV
1 1 1 1:0.018181818 2:0.012121212 3:0.01010101 4:0.016161616 
1 1 1 1:0.01010101 2:0.074747475 3:0.14747475 4:0.42828283 
1 1 1 1:0.01010101 2:0.13333333 3:0.046464646 4:0.01010101 
1 1 1 1:0.20808081 2:0.13535353 3:0.02020202 4:0.014141414 
1 1 1 1:0.014141414 2:0.050505051 3:0.014141414 4:0.012121212 
1 1 1 1:0.050505051 2:0.01010101 3:0.034343434 4:0.016161616 
1 1 1 1:0.01010101 2:0.012121212 3:0.028282828 4:0.014141414 
1 1 1 1:0.012121212 2:0.018181818 3:0.018181818 4:0.01010101 
1 1 1 1:0.02020202 2:0.036363636 3:0.088888889 4:0.024242424 
1 1 1 1:0.014141414 2:0.016161616 3:0.014141414 4:0.024242424 
1 1 1 1:0.012121212 2:0.47272727 3:0.036363636 4:0.02020202 
1 1 1 1:0.016161616 2:0.014141414 3:0.026262626 4:0.036363636 
1 1 1 1:0.038383838 2:0.01010101 3:0.01010101 4:0.018181818 
1 1 1 1:0.024242424 2:0.012121212 3:0.01010101 4:0.028282828 
1 1 1 1:0.044444444 2:0.02020202 3:0.082828283 4:0.028282828 
1 1 1 1:0.080808081 2:0.04040404 3:0.012121212 4:0.078787879 
1 1 1 1:0.15151515 2:0.01010101 3:0.02020202 4:0.012121212 
1 1 1 1:0.01010101 2:0.01010101 3:0.016161616 4:1.8767677 
1 1 1 1:0.018181818 2:0.084848485 3:0.014141414 4:0.064646465 
1 1 1 1:0.01010101 2:0.01010101 3:0.054545455 4:0.038383838 
1 1 1 1:0.054545455 2:0.016161616 3:0.01010101 4:0.018181818 
1 1 1 1:0.012121212 2:0.044444444 3:0.068686869 4:0.012121212 
1 1 1 1:0.070707071 2:0.014141414 3:0.014141414 4:0.052525253 
1 1 1 1:0.03030303 2:0.014141414 3:0.012121212 4:0.022222222 
1 1 1 1:0.01010101 2:0.01010101 3:0.01010101 4:0.012121212 
1 1 1 1:0.01010101 2:0.012121212 3:0.014141414 4:0.01010101 
1 1 1 1:0.01010101 2:0.016161616 3:0.022222222 4:0.01010101 
1 1 1 1:0.02020202 2:0.018181818 3:0.014141414 4:0.01010101 
1 1 1 1:0.02020202 2:0.046464646 3:0.02020202 4:0.024242424 
1 1 1 1:0.018181818 2:0.060606061 3:0.01010101 4:0.016161616 
1 1 1 1:0.016161616 2:0.01010101 3:0.012121212 4:0.012121212 
1 1 1 1:0.088888889 2:0.018181818 3:0.014141414 4:0.016161616 
1 1 1 1:0.01010101 2:0.13333333 3:0.022222222 4:0.014141414 
1 1 1 1:0.018181818 2:0.01010101 3:0.01010101 4:0.014141414 
1 1 1 1:0.052525253 2:0.042424242 3:0.01010101 4:0.018181818 
1 1 1 1:0.12323232 2:0.01010101 3:0.016161616 4:0.052525253 
1 1 1 1:0.012121212 2:0.02020202 3:0.012121212 4:0.012121212 
1 1 1 1:0.01010101 2:0.012121212 3:0.3979798 4:0.044444444 
1 1 1 1:0.050505051 2:0.02020202 3:0.016161616 4:0.016161616 
1 1 1 1:0.018181818 2:0.012121212 3:0.012121212 4:0.028282828 
1 1 1 1:0.01010101 2:0.12525253 3:0.02020202 4:0.012121212 
1 1 1 1:0.054545455 2:0.022222222 3:0.01010101 4:0.098989899 
1 1 1 1:0.01010101 2:0.028282828 3:0.016161616 4:0.01010101 
1 1 1 1:0.014141414 2:0.01010101 3:0.04040404 4:0.012121212 
1 1 1 1:0.018181818 2:0.01010101 3:0.012121212 4:0.024242424 
1 1 1 1:0.01010101 2:0.022222222 3:0.012121212 4:0.01010101 
1 1 1 1:0.038383838 2:0.01010101 3:0.01010101 4:0.01010101 
1 1 1 1:0.01010101 2:0.064646465 3:0.012121212 4:0.01010101 
1 1 1 1:0.18383838 2:0.028282828 3:0.01010101 4:0.016161616 
1 1 1 1:0.054545455 2:0.066666667 3:0.018181818 4:0.056565657 
1 1 1 1:0.01010101 2:0.21616162 3:0.024242424 4:0.016161616 
1 1 1 1:0.028282828 2:0.070707071 3:0.1010101 4:0.018181818 
1 1 1 1:0.02020202 2:0.016161616 3:0.45454545 4:0.11919192 
1 1 1 1:0.012121212 2:0.052525253 3:0.026262626 4:0.014141414 
1 1 1 1:0.024242424 2:0.012121212 3:0.038383838 4:0.028282828 
1 1 1 1:0.026262626 2:0.064646465 3:0.01010101 4:0.014141414 
1 1 1 1:0.012121212 2:0.022222222 3:0.022222222 4:0.014141414 
1 1 1 1:0.01010101 2:0.01010101 3:0.086868687 4:0.012121212 
1 1 1 1:0.022222222 2:0.014141414 3:0.026262626 4:0.014141414 
1 1 1 1:0.01010101 2:0.01010101 3:0.018181818 4:0.01010101 
1 1 1 1:0.032323232 2:0.12121212 3:0.014141414 4:0.034343434 
1 1 1 1:0.016161616 2:0.018181818 3:0.012121212 4:0.01010101 
1 1 1 1:0.014141414 2:0.054545455 3:0.042424242 4:0.016161616 
1 1 1 1:0.01010101 2:0.12727273 3:0.014141414 4:0.022222222 
1 1 1 1:0.038383838 2:0.01010101 3:0.014141414 4:0.016161616 
1 1 1 1:0.014141414 2:0.012121212 3:0.016161616 4:0.026262626 
1 1 1 1:0.068686869 2:0.15353535 3:0.014141414 4:0.012121212 
1 1 1 1:0.042424242 2:0.02020202 3:0.03030303 4:0.036363636 
1 1 1 1:0.024242424 2:0.026262626 3:0.012121212 4:0.01010101 
1 1 1 1:0.02020202 2:0.014141414 3:0.016161616 4:0.01010101 
1 1 1 1:0.026262626 2:0.028282828 3:0.01010101 4:0.074747475 
1 1 1 1:0.016161616 2:0.02020202 3:0.01010101 4:0.076767677 
1 1 1 1:0.28080808 2:0.01010101 3:0.01010101 4:0.02020202 
1 1 1 1:0.024242424 2:0.042424242 3:0.03030303 4:0.014141414 
1 1 1 1:0.048484848 2:0.02020202 3:0.052525253 4:0.070707071 
1 1 1 1:0.01010101 2:0.068686869 3:0.026262626 4:0.01010101 
1 1 1 1:0.028282828 2:0.014141414 3:0.022222222 4:0.012121212 
1 1 1 1:0.022222222 2:0.032323232 3:0.01010101 4:0.01010101 
1 1 1 1:0.024242424 2:0.01010101 3:0.01010101 4:0.01010101 
1 1 1 1:0.014141414 2:0.062626263 3:0.01010101 4:0.060606061 
1 1 1 1:0.10505051 2:0.018181818 3:0.04040404 4:0.012121212 
1 1 1 1:0.012121212 2:0.042424242 3:0.014141414 4:0.012121212 
1 1 1 1:0.058585859 2:0.01010101 3:0.02020202 4:0.076767677 
1 1 1 1:0.01010101 2:0.036363636 3:0.018181818 4:0.036363636 
1 1 1 1:0.022222222 2:0.01010101 3:0.012121212 4:0.02020202 
1 1 1 1:0.016161616 2:0.016161616 3:0.024242424 4:0.01010101 
1 1 1 1:0.076767677 2:0.014141414 3:0.016161616 4:0.062626263 
1 1 1 1:0.012121212 2:0.078787879 3:0.016161616 4:0.048484848 
1 1 1 1:0.012121212 2:0.012121212 3:0.012121212 4:0.03030303 
1 1 1 1:0.074747475 2:0.012121212 3:0.028282828 4:0.01010101 
1 1 1 1:0.012121212 2:0.01010101 3:0.014141414 4:0.14949495 
1 1 1 1:0.10505051 2:0.016161616 3:0.014141414 4:0.022222222 
1 1 1 1:0.076767677 2:0.17777778 3:0.012121212 4:0.032323232 
1 1 1 1:0.026262626 2:0.11515151 3:0.01010101 4:0.014141414 
1 1 1 1:0.012121212 2:0.01010101 3:0.012121212 4:0.01010101 
1 1 1 1:0.03030303 2:0.026262626 3:0.012121212 4:0.02020202 
1 1 1 1:0.044444444 2:0.012121212 3:0.01010101 4:0.014141414 
1 1 1 1:0.066666667 2:0.03030303 3:0.01010101 4:0.02020202 
1 1 1 1:0.016161616 2:0.012121212 3:0.014141414 4:0.022222222 
1 1 1 1:0.01010101 2:0.012121212 3:0.026262626 4:0.01010101 
1 1 1 1:0.016161616 2:0.046464646 3:0.19191919 4:0.066666667 
1 1 1 1:0.032323232 2:0.012121212 3:0.01010101 4:0.012121212 
1 1 1 1:0.15757576 2:0.034343434 3:0.018181818 4:0.01010101 
1 1 1 1:0.052525253 2:0.01010101 3:0.10505051 4:0.01010101 
1 1 1 1:0.01010101 2:0.012121212 3:0.012121212 4:0.016161616 
1 1 1 1:0.022222222 2:0.096969697 3:0.016161616 4:0.13333333 
1 1 1 1:0.01010101 2:0.012121212 3:0.012121212 4:0.012121212 
1 1 1 1:0.01010101 2:0.018181818 3:0.014141414 4:0.01010101 
1 1 1 1:0.012121212 2:0.01010101 3:0.018181818 4:0.016161616 
1 1 1 1:0.050505051 2:0.016161616 3:0.014141414 4:0.01010101 
1 1 1 1:0.034343434 2:0.024242424 3:0.016161616 4:0.016161616 
1 1 1 1:0.024242424 2:0.036363636 3:0.13939394 4:0.016161616 
1 1 1 1:0.022222222 2:0.012121212 3:0.02020202 4:0.022222222 
1 1 1 1:0.032323232 2:0.012121212 3:0.016161616 4:0.01010101 
1 1 1 1:0.018181818 2:0.01010101 3:0.054545455 4:0.044444444 
1 1 1 1:0.01010101 2:0.012121212 3:0.016161616 4:0.016161616 
1 1 1 1:0.012121212 2:0.016161616 3:0.070707071 4:0.022222222 
1 1 1 1:0.012121212 2:0.036363636 3:0.014141414 4:0.012121212 
1 1 1 1:0.034343434 2:0.01010101 3:0.012121212 4:0.022222222 
1 1 1 1:0.014141414 2:0.01010101 3:0.060606061 4:0.01010101 
1 1 1 1:0.070707071 2:0.014141414 3:0.084848485 4:0.012121212 
1 1 1 1:0.01010101 2:0.016161616 3:0.02020202 4:0.026262626 
1 1 1 1:0.022222222 2:0.01010101 3:0.042424242 4:0.012121212 
1 1 1 1:0.028282828 2:0.014141414 3:0.016161616 
-1 1 1 1:0.018181818 2:0.012121212 3:0.01010101 4:0.016161616 
-1 1 1 1:0.01010101 2:0.074747475 3:0.14747475 4:0.42828283 
-1 1 1 1:0.01010101 2:0.13333333 3:0.046464646 4:0.01010101 
-1 1 1 1:0.20808081 2:0.13535353 3:0.02020202 4:0.014141414 
-1 1 1 1:0.014141414 2:0.050505051 3:0.014141414 4:0.012121212 
-1 1 1 1:0.050505051 2:0.01010101 3:0.034343434 4:0.016161616 
-1 1 1 1:0.01010101 2:0.012121212 3:0.028282828 4:0.014141414 
-1 1 1 1:0.012121212 2:0.018181818 3:0.018181818 4:0.01010101 
-1 1 1 1:0.02020202 2:0.036363636 3:0.088888889 4:0.024242424 
-1 1 1 1:0.014141414 2:0.016161616 3:0.014141414 4:0.024242424 
-1 1 1 1:0.012121212 2:0.47272727 3:0.036363636 4:0.02020202 
-1 1 1 1:0.016161616 2:0.014141414 3:0.026262626 4:0.036363636 
-1 1 1 1:0.038383838 2:0.01010101 3:0.01010101 4:0.018181818 
-1 1 1 1:0.024242424 2:0.012121212 3:0.01010101 4:0.028282828 
-1 1 1 1:0.044444444 2:0.02020202 3:0.082828283 4:0.028282828 
-1 1 1 1:0.080808081 2:0.04040404 3:0.012121212 4:0.078787879 
-1 1 1 1:0.15151515 2:0.01010101 3:0.02020202 4:0.012121212 
-1 1 1 1:0.01010101 2:0.01010101 3:0.016161616 4:1.8767677 
-1 1 1 1:0.018181818 2:0.084848485 3:0.014141414 4:0.064646465 
-1 1 1 1:0.01010101 2:0.01010101 3:0.054545455 4:0.038383838 
-1 1 1 1:0.054545455 2:0.016161616 3:0.01010101 4:0.018181818 
-1 1 1 1:0.012121212 2:0.044444444 3:0.068686869 4:0.012121212 
-1 1 1 1:0.070707071 2:0.014141414 3:0.014141414 4:0.052525253 
-1 1 1 1:0.03030303 2:0.014141414 3:0.012121212 4:0.022222222 
-1 1 1 1:0.01010101 2:0.01010101 3:0.01010101 4:0.012121212 
-1 1 1 1:0.01010101 2:0.012121212 3:0.014141414 4:0.01010101 
-1 1 1 1:0.01010101 2:0.016161616 3:0.022222222 4:0.01010101 
-1 1 1 1:0.02020202 2:0.018181818 3:0.014141414 4:0.01010101 
-1 1 1 1:0.02020202 2:0.046464646 3:0.02020202 4:0.024242424 
-1 1 1 1:0.018181818 2:0.060606061 3:0.01010101 4:0.016161616 
-1 1 1 1:0.016161616 2:0.01010101 3:0.012121212 4:0.012121212 
-1 1 1 1:0.088888889 2:0.018181818 3:0.014141414 4:0.016161616 
-1 1 1 1:0.01010101 2:0.13333333 3:0.022222222 4:0.014141414 
-1 1 1 1:0.018181818 2:0.01010101 3:0.01010101 4:0.014141414 
-1 1 1 1:0.052525253 2:0.042424242 3:0.01010101 4:0.018181818 
-1 1 1 1:0.12323232 2:0.01010101 3:0.016161616 4:0.052525253 
-1 1 1 1:0.012121212 2:0.02020202 3:0.012121212 4:0.012121212 
-1 1 1 1:0.01010101 2:0.012121212 3:0.3979798 4:0.044444444 
-1 1 1 1:0.050505051 2:0.02020202 3:0.016161616 4:0.016161616 
-1 1 1 1:0.018181818 2:0.012121212 3:0.012121212 4:0.028282828 
-1 1 1 1:0.01010101 2:0.12525253 3:0.02020202 4:0.012121212 
-1 1 1 1:0.054545455 2:0.022222222 3:0.01010101 4:0.098989899 
-1 1 1 1:0.01010101 2:0.028282828 3:0.016161616 4:0.01010101 
-1 1 1 1:0.014141414 2:0.01010101 3:0.04040404 4:0.012121212 
-1 1 1 1:0.018181818 2:0.01010101 3:0.012121212 4:0.024242424 
-1 1 1 1:0.01010101 2:0.022222222 3:0.012121212 4:0.01010101 
-1 1 1 1:0.038383838 2:0.01010101 3:0.01010101 4:0.01010101 
-1 1 1 1:0.01010101 2:0.064646465 3:0.012121212 4:0.01010101 
-1 1 1 1:0.18383838 2:0.028282828 3:0.01010101 4:0.016161616 
-1 1 1 1:0.054545455 2:0.066666667 3:0.018181818 4:0.056565657 
-1 1 1 1:0.01010101 2:0.21616162 3:0.024242424 4:0.016161616 
-1 1 1 1:0.028282828 2:0.070707071 3:0.1010101 4:0.018181818 
-1 1 1 1:0.02020202 2:0.016161616 3:0.45454545 4:0.11919192 
-1 1 1 1:0.012121212 2:0.052525253 3:0.026262626 4:0.014141414 
-1 1 1 1:0.024242424 2:0.012121212 3:0.038383838 4:0.028282828 
-1 1 1 1:0.026262626 2:0.064646465 3:0.01010101 4:0.014141414 
-1 1 1 1:0.012121212 2:0.022222222 3:0.022222222 4:0.014141414 
-1 1 1 1:0.01010101 2:0.01010101 3:0.086868687 4:0.012121212 
-1 1 1 1:0.022222222 2:0.014141414 3:0.026262626 4:0.014141414 
-1 1 1 1:0.01010101 2:0.01010101 3:0.018181818 4:0.01010101 
-1 1 1 1:0.032323232 2:0.12121212 3:0.014141414 4:0.034343434 
-1 1 1 1:0.016161616 2:0.018181818 3:0.012121212 4:0.01010101 
-1 1 1 1:0.014141414 2:0.054545455 3:0.042424242 4:0.016161616 
-1 1 1 1:0.01010101 2:0.12727273 3:0.014141414 4:0.022222222 
-1 1 1 1:0.038383838 2:0.01010101 3:0.014141414 4:0.016161616 
-1 1 1 1:0.014141414 2:0.012121212 3:0.016161616 4:0.026262626 
-1 1 1 1:0.068686869 2:0.15353535 3:0.014141414 4:0.012121212 
-1 1 1 1:0.042424242 2:0.02020202 3:0.03030303 4:0.036363636 
-1 1 1 1:0.024242424 2:0.026262626 3:0.012121212 4:0.01010101 
-1 1 1 1:0.02020202 2:0.014141414 3:0.016161616 4:0.01010101 
-1 1 1 1:0.026262626 2:0.028282828 3:0.01010101 4:0.074747475 
-1 1 1 1:0.016161616 2:0.02020202 3:0.01010101 4:0.076767677 
-1 1 1 1:0.28080808 2:0.01010101 3:0.01010101 4:0.02020202 
-1 1 1 1:0.024242424 2:0.042424242 3:0.03030303 4:0.014141414 
-1 1 1 1:0.048484848 2:0.02020202 3:0.052525253 4:0.070707071 
-1 1 1 1:0.01010101 2:0.068686869 3:0.026262626 4:0.01010101 
-1 1 1 1:0.028282828 2:0.014141414 3:0.022222222 4:0.012121212 
-1 1 1 1:0.022222222 2:0.032323232 3:0.01010101 4:0.01010101 
-1 1 1 1:0.024242424 2:0.01010101 3:0.01010101 4:0.01010101 
-1 1 1 1:0.014141414 2:0.062626263 3:0.01010101 4:0.060606061 
-1 1 1 1:0.10505051 2:0.018181818 3:0.04040404 4:0.012121212 
-1 1 1 1:0.012121212 2:0.042424242 3:0.014141414 4:0.012121212 
-1 1 1 1:0.058585859 2:0.01010101 3:0.02020202 4:0.076767677 
-1 1 1 1:0.01010101 2:0.036363636 3:0.018181818 4:0.036363636 
-1 1 1 1:0.022222222 2:0.01010101 3:0.012121212 4:0.02020202 
-1 1 1 1:0.016161616 2:0.016161616 3:0.024242424 4:0.01010101 
-1 1 1 1:0.076767677 2:0.014141414 3:0.016161616 4:0.062626263 
-1 1 1 1:0.012121212 2:0.078787879 3:0.016161616 4:0.048484848 
-1 1 1 1:0.012121212 2:0.012121212 3:0.012121212 4:0.03030303 
-1 1 1 1:0.074747475 2:0.012121212 3:0.028282828 4:0.01010101 
-1 1 1 1:0.012121212 2:0.01010101 3:0.014141414 4:0.14949495 
-1 1 1 1:0.10505051 2:0.016161616 3:0.014141414 4:0.022222222 
-1 1 1 1:0.076767677 2:0.17777778 3:0.012121212 4:0.032323232 
-1 1 1 1:0.026262626 2:0.11515151 3:0.01010101 4:0.014141414 
-1 1 1 1:0.012121212 2:0.01010101 3:0.012121212 4:0.01010101 
-1 1 1 1:0.03030303 2:0.026262626 3:0.012121212 4:0.02020202 
-1 1 1 1:0.044444444 2:0.012121212 3:0.01010101 4:0.014141414 
-1 1 1 1:0.066666667 2:0.03030303 3:0.01010101 4:0.02020202 
-1 1 1 1:0.016161616 2:0.012121212 3:0.014141414 4:0.022222222 
-1 1 1 1:0.01010101 2:0.012121212 3:0.026262626 4:0.01010101 
-1 1 1 1:0.016161616 2:0.046464646 3:0.19191919 4:0.066666667 
-1 1 1 1:0.032323232 2:0.012121212 3:0.01010101 4:0.012121212 
-1 1 1 1:0.15757576 2:0.034343434 3:0.018181818 4:0.01010101 
-1 1 1 1:0.052525253 2:0.01010101 3:0.10505051 4:0.01010101 
-1 1 1 1:0.01010101 2:0.012121212 3:0.012121212 4:0.016161616 
-1 1 1 1:0.022222222 2:0.096969697 3:0.016161616 4:0.13333333 
-1 1 1 1:0.01010101 2:0.012121212 3:0.012121212 4:0.012121212 
-1 1 1 1:0.01010101 2:0.018181818 3:0.014141414 4:0.01010101 
-1 1 1 1:0.012121212 2:0.01010101 3:0.018181818 4:0.016161616 
-1 1 1 1:0.050505051 2:0.016161616 3:0.014141414 4:0.01010101 
-1 1 1 1:0.034343434 2:0.024242424 3:0.016161616 4:0.016161616 
-1 1 1 1:0.024242424 2:0.036363636 3:0.13939394 4:0.016161616 
-1 1 1 1:0.022222222 2:0.012121212 3:0.02020202 4:0.022222222 
-1 1 1 1:0.032323232 2:0.012121212 3:0.016161616 4:0.01010101 
-1 1 1 1:0.018181818 2:0.01010101 3:0.054545455 4:0.044444444 
-1 1 1 1:0.01010101 2:0.012121212 3:0.016161616 4:0.016161616 
-1 1 1 1:0.012121212 2:0.016161616 3:0.070707071 4:0.022222222 
-1 1 1 1:0.012121212 2:0.036363636 3:0.014141414 4:0.012121212 
-1 1 1 1:0.034343434 2:0.01010101 3:0.012121212 4:0.022222222 
-1 1 1 1:0.014141414 2:0.01010101 3:0.060606061 4:0.01010101 
-1 1 1 1:0.070707071 2:0.014141414 3:0.084848485 4:0.012121212 
-1 1 1 1:0.01010101 2:0.016161616 3:0.02020202 4:0.026262626 
-1 1 1 1:0.022222222 2:0.01010101 3:0.042424242 4:0.012121212 
-1 1 1 1:0.028282828 2:0.014141414 3:0.016161616 
-1 -1 1 1:0.018181818 2:0.012121212 3:0.01010101 4:0.016161616 
-1 -1 1 1:0.01010101 2:0.074747475 3:0.14747475 4:0.42828283 
-1 -1 1 1:0.01010101 2:0.13333333 3:0.046464646 4:0.01010101 
-1 -1 1 1:0.20808081 2:0.13535353 3:0.02020202 4:0.014141414 
-1 -1 1 1:0.014141414 2:0.050505051 3:0.014141414 4:0.012121212 
-1 -1 1 1:0.050505051 2:0.01010101 3:0.034343434 4:0.016161616 
-1 -1 1 1:0.01010101 2:0.012121212 3:0.028282828 4:0.014141414 
-1 -1 1 1:0.012121212 2:0.018181818 3:0.018181818 4:0.01010101 
-1 -1 1 1:0.02020202 2:0.036363636 3:0.088888889 4:0.024242424 
-1 -1 1 1:0.014141414 2:0.016161616 3:0.014141414 4:0.024242424 
-1 -1 1 1:0.012121212 2:0.47272727 3:0.036363636 4:0.02020202 
-1 -1 1 1:0.016161616 2:0.014141414 3:0.026262626 4:0.036363636 
-1 -1 1 1:0.038383838 2:0.01010101 3:0.01010101 4:0.018181818 
-1 -1 1 1:0.024242424 2:0.012121212 3:0.01010101 4:0.028282828 
-1 -1 1 1:0.044444444 2:0.02020202 3:0.082828283 4:0.028282828 
-1 -1 1 1:0.080808081 2:0.04040404 3:0.012121212 4:0.078787879 
-1 -1 1 1:0.15151515 2:0.01010101 3:0.02020202 4:0.012121212 
-1 -1 1 1:0.01010101 2:0.01010101 3:0.016161616 4:1.8767677 
-1 -1 1 1:0.018181818 2:0.084848485 3:0.014141414 4:0.064646465 
-1 -1 1 1:0.01010101 2:0.01010101 3:0.054545455 4:0.038383838 
-1 -1 1 1:0.054545455 2:0.016161616 3:0.01010101 4:0.018181818 
-1 -1 1 1:0.012121212 2:0.044444444 3:0.068686869 4:0.012121212 
-1 -1 1 1:0.070707071 2:0.014141414 3:0.014141414 4:0.052525253 
-1 -1 1 1:0.03030303 2:0.014141414 3:0.012121212 4:0.022222222 
-1 -1 1 1:0.01010101 2:0.01010101 3:0.01010101 4:0.012121212 
-1 -1 1 1:0.01010101 2:0.012121212 3:0.014141414 4:0.01010101 
-1 -1 1 1:0.01010101 2:0.016161616 3:0.022222222 4:0.01010101 
-1 -1 1 1:0.02020202 2:0.018181818 3:0.014141414 4:0.01010101 
-1 -1 1 1:0.02020202 2:0.046464646 3:0.02020202 4:0.024242424 
-1 -1 1 1:0.018181818 2:0.060606061 3:0.01010101 4:0.016161616 
-1 -1 1 1:0.016161616 2:0.01010101 3:0.012121212 4:0.012121212 
-1 -1 1 1:0.088888889 2:0.018181818 3:0.014141414 4:0.016161616 
-1 -1 1 1:0.01010101 2:0.13333333 3:0.022222222 4:0.014141414 
-1 -1 1 1:0.018181818 2:0.01010101 3:0.01010101 4:0.014141414 
-1 -1 1 1:0.052525253 2:0.042424242 3:0.01010101 4:0.018181818 
-1 -1 1 1:0.12323232 2:0.01010101 3:0.016161616 4:0.052525253 
-1 -1 1 1:0.012121212 2:0.02020202 3:0.012121212 4:0.012121212 
-1 -1 1 1:0.01010101 2:0.012121212 3:0.3979798 4:0.044444444 
-1 -1 1 1:0.050505051 2:0.02020202 3:0.016161616 4:0.016161616 
-1 -1 1 1:0.018181818 2:0.012121212 3:0.012121212 4:0.028282828 
-1 -1 1 1:0.01010101 2:0.12525253 3:0.02020202 4:0.012121212 
-1 -1 1 1:0.054545455 2:0.022222222 3:0.01010101 4:0.098989899 
-1 -1 1 1:0.01010101 2:0.028282828 3:0.016161616 4:0.01010101 
-1 -1 1 1:0.014141414 2:0.01010101 3:0.04040404 4:0.012121212 
-1 -1 1 1:0.018181818 2:0.01010101 3:0.012121212 4:0.024242424 
-1 -1 1 1:0.01010101 2:0.022222222 3:0.012121212 4:0.01010101 
-1 -1 1 1:0.038383838 2:0.01010101 3:0.01010101 4:0.01010101 
-1 -1 1 1:0.01010101 2:0.064646465 3:0.012121212 4:0.01010101 
-1 -1 1 1:0.18383838 2:0.028282828 3:0.01010101 4:0.016161616 
-1 -1 1 1:0.054545455 2:0.066666667 3:0.018181818 4:0.056565657 
-1 -1 1 1:0.01010101 2:0.21616162 3:0.024242424 4:0.016161616 
-1 -1 1 1:0.028282828 2:0.070707071 3:0.1010101 4:0.018181818 
-1 -1 1 1:0.02020202 2:0.016161616 3:0.45454545 4:0.11919192 
-1 -1 1 1:0.012121212 2:0.052525253 3:0.026262626 4:0.014141414 
-1 -1 1 1:0.024242424 2:0.012121212 3:0.038383838 4:0.028282828 
-1 -1 1 1:0.026262626 2:0.064646465 3:0.01010101 4:0.014141414 
-1 -1 1 1:0.012121212 2:0.022222222 3:0.022222222 4:0.014141414 
-1 -1 1 1:0.01010101 2:0.01010101 3:0.086868687 4:0.012121212 
-1 -1 1 1:0.022222222 2:0.014141414 3:0.026262626 4:0.014141414 
-1 -1 1 1:0.01010101 2:0.01010101 3:0.018181818 4:0.01010101 
-1 -1 1 1:0.032323232 2:0.12121212 3:0.014141414 4:0.034343434 
-1 -1 1 1:0.016161616 2:0.018181818 3:0.012121212 4:0.01010101 
-1 -1 1 1:0.014141414 2:0.054545455 3:0.042424242 4:0.016161616 
-1 -1 1 1:0.01010101 2:0.12727273 3:0.014141414 4:0.022222222 
-1 -1 1 1:0.038383838 2:0.01010101 3:0.014141414 4:0.016161616 
-1 -1 1 1:0.014141414 2:0.012121212 3:0.016161616 4:0.026262626 
-1 -1 1 1:0.068686869 2:0.15353535 3:0.014141414 4:0.012121212 
-1 -1 1 1:0.042424242 2:0.02020202 3:0.03030303 4:0.036363636 
-1 -1 1 1:0.024242424 2:0.026262626 3:0.012121212 4:0.01010101 
-1 -1 1 1:0.02020202 2:0.014141414 3:0.016161616 4:0.01010101 
-1 -1 1 1:0.026262626 2:0.028282828 3:0.01010101 4:0.074747475 
-1 -1 1 1:0.016161616 2:0.02020202 3:0.01010101 4:0.076767677 
-1 -1 1 1:0.28080808 2:0.01010101 3:0.01010101 4:0.02020202 
-1 -1 1 1:0.024242424 2:0.042424242 3:0.03030303 4:0.014141414 
-1 -1 1 1:0.048484848 2:0.02020202 3:0.052525253 4:0.070707071 
-1 -1 1 1:0.01010101 2:0.068686869 3:0.026262626 4:0.01010101 
-1 -1 1 1:0.028282828 2:0.014141414 3:0.022222222 4:0.012121212 
-1 -1 1 1:0.022222222 2:0.032323232 3:0.01010101 4:0.01010101 
-1 -1 1 1:0.024242424 2:0.01010101 3:0.01010101 4:0.01010101 
-1 -1 1 1:0.014141414 2:0.062626263 3:0.01010101 4:0.060606061 
-1 -1 1 1:0.10505051 2:0.018181818 3:0.04040404 4:0.012121212 
-1 -1 1 1:0.012121212 2:0.042424242 3:0.014141414 4:0.012121212 
-1 -1 1 1:0.058585859 2:0.01010101 3:0.02020202 4:0.076767677 
-1 -1 1 1:0.01010101 2:0.036363636 3:0.018181818 4:0.036363636 
-1 -1 1 1:0.022222222 2:0.01010101 3:0.012121212 4:0.02020202 
-1 -1 1 1:0.016161616 2:0.016161616 3:0.024242424 4:0.01010101 
-1 -1 1 1:0.076767677 2:0.014141414 3:0.016161616 4:0.062626263 
-1 -1 1 1:0.012121212 2:0.078787879 3:0.016161616 4:0.048484848 
-1 -1 1 1:0.012121212 2:0.012121212 3:0.012121212 4:0.03030303 
-1 -1 1 1:0.074747475 2:0.012121212 3:0.028282828 4:0.01010101 
-1 -1 1 1:0.012121212 2:0.01010101 3:0.014141414 4:0.14949495 
-1 -1 1 1:0.10505051 2:0.016161616 3:0.014141414 4:0.022222222 
-1 -1 1 1:0.076767677 2:0.17777778 3:0.012121212 4:0.032323232 
-1 -1 1 1:0.026262626 2:0.11515151 3:0.01010101 4:0.014141414 
-1 -1 1 1:0.012121212 2:0.01010101 3:0.012121212 4:0.01010101 
-1 -1 1 1:0.03030303 2:0.026262626 3:0.012121212 4:0.02020202 
-1 -1 1 1:0.044444444 2:0.012121212 3:0.01010101 4:0.014141414 
-1 -1 1 1:0.066666667 2:0.03030303 3:0.01010101 4:0.02020202 
-1 -1 1 1:0.016161616 2:0.012121212 3:0.014141414 4:0.022222222 
-1 -1 1 1:0.01010101 2:0.012121212 3:0.026262626 4:0.01010101 
-1 -1 1 1:0.016161616 2:0.046464646 3:0.19191919 4:0.066666667 
-1 -1 1 1:0.032323232 2:0.012121212 3:0.01010101 4:0.012121212 
-1 -1 1 1:0.15757576 2:0.034343434 3:0.018181818 4:0.01010101 
-1 -1 1 1:0.052525253 2:0.01010101 3:0.10505051 4:0.01010101 
-1 -1 1 1:0.01010101 2:0.012121212 3:0.012121212 4:0.016161616 
-1 -1 1 1:0.022222222 2:0.096969697 3:0.016161616 4:0.13333333 
-1 -1 1 1:0.01010101 2:0.012121212 3:0.012121212 4:0.012121212 
-1 -1 1 1:0.01010101 2:0.018181818 3:0.014141414 4:0.01010101 
-1 -1 1 1:0.012121212 2:0.01010101 3:0.018181818 4:0.016161616 
-1 -1 1 1:0.050505051 2:0.016161616 3:0.014141414 4:0.01010101 
-1 -1 1 1:0.034343434 2:0.024242424 3:0.016161616 4:0.016161616 
-1 -1 1 1:0.024242424 2:0.036363636 3:0.13939394 4:0.016161616 
-1 -1 1 1:0.022222222 2:0.012121212 3:0.02020202 4:0.022222222 
-1 -1 1 1:0.032323232 2:0.012121212 3:0.016161616 4:0.01010101 
-1 -1 1 1:0.018181818 2:0.01010101 3:0.054545455 4:0.044444444 
-1 -1 1 1:0.01010101 2:0.012121212 3:0.016161616 4:0.016161616 
-1 -1 1 1:0.012121212 2:0.016161616 3:0.070707071 4:0.022222222 
-1 -1 1 1:0.012121212 2:0.036363636 3:0.014141414 4:0.012121212 
-1 -1 1 1:0.034343434 2:0.01010101 3:0.012121212 4:0.022222222 
-1 -1 1 1:0.014141414 2:0.01010101 3:0.060606061 4:0.01010101 
-1 -1 1 1:0.070707071 2:0.014141414 3:0.084848485 4:0.012121212 
-1 -1 1 1:0.01010101 2:0.016161616 3:0.02020202 4:0.026262626 
-1 -1 1 1:0.022222222 2:0.01010101 3:0.042424242 4:0.012121212 
-1 -1 1 1:0.028282828 2:0.014141414 3:0.016161616 
-1 -1 -1 1:0.018181818 2:0.012121212 3:0.01010101 4:0.016161616 
-1 -1 -1 1:0.01010101 2:0.074747475 3:0.14747475 4:0.42828283 
-1 -1 -1 1:0.01010101 2:0.13333333 3:0.046464646 4:0.01010101 
-1 -1 -1 1:0.20808081 2:0.13535353 3:0.02020202 4:0.014141414 
-1 -1 -1 1:0.014141414 2:0.050505051 3:0.014141414 4:0.012121212 
-1 -1 -1 1:0.050505051 2:0.01010101 3:0.034343434 4:0.016161616 
-1 -1 -1 1:0.01010101 2:0.012121212 3:0.028282828 4:0.014141414 
-1 -1 -1 1:0.012121212 2:0.018181818 3:0.018181818 4:0.01010101 
-1 -1 -1 1:0.02020202 2:0.036363636 3:0.088888889 4:0.024242424 
-1 -1 -1 1:0.014141414 2:0.016161616 3:0.014141414 4:0.024242424 
-1 -1 -1 1:0.012121212 2:0.47272727 3:0.036363636 4:0.02020202 
-1 -1 -1 1:0.016161616 2:0.014141414 3:0.026262626 4:0.036363636 
-1 -1 -1 1:0.038383838 2:0.01010101 3:0.01010101 4:0.018181818 
-1 -1 -1 1:0.024242424 2:0.012121212 3:0.01010101 4:0.028282828 
-1 -1 -1 1:0.044444444 2:0.02020202 3:0.082828283 4:0.028282828 
-1 -1 -1 1:0.080808081 2:0.04040404 3:0.012121212 4:0.078787879 
-1 -1 -1 1:0.15151515 2:0.01010101 3:0.02020202 4:0.012121212 
-1 -1 -1 1:0.01010101 2:0.01010101 3:0.016161616 4:1.8767677 
-1 -1 -1 1:0.018181818 2:0.084848485 3:0.014141414 4:0.064646465 
-1 -1 -1 1:0.01010101 2:0.01010101 3:0.054545455 4:0.038383838 
-1 -1 -1 1:0.054545455 2:0.016161616 3:0.01010101 4:0.018181818 
-1 -1 -1 1:0.012121212 2:0.044444444 3:0.068686869 4:0.012121212 
-1 -1 -1 1:0.070707071 2:0.014141414 3:0.014141414 4:0.052525253 
-1 -1 -1 1:0.03030303 2:0.014141414 3:0.012121212 4:0.022222222 
-1 -1 -1 1:0.01010101 2:0.01010101 3:0.01010101 4:0.012121212 
-1 -1 -1 1:0.01010101 2:0.012121212 3:0.014141414 4:0.01010101 
-1 -1 -1 1:0.01010101 2:0.016161616 3:0.022222222 4:0.01010101 
-1 -1 -1 1:0.02020202 2:0.018181818 3:0.014141414 4:0.01010101 
-1 -1 -1 1:0.02020202 2:0.046464646 3:0.02020202 4:0.024242424 
-1 -1 -1 1:0.018181818 2:0.060606061 3:0.01010101 4:0.016161616 
-1 -1 -1 1:0.016161616 2:0.01010101 3:0.012121212 4:0.012121212 
-1 -1 -1 1:0.088888889 2:0.018181818 3:0.014141414 4:0.016161616 
-1 -1 -1 1:0.01010101 2:0.13333333 3:0.022222222 4:0.014141414 
-1 -1 -1 1:0.018181818 2:0.01010101 3:0.01010101 4:0.014141414 
-1 -1 -1 1:0.052525253 2:0.042424242 3:0.01010101 4:0.018181818 
-1 -1 -1 1:0.12323232 2:0.01010101 3:0.016161616 4:0.052525253 
-1 -1 -1 1:0.012121212 2:0.02020202 3:0.012121212 4:0.012121212 
-1 -1 -1 1:0.01010101 2:0.012121212 3:0.3979798 4:0.044444444 
-1 -1 -1 1:0.050505051 2:0.02020202 3:0.016161616 4:0.016161616 
-1 -1 -1 1:0.018181818 2:0.012121212 3:0.012121212 4:0.028282828 
-1 -1 -1 1:0.01010101 2:0.12525253 3:0.02020202 4:0.012121212 
-1 -1 -1 1:0.054545455 2:0.022222222 3:0.01010101 4:0.098989899 
-1 -1 -1 1:0.01010101 2:0.028282828 3:0.016161616 4:0.01010101 
-1 -1 -1 1:0.014141414 2:0.01010101 3:0.04040404 4:0.012121212 
-1 -1 -1 1:0.018181818 2:0.01010101 3:0.012121212 4:0.024242424 
-1 -1 -1 1:0.01010101 2:0.022222222 3:0.012121212 4:0.01010101 
-1 -1 -1 1:0.038383838 2:0.01010101 3:0.01010101 4:0.01010101 
-1 -1 -1 1:0.01010101 2:0.064646465 3:0.012121212 4:0.01010101 
-1 -1 -1 1:0.18383838 2:0.028282828 3:0.01010101 4:0.016161616 
-1 -1 -1 1:0.054545455 2:0.066666667 3:0.018181818 4:0.056565657 
-1 -1 -1 1:0.01010101 2:0.21616162 3:0.024242424 4:0.016161616 
-1 -1 -1 1:0.028282828 2:0.070707071 3:0.1010101 4:0.018181818 
-1 -1 -1 1:0.02020202 2:0.016161616 3:0.45454545 4:0.11919192 
-1 -1 -1 1:0.012121212 2:0.052525253 3:0.026262626 4:0.014141414 
-1 -1 -1 1:0.024242424 2:0.012121212 3:0.038383838 4:0.028282828 
-1 -1 -1 1:0.026262626 2:0.064646465 3:0.01010101 4:0.014141414 
-1 -1 -1 1:0.012121212 2:0.022222222 3:0.022222222 4:0.014141414 
-1 -1 -1 1:0.01010101 2:0.01010101 3:0.086868687 4:0.012121212 
-1 -1 -1 1:0.022222222 2:0.014141414 3:0.026262626 4:0.014141414 
-1 -1 -1 1:0.01010101 2:0.01010101 3:0.018181818 4:0.01010101 
-1 -1 -1 1:0.032323232 2:0.12121212 3:0.014141414 4:0.034343434 
-1 -1 -1 1:0.016161616 2:0.018181818 3:0.012121212 4:0.01010101 
-1 -1 -1 1:0.014141414 2:0.054545455 3:0.042424242 4:0.016161616 
-1 -1 -1 1:0.01010101 2:0.12727273 3:0.014141414 4:0.022222222 
-1 -1 -1 1:0.038383838 2:0.01010101 3:0.014141414 4:0.016161616 
-1 -1 -1 1:0.014141414 2:0.012121212 3:0.016161616 4:0.026262626 
-1 -1 -1 1:0.068686869 2:0.15353535 3:0.014141414 4:0.012121212 
-1 -1 -1 1:0.042424242 2:0.02020202 3:0.03030303 4:0.036363636 
-1 -1 -1 1:0.024242424 2:0.026262626 3:0.012121212 4:0.01010101 
-1 -1 -1 1:0.02020202 2:0.014141414 3:0.016161616 4:0.01010101 
-1 -1 -1 1:0.026262626 2:0.028282828 3:0.01010101 4:0.074747475 
-1 -1 -1 1:0.016161616 2:0.02020202 3:0.01010101 4:0.076767677 
-1 -1 -1 1:0.28080808 2:0.01010101 3:0.01010101 4:0.02020202 
-1 -1 -1 1:0.024242424 2:0.042424242 3:0.03030303 4:0.014141414 
-1 -1 -1 1:0.048484848 2:0.02020202 3:0.052525253 4:0.070707071 
-1 -1 -1 1:0.01010101 2:0.068686869 3:0.026262626 4:0.01010101 
-1 -1 -1 1:0.028282828 2:0.014141414 3:0.022222222 4:0.012121212 
-1 -1 -1 1:0.022222222 2:0.032323232 3:0.01010101 4:0.01010101 
-1 -1 -1 1:0.024242424 2:0.01010101 3:0.01010101 4:0.01010101 
-1 -1 -1 1:0.014141414 2:0.062626263 3:0.01010101 4:0.060606061 
-1 -1 -1 1:0.10505051 2:0.018181818 3:0.04040404 4:0.012121212 
-1 -1 -1 1:0.012121212 2:0.042424242 3:0.014141414 4:0.012121212 
-1 -1 -1 1:0.058585859 2:0.01010101 3:0.02020202 4:0.076767677 
-1 -1 -1 1:0.01010101 2:0.036363636 3:0.018181818 4:0.036363636 
-1 -1 -1 1:0.022222222 2:0.01010101 3:0.012121212 4:0.02020202 
-1 -1 -1 1:0.016161616 2:0.016161616 3:0.024242424 4:0.01010101 
-1 -1 -1 1:0.076767677 2:0.014141414 3:0.016161616 4:0.062626263 
-1 -1 -1 1:0.012121212 2:0.078787879 3:0.016161616 4:0.048484848 
-1 -1 -1 1:0.012121212 2:0.012121212 3:0.012121212 4:0.03030303 
-1 -1 -1 1:0.074747475 2:0.012121212 3:0.028282828 4:0.01010101 
-1 -1 -1 1:0.012121212 2:0.01010101 3:0.014141414 4:0.14949495 
-1 -1 -1 1:0.10505051 2:0.016161616 3:0.014141414 4:0.022222222 
-1 -1 -1 1:0.076767677 2:0.17777778 3:0.012121212 4:0.032323232 
-1 -1 -1 1:0.026262626 2:0.11515151 3:0.01010101 4:0.014141414 
-1 -1 -1 1:0.012121212 2:0.01010101 3:0.012121212 4:0.01010101 
-1 -1 -1 1:0.03030303 2:0.026262626 3:0.012121212 4:0.02020202 
-1 -1 -1 1:0.044444444 2:0.012121212 3:0.01010101 4:0.014141414 
-1 -1 -1 1:0.066666667 2:0.03030303 3:0.01010101 4:0.02020202 
-1 -1 -1 1:0.016161616 2:0.012121212 3:0.014141414 4:0.022222222 
-1 -1 -1 1:0.01010101 2:0.012121212 3:0.026262626 4:0.01010101 
-1 -1 -1 1:0.016161616 2:0.046464646 3:0.19191919 4:0.066666667 
-1 -1 -1 1:0.032323232 2:0.012121212 3:0.01010101 4:0.012121212 
-1 -1 -1 1:0.15757576 2:0.034343434 3:0.018181818 4:0.01010101 
-1 -1 -1 1:0.052525253 2:0.01010101 3:0.10505051 4:0.01010101 
-1 -1 -1 1:0.01010101 2:0.012121212 3:0.012121212 4:0.016161616 
-1 -1 -1 1:0.022222222 2:0.096969697 3:0.016161616 4:0.13333333 
-1 -1 -1 1:0.01010101 2:0.012121212 3:0.012121212 4:0.012121212 
-1 -1 -1 1:0.01010101 2:0.018181818 3:0.014141414 4:0.01010101 
-1 -1 -1 1:0.012121212 2:0.01010101 3:0.018181818 4:0.016161616 
-1 -1 -1 1:0.050505051 2:0.016161616 3:0.014141414 4:0.01010101 
-1 -1 -1 1:0.034343434 2:0.024242424 3:0.016161616 4:0.016161616 
-1 -1 -1 1:0.024242424 2:0.036363636 3:0.13939394 4:0.016161616 
-1 -1 -1 1:0.022222222 2:0.012121212 3:0.02020202 4:0.022222222 
-1 -1 -1 1:0.032323232 2:0.012121212 3:0.016161616 4:0.01010101 
-1 -1 -1 1:0.018181818 2:0.01010101 3:0.054545455 4:0.044444444 
-1 -1 -1 1:0.01010101 2:0.012121212 3:0.016161616 4:0.016161616 
-1 -1 -1 1:0.012121212 2:0.016161616 3:0.070707071 4:0.022222222 
-1 -1 -1 1:0.012121212 2:0.036363636 3:0.014141414 4:0.012121212 
-1 -1 -1 1:0.034343434 2:0.01010101 3:0.012121212 4:0.022222222 
-1 -1 -1 1:0.014141414 2:0.01010101 3:0.060606061 4:0.01010101 
-1 -1 -1 1:0.070707071 2:0.014141414 3:0.084848485 4:0.012121212 
-1 -1 -1 1:0.01010101 2:0.016161616 3:0.02020202 4:0.026262626 
-1 -1 -1 1:0.022222222 2:0.01010101 3:0.042424242 4:0.012121212 
-1 -1 -1 1:0.028282828 2:0.014141414 3:0.016161616 
