svm_type c_svc
kernel_type rbf
gamma 0.25
nr_class 7
total_sv 484
rho -0.888657 -1.03546 0.408629 -0.912073 0.144245 0.866373 -1.20491 0.386835 -0.966894 0.186435 0.827002 0.553098 -0.692125 1.1564 1.14043 -0.517602 -0.00237145 -0.514202 1.05002 1.03266 -0.019755
label 7 2 3 4 5 6 1
nr_sv 93 73 57 44 44 72 101
SV
1 1 0 0 1 1 1:0.018817204 2:0.01344086 3:0.01344086 4:0.059139785 
0 0 0 0 0 1 1:0.018817204 2:0.01344086 3:0.01344086 4:0.016129032 
0 0 0 0 0 1 1:0.01344086 2:0.016129032 3:0.02688172 4:0.01344086 
1 1 1 1 1 1 1:0.021505376 2:0.034946237 3:0.056451613 4:0.051075269 
1 1 1 1 1 1 1:0.024193548 2:0.045698925 3:0.01344086 4:0.080645161 
0 0 0 0 0 1 1:0.01344086 2:0.01344086 3:0.01344086 4:0.016129032 
1 1 0 0.1733608941590029 1 1 1:0.040322581 2:0.018817204 3:0.029569892 4:0.016129032 
1 0 0 0 1 1 1:0.029569892 2:0.032258065 3:0.01344086 4:0.016129032 
1 1 1 1 1 1 1:0.10215054 2:0.02688172 3:0.056451613 4:0.021505376 
0 0 0 0 0 1 1:0.01344086 2:0.016129032 3:0.018817204 4:0.016129032 
1 1 1 1 0 1 1:0.01344086 2:0.061827957 3:0.13709677 4:0.016129032 
1 1 1 1 1 1 1:0.091397849 2:0.043010753 3:0.029569892 4:0.01344086 
0 0 0 0 1 1 1:0.01344086 2:0.01344086 3:0.016129032 4:0.037634409 
1 1 1 1 1 1 1:0.02688172 2:0.018817204 3:0.024193548 4:0.30376344 
1 1 1 1 1 1 1:0.15053763 2:0.021505376 3:0.029569892 4:0.44623656 
1 1 1 1 1 1 1:0.14784946 2:0.10752688 3:0.016129032 4:0.01344086 
1 1 0 0 1 1 1:0.034946237 2:0.01344086 3:0.021505376 4:0.016129032 
1 0 0 0 1 1 1:0.016129032 2:0.01344086 3:0.01344086 4:0.037634409 
0 0 0 0 1 1 1:0.01344086 2:0.016129032 3:0.01344086 4:0.032258065 
1 1 0 1 1 1 1:0.043010753 2:0.016129032 3:0.02688172 4:0.040322581 
0 0 0 0 0 1 1:0.016129032 2:0.01344086 3:0.018817204 4:0.018817204 
1 1 0 0 1 1 1:0.032258065 2:0.016129032 3:0.01344086 4:0.034946237 
1 1 1 1 1 1 1:0.037634409 2:0.018817204 3:0.15591398 4:0.018817204 
1 1 1 1 0.1864956713996367 1 1:0.02688172 2:0.018817204 3:0.38172043 4:0.01344086 
1 1 1 1 1 1 1:0.024193548 2:0.029569892 3:0.016129032 4:0.069892473 
0 0 0 0 0 1 1:0.01344086 2:0.01344086 3:0.01344086 4:0.021505376 
1 0 0 0 1 1 1:0.029569892 2:0.051075269 3:0.016129032 4:0.01344086 
0 0 0 0 0 1 1:0.01344086 2:0.021505376 3:0.029569892 4:0.01344086 
1 1 1 1 1 1 1:0.032258065 2:0.11290323 3:0.01344086 4:0.016129032 
1 0 0 0 1 1 1:0.02688172 2:0.016129032 3:0.01344086 4:0.02688172 
1 1 1 1 1 1 1:0.01344086 2:0.01344086 3:0.021505376 4:0.44892473 
1 1 1 1 1 1 1:0.034946237 2:0.034946237 3:0.30376344 4:0.061827957 
1 1 1 1 1 1 1:0.021505376 2:0.02688172 3:0.21505376 4:0.048387097 
0 0 0 0 1 1 1:0.016129032 2:0.037634409 3:0.018817204 4:0.018817204 
1 1 0 0 1 1 1:0.021505376 2:0.040322581 3:0.029569892 4:0.021505376 
1 1 0 0 1 1 1:0.034946237 2:0.01344086 3:0.021505376 4:0.021505376 
1 1 1 1 1 1 1:0.25806452 2:0.037634409 3:0.01344086 4:0.01344086 
0 0 0 0 0 1 1:0.016129032 2:0.021505376 3:0.016129032 4:0.021505376 
0.7358331351999945 0 1 0 1 1 1:0.01344086 2:0.067204301 3:0.01344086 4:0.040322581 
0.852159255873546 0.5770957406823672 1 1 1 1 1:0.15053763 2:1.344086 3:0.037634409 4:0.029569892 
1 1 1 1 1 1 1:0.096774194 2:0.021505376 3:0.067204301 4:0.024193548 
1 1 0 0 0 1 1:0.021505376 2:0.021505376 3:0.037634409 4:0.018817204 
0.3701373040341558 0 1 0 1 1 1:0.016129032 2:0.15053763 3:0.01344086 4:0.01344086 
1 1 1 1 1 1 1:0.029569892 2:0.056451613 3:0.14784946 4:0.021505376 
1 0 0 0 0 1 1:0.01344086 2:0.018817204 3:0.045698925 4:0.01344086 
0 0 0 0 0 1 1:0.016129032 2:0.016129032 3:0.01344086 4:0.024193548 
0 0 0 0 1 1 1:0.01344086 2:0.045698925 3:0.016129032 4:0.016129032 
1 0.9374552039716409 1 1 1 1 1:0.01344086 2:0.21774193 3:0.018817204 4:0.02688172 
1 0 0 0 0 1 1:0.018817204 2:0.029569892 3:0.021505376 4:0.01344086 
1 1 1 1 1 1 1:0.051075269 2:0.01344086 3:0.16129032 4:0.021505376 
1 1 0 1 1 1 1:0.040322581 2:0.016129032 3:0.018817204 4:0.02688172 
1 0 0.6909645937606069 0 1 1 1:0.016129032 2:0.061827957 3:0.032258065 4:0.01344086 
1 0 1 0 1 1 1:0.016129032 2:0.064516129 3:0.01344086 4:0.040322581 
0 0 0 0 0 1 1:0.01344086 2:0.01344086 3:0.01344086 4:0.021505376 
1 0 0 0 1 1 1:0.018817204 2:0.032258065 3:0.016129032 4:0.024193548 
1 1 1 1 0 1 1:0.01344086 2:0.024193548 3:0.24193548 4:0.01344086 
0 0 0 0 0 1 1:0.01344086 2:0.018817204 3:0.01344086 4:0.018817204 
1 1 0 0 1 1 1:0.040322581 2:0.029569892 3:0.016129032 4:0.01344086 
0 0 0.9083516450462039 0 1 1 1:0.016129032 2:0.059139785 3:0.01344086 4:0.02688172 
1 1 1 1 1 1 1:0.072580645 2:0.01344086 3:0.024193548 4:0.061827957 
1 1 0 0 1 1 1:0.02688172 2:0.016129032 3:0.021505376 4:0.024193548 
1 0 0 0 1 1 1:0.021505376 2:0.034946237 3:0.018817204 4:0.01344086 
1 1 1 1 1 1 1:0.021505376 2:0.018817204 3:0.024193548 4:0.099462366 
0 0 1 0 1 1 1:0.01344086 2:0.061827957 3:0.01344086 4:0.029569892 
1 1 0 0 1 1 1:0.016129032 2:0.024193548 3:0.043010753 4:0.043010753 
1 1 0 0 1 1 1:0.018817204 2:0.024193548 3:0.029569892 4:0.029569892 
1 1 0 1 1 1 1:0.067204301 2:0.029569892 3:0.016129032 4:0.01344086 
1 1 0 0 1 1 1:0.018817204 2:0.024193548 3:0.02688172 4:0.037634409 
0 0 0 0 0 1 1:0.01344086 2:0.024193548 3:0.016129032 4:0.01344086 
1 1 0 1 1 1 1:0.061827957 2:0.016129032 3:0.01344086 4:0.024193548 
1 1 1 1 1 1 1:0.26344086 2:0.056451613 3:0.072580645 4:0.016129032 
0.04187030489230367 0 0 0 0 1 1:0.01344086 2:0.032258065 3:0.029569892 4:0.016129032 
1 0 0 0 0 1 1:0.01344086 2:0.034946237 3:0.032258065 4:0.016129032 
1 1 0 0 1 1 1:0.040322581 2:0.018817204 3:0.016129032 4:0.016129032 
1 0 1 0.8266391058409972 1 1 1:0.01344086 2:0.15322581 3:0.01344086 4:0.032258065 
1 1 1 1 1 1 1:0.056451613 2:0.22311828 3:0.01344086 4:0.01344086 
1 1 0 1 1 1 1:0.056451613 2:0.01344086 3:0.034946237 4:0.02688172 
1 1 1 1 1 1 1:0.02688172 2:0.021505376 3:0.045698925 4:0.067204301 
1 1 0 1 1 1 1:0.043010753 2:0.040322581 3:0.018817204 4:0.01344086 
1 1 1 1 1 1 1:0.077956989 2:0.029569892 3:0.072580645 4:0.016129032 
1 1 0.4770494461222922 1 1 1 1:0.045698925 2:0.01344086 3:0.029569892 4:0.040322581 
1 1 1 1 1 1 1:0.01344086 2:0.33064516 3:0.032258065 4:0.029569892 
1 1 1 1 1 1 1:0.077956989 2:0.040322581 3:0.02688172 4:0.01344086 
1 1 1 1 1 1 1:0.018817204 2:0.01344086 3:0.051075269 4:0.056451613 
1 0.4854490553459918 0 0 1 1 1:0.029569892 2:0.01344086 3:0.016129032 4:0.021505376 
1 0 0 0 0 1 1:0.018817204 2:0.01344086 3:0.021505376 4:0.024193548 
1 1 1 1 1 1 1:0.034946237 2:0.051075269 3:0.034946237 4:0.021505376 
1 1 1 1 1 1 1:0.040322581 2:0.01344086 3:0.12096774 4:0.021505376 
1 1 1 0 1 1 1:0.024193548 2:0.10483871 3:0.021505376 4:0.016129032 
1 0 0 0 0.6511937850833009 1 1:0.018817204 2:0.02688172 3:0.016129032 4:0.018817204 
1 1 1 1 1 1 1:0.083333333 2:0.018817204 3:0.094086022 4:0.13172043 
1 1 1 1 1 1 1:0.016129032 2:0.15860215 3:0.021505376 4:0.034946237 
1 1 0 1 1 1 1:0.043010753 2:0.01344086 3:0.018817204 4:0.037634409 
-1 0 0 0 1 1 1:0.030927835 2:0.017182131 3:0.024054983 4:0.020618557 
-1 1 0 1 1 1 1:0.054982818 2:0.020618557 3:0.041237113 4:0.024054983 
-1 0 0 0 1 1 1:0.020618557 2:0.034364261 3:0.017182131 4:0.027491409 
-1 1 1 1 1 1 1:0.048109966 2:0.041237113 3:0.14089347 4:0.017182131 
-1 1 1 1 1 1 1:0.017182131 2:0.034364261 3:0.020618557 4:0.065292096 
-1 1 0 1 1 1 1:0.16494845 2:0.030927835 3:0.020618557 4:0.017182131 
-1 1 0 0 1 1 1:0.027491409 2:0.027491409 3:0.017182131 4:0.048109966 
-1 0 0 0 1 1 1:0.017182131 2:0.030927835 3:0.024054983 4:0.027491409 
-1 1 1 1 1 1 1:0.037800687 2:0.030927835 3:0.051546392 4:0.06185567 
-1 1 1 1 1 1 1:0.017182131 2:0.017182131 3:0.017182131 4:0.13058419 
-1 1 0 0 1 1 1:0.024054983 2:0.020618557 3:0.024054983 4:0.037800687 
-1 1 1 1 1 1 1:0.024054983 2:0.020618557 3:0.024054983 4:0.17869416 
-1 1 1 1 1 1 1:0.072164948 2:0.024054983 3:0.24742268 4:0.041237113 
-1 1 1 1 1 1 1:0.030927835 2:0.034364261 3:0.020618557 4:0.17869416 
-1 1 0 0 1 1 1:0.027491409 2:0.017182131 3:0.024054983 4:0.027491409 
-1 0.6636436352984922 0 0 1 1 1:0.024054983 2:0.020618557 3:0.020618557 4:0.034364261 
-1 0 0 0 1 1 1:0.017182131 2:0.017182131 3:0.017182131 4:0.027491409 
-1 1 0 1 1 1 1:0.079037801 2:0.027491409 3:0.048109966 4:0.020618557 
-1 1 1 1 1 1 1:0.027491409 2:0.065292096 3:0.024054983 4:0.041237113 
-1 1 1 1 1 1 1:0.034364261 2:0.017182131 3:0.020618557 4:0.2371134 
-1 1 0 1 1 1 1:0.12027491 2:0.020618557 3:0.017182131 4:0.020618557 
-1 0 0 0 1 1 1:0.017182131 2:0.027491409 3:0.037800687 4:0.020618557 
-1 0 0 0 1 1 1:0.020618557 2:0.030927835 3:0.027491409 4:0.020618557 
-1 1 1 1 1 1 1:0.21649484 2:0.020618557 3:0.024054983 4:0.027491409 
-1 1 1 1 1 1 1:0.048109966 2:0.058419244 3:0.017182131 4:0.037800687 
-1 1 1 1 1 1 1:0.12714777 2:0.017182131 3:0.017182131 4:0.065292096 
-1 1 1 1 1 1 1:0.024054983 2:0.041237113 3:0.024054983 4:0.04467354 
-1 1 1 1 1 1 1:0.06185567 2:0.024054983 3:0.14776632 4:0.017182131 
-1 1 1 1 1 1 1:0.017182131 2:0.034364261 3:0.024054983 4:0.079037801 
-1 1 0 0 1 1 1:0.037800687 2:0.017182131 3:0.04467354 4:0.030927835 
-1 1 0 0 1 1 1:0.017182131 2:0.017182131 3:0.020618557 4:0.04467354 
-1 1 0 0 1 1 1:0.04467354 2:0.027491409 3:0.017182131 4:0.020618557 
-1 1 1 1 1 1 1:1.2783505 2:0.53608247 3:0.06185567 4:0.14089347 
-1 1 1 0 1 1 1:0.027491409 2:0.048109966 3:0.04467354 4:0.020618557 
-1 1 1 1 1 1 1:0.14089347 2:0.027491409 3:0.058419244 4:0.068728522 
-1 1 1 1 1 1 1:0.12027491 2:0.027491409 3:0.099656357 4:0.020618557 
-1 1 0 0 1 1 1:0.051546392 2:0.027491409 3:0.020618557 4:0.017182131 
-1 0 1 0 1 1 1:0.020618557 2:0.04467354 3:0.030927835 4:0.024054983 
-1 1 1 1 1 1 1:0.068728522 2:0.06185567 3:0.027491409 4:0.037800687 
-1 1 1 1 1 1 1:0.051546392 2:0.030927835 3:0.034364261 4:0.18900344 
-1 1 1 1 1 1 1:0.024054983 2:0.089347079 3:0.28522337 4:0.020618557 
-1 1 0 0 1 1 1:0.030927835 2:0.041237113 3:0.017182131 4:0.030927835 
-1 0 0 0 1 1 1:0.027491409 2:0.027491409 3:0.020618557 4:0.020618557 
-1 1 1 1 1 1 1:0.020618557 2:0.068728522 3:0.096219931 4:0.017182131 
-1 1 1 1 1 1 1:0.085910653 2:0.020618557 3:0.075601375 4:0.048109966 
-1 0 0 0 1 1 1:0.020618557 2:0.027491409 3:0.017182131 4:0.034364261 
-1 1 0 0 1 1 1:0.017182131 2:0.017182131 3:0.06185567 4:0.020618557 
-1 0 1 0 1 1 1:0.027491409 2:0.048109966 3:0.020618557 4:0.027491409 
-1 1 1 1 0.8337782696435894 1 1:0.017182131 2:0.017182131 3:0.20962199 4:0.017182131 
-1 0 0 0 1 1 1:0.020618557 2:0.017182131 3:0.017182131 4:0.030927835 
-1 1 1 1 1 1 1:0.020618557 2:0.075601375 3:0.051546392 4:0.12371134 
-1 1 1 1 1 1 1:0.26804124 2:0.068728522 3:0.017182131 4:0.020618557 
-1 1 0 0 1 1 1:0.030927835 2:0.017182131 3:0.096219931 4:0.017182131 
-1 1 1 1 1 1 1:0.04467354 2:0.079037801 3:0.030927835 4:0.030927835 
-1 1 0 0 1 1 1:0.024054983 2:0.034364261 3:0.037800687 4:0.017182131 
-1 1 0 1 1 1 1:0.085910653 2:0.020618557 3:0.034364261 4:0.037800687 
-1 1 0.3665367202351083 1 1 1 1:0.099656357 2:0.030927835 3:0.020618557 4:0.034364261 
-1 1 0 0 1 1 1:0.034364261 2:0.020618557 3:0.030927835 4:0.017182131 
-1 0 1 0 1 1 1:0.017182131 2:0.054982818 3:0.027491409 4:0.027491409 
-1 1 1 1 1 1 1:0.04467354 2:0.048109966 3:0.054982818 4:0.034364261 
-1 1 1 1 1 1 1:0.017182131 2:0.1580756 3:0.024054983 4:0.24742268 
-1 1 1 1 1 1 1:0.21305842 2:0.11340206 3:0.020618557 4:0.04467354 
-1 1 1 1 0 1 1:0.020618557 2:0.020618557 3:0.57731959 4:0.041237113 
-1 1 1 1 1 1 1:0.017182131 2:0.28522337 3:0.072164948 4:0.020618557 
-1 1 0.7280493090829295 1 1 1 1:0.037800687 2:0.030927835 3:0.06185567 4:0.024054983 
-1 0.3363563647015076 1 1 1 1 1:0.037800687 2:0.53264605 3:0.017182131 4:0.034364261 
-1 1 1 1 1 1 1:0.030927835 2:0.017182131 3:0.024054983 4:0.082474227 
-1 1 1 1 1 1 1:0.041237113 2:0.037800687 3:0.18556701 4:0.041237113 
-1 0 1 0 1 1 1:0.027491409 2:0.06185567 3:0.020618557 4:0.020618557 
-1 1 1 1 1 1 1:0.017182131 2:0.29553265 3:0.085910653 4:0.020618557 
-1 0 0 0 1 1 1:0.017182131 2:0.017182131 3:0.020618557 4:0.034364261 
-1 1 0 0 1 1 1:0.030927835 2:0.017182131 3:0.034364261 4:0.04467354 
-1 0 1 1 1 1 1:0.024054983 2:0.13745704 3:0.041237113 
-1 -1 0 0 1 1 1:0.066079295 2:0.022026432 3:0.026431718 4:0.026431718 
-1 -1 1 1 1 1 1:0.039647577 2:0.039647577 3:0.022026432 4:0.026431718 
-1 -1 1 1 1 1 1:0.022026432 2:0.070484581 3:0.039647577 4:0.42731277 
-1 -1 1 0.7367203169422647 1 1 1:0.039647577 2:0.039647577 3:0.10132159 4:0.022026432 
-1 -1 1 0 1 1 1:0.052863436 2:0.022026432 3:0.030837004 4:0.088105727 
-1 -1 1 1 1 1 1:0.39207049 2:0.022026432 3:0.083700441 4:0.052863436 
-1 -1 1 1 1 1 1:0.33920705 2:0.061674009 3:0.039647577 4:0.035242291 
-1 -1 0.4107172850431767 0.7484569300224841 1 1 1:0.0969163 2:0.022026432 3:0.039647577 4:0.083700441 
-1 -1 0 1 1 1 1:0.14977974 2:0.026431718 3:0.14537445 4:0.04845815 
-1 -1 1 1 1 1 1:0.022026432 2:0.10132159 3:0.039647577 4:0.0969163 
-1 -1 1 1 1 1 1:0.022026432 2:0.044052863 3:0.22026432 4:0.0969163 
-1 -1 1 0.9864209481423843 1 1 1:0.022026432 2:0.022026432 3:0.022026432 4:0.14977974 
-1 -1 1 1 1 1 1:0.026431718 2:0.052863436 3:0.022026432 4:0.044052863 
-1 -1 1 1 1 1 1:0.022026432 2:0.039647577 3:0.36123348 4:0.022026432 
-1 -1 1 1 1 1 1:0.34801762 2:0.083700441 3:0.022026432 4:0.04845815 
-1 -1 1 1 1 1 1:0.026431718 2:0.044052863 3:0.035242291 4:0.057268722 
-1 -1 1 1 1 1 1:0.25991189 2:0.044052863 3:0.026431718 4:0.092511013 
-1 -1 1 1 1 1 1:0.039647577 2:0.061674009 3:0.030837004 4:0.030837004 
-1 -1 0 0 1 1 1:0.039647577 2:0.026431718 3:0.026431718 4:0.026431718 
-1 -1 1 1 1 1 1:0.022026432 2:0.10572687 3:0.022026432 4:0.030837004 
-1 -1 1 1 1 1 1:0.026431718 2:0.26431718 3:0.030837004 4:0.022026432 
-1 -1 1 1 1 1 1:0.022026432 2:0.26431718 3:0.04845815 4:0.022026432 
-1 -1 0 0 1 1 1:0.030837004 2:0.022026432 3:0.030837004 4:0.022026432 
-1 -1 1 1 1 1 1:0.052863436 2:0.052863436 3:0.052863436 4:0.030837004 
-1 -1 1 0 1 1 1:0.035242291 2:0.030837004 3:0.1938326 4:0.035242291 
-1 -1 1 0 1 1 1:0.030837004 2:0.039647577 3:0.14096916 4:0.022026432 
-1 -1 1 1 1 1 1:0.10572687 2:0.04845815 3:0.044052863 4:0.039647577 
-1 -1 1 1 1 1 1:0.18942731 2:0.066079295 3:0.044052863 4:0.022026432 
-1 -1 0 1 1 1 1:0.24669604 2:0.035242291 3:0.022026432 4:0.022026432 
-1 -1 1 1 1 1 1:0.035242291 2:0.044052863 3:0.25550661 4:0.10572687 
-1 -1 1 1 1 1 1:0.026431718 2:0.18942731 3:0.026431718 4:0.030837004 
-1 -1 1 1 1 1 1:0.026431718 2:0.04845815 3:0.13215859 4:0.022026432 
-1 -1 1 1 1 1 1:0.022026432 2:0.088105727 3:0.083700441 4:0.035242291 
-1 -1 1 0.7447608124511659 1 1 1:0.022026432 2:0.026431718 3:0.40969163 4:0.026431718 
-1 -1 0 0 1 1 1:0.030837004 2:0.022026432 3:0.022026432 4:0.030837004 
-1 -1 1 1 1 1 1:0.066079295 2:0.035242291 3:0.026431718 4:0.057268722 
-1 -1 1 1 1 1 1:0.035242291 2:0.039647577 3:0.11453745 4:0.11013216 
-1 -1 1 1 1 1 1:0.022026432 2:0.022026432 3:0.18502203 4:0.39647577 
-1 -1 1 1 1 1 1:0.20264317 2:0.039647577 3:0.039647577 4:0.12334802 
-1 -1 0 0 1 1 1:0.030837004 2:0.026431718 3:0.044052863 4:0.04845815 
-1 -1 0 0 1 1 1:0.030837004 2:0.026431718 3:0.026431718 4:0.030837004 
-1 -1 1 1 1 1 1:0.022026432 2:0.061674009 3:0.044052863 4:0.022026432 
-1 -1 1 0.7836409924417008 1 1 1:0.083700441 2:0.030837004 3:0.11453745 4:0.061674009 
-1 -1 1 1 1 1 1:0.026431718 2:0.057268722 3:0.044052863 4:0.022026432 
-1 -1 1 1 1 1 1:0.11894273 2:0.04845815 3:0.057268722 4:0.035242291 
-1 -1 1 1 1 1 1:0.061674009 2:0.066079295 3:0.070484581 4:0.044052863 
-1 -1 0 1 1 1 1:0.14977974 2:0.026431718 3:0.030837004 4:0.044052863 
-1 -1 1 1 1 1 1:0.04845815 2:0.083700441 3:0.026431718 4:0.026431718 
-1 -1 0 0 1 1 1:0.061674009 2:0.026431718 3:0.039647577 4:0.039647577 
-1 -1 1 1 1 1 1:0.030837004 2:0.052863436 3:0.074889868 4:0.20264317 
-1 -1 0.5847312760654452 0 1 1 1:0.039647577 2:0.035242291 3:0.052863436 4:0.022026432 
-1 -1 0 0 1 1 1:0.044052863 2:0.022026432 3:0.070484581 4:0.044052863 
-1 -1 1 1 1 1 1:0.04845815 2:0.092511013 3:0.044052863 4:0.04845815 
-1 -1 1 1 1 1 1:0.35682819 2:0.039647577 3:0.070484581 4:0.026431718 
-1 -1 0 1 1 1 1:0.1277533 2:0.035242291 3:0.11013216 4:0.022026432 
-1 -1 1 1 1 1 1:0.022026432 2:0.066079295 3:0.11453745 4:0.37004405 
-1 -1 0 1 1 1 1:0.11453745 2:0.035242291 3:0.079295154 
-0.4862437349243335 -0.4824415517377471 -0.5497000278171037 0.7641150393551832 1 1 1:0.074285714 2:0.23428571 3:0.17714286 4:2.6571429 
-1 -1 -1 1 1 1 1:0.04 2:0.051428571 3:0.48571429 4:0.028571429 
-1 -1 -1 1 1 1 1:0.034285714 2:0.034285714 3:0.028571429 4:0.074285714 
-1 -1 -1 1 1 1 1:0.068571429 2:0.64571429 3:0.028571429 4:0.051428571 
-1 -1 -1 1 1 1 1:0.028571429 2:0.33142857 3:0.051428571 4:0.028571429 
-1 -1 -1 1 1 1 1:0.034285714 2:0.04 3:0.028571429 4:0.068571429 
-1 -1 -1 1 1 1 1:0.57714286 2:0.22857143 3:0.085714286 4:0.045714286 
-1 -1 -1 1 1 1 1:0.045714286 2:0.20571429 3:1.2 4:0.24571429 
-1 -1 -1 1 1 1 1:0.045714286 2:0.085714286 3:0.028571429 4:0.08 
-1 -1 -1 1 1 1 1:0.028571429 2:0.028571429 3:0.028571429 4:0.028571429 
-1 -1 -1 1 1 1 1:0.034285714 2:0.045714286 3:0.034285714 4:0.034285714 
-1 -1 -1 1 1 1 1:0.062857143 2:0.028571429 3:0.045714286 4:0.10285714 
-1 -1 -1 1 1 1 1:0.062857143 2:0.057142857 3:0.19428571 4:0.062857143 
-1 -1 -1 1 1 1 1:0.051428571 2:0.045714286 3:0.045714286 4:0.028571429 
-1 -1 -1 1 1 1 1:0.045714286 2:0.068571429 3:0.12571429 4:0.074285714 
-1 -1 -1 1 1 1 1:0.062857143 2:0.091428571 3:0.04 4:0.78285714 
-1 -1 -1 1 1 1 1:0.034285714 2:0.074285714 3:0.028571429 4:0.04 
-1 -1 -1 1 1 1 1:0.028571429 2:0.034285714 3:0.057142857 4:0.074285714 
-1 -1 -1 1 1 1 1:0.27428571 2:0.028571429 3:0.028571429 4:0.051428571 
-1 -1 -1 1 1 1 1:0.045714286 2:0.028571429 3:0.051428571 4:0.062857143 
-1 -1 -1 1 1 1 1:0.068571429 2:0.034285714 3:0.057142857 4:0.091428571 
-1 -1 -1 1 1 1 1:0.22857143 2:0.028571429 3:0.028571429 4:0.097142857 
-1 -1 -1 1 1 1 1:0.068571429 2:0.045714286 3:0.04 4:0.051428571 
-1 -1 -1 1 1 1 1:0.034285714 2:0.28 3:0.08 4:0.48 
-1 -1 -1 1 1 1 1:0.028571429 2:0.37714286 3:0.028571429 4:0.034285714 
-1 -1 -1 1 1 1 1:0.04 2:0.028571429 3:0.034285714 4:0.034285714 
-1 -1 -1 1 1 1 1:0.051428571 2:0.034285714 3:0.057142857 4:0.028571429 
-1 -1 -1 1 1 1 1:0.20571429 2:0.11428571 3:0.062857143 4:0.04 
-1 -1 -1 1 1 1 1:0.034285714 2:0.04 3:0.028571429 4:0.04 
-1 -1 -1 1 1 1 1:0.04 2:0.034285714 3:0.028571429 4:0.028571429 
-1 -1 -1 1 1 1 1:0.10285714 2:0.034285714 3:0.045714286 4:0.028571429 
-1 -1 -1 1 1 1 1:0.057142857 2:0.88 3:0.051428571 4:0.057142857 
-1 -1 -1 1 1 1 1:0.028571429 2:0.38285714 3:0.10285714 4:0.12571429 
-1 -1 -1 1 1 1 1:0.25714286 2:0.12 3:0.04 4:0.028571429 
-1 -1 -1 1 1 1 1:0.08 2:0.028571429 3:0.13142857 4:0.097142857 
-1 -1 -1 1 1 1 1:0.028571429 2:0.13714286 3:0.16571429 4:0.028571429 
-1 -1 -1 1 1 1 1:0.028571429 2:0.045714286 3:0.034285714 4:0.028571429 
-1 -1 -1 1 1 1 1:0.051428571 2:0.085714286 3:0.034285714 4:0.051428571 
-1 -1 -1 1 1 1 1:0.057142857 2:0.04 3:0.14857143 4:0.034285714 
-1 -1 -1 1 1 1 1:0.04 2:0.045714286 3:0.057142857 4:0.10285714 
-1 -1 -1 1 1 1 1:0.062857143 2:0.028571429 3:0.04 4:0.045714286 
-1 -1 -1 1 1 1 1:0.045714286 2:0.034285714 3:0.028571429 4:0.2 
-1 -1 -1 1 1 1 1:0.04 2:0.028571429 3:0.028571429 4:0.028571429 
-0.5901219500047695 -0.6121444775802907 -0.4457485332915181 0.4819016462840082 0.9970281989534004 0.4848064696149297 1:0.04 2:0.28 3:6.4342857 
-1 -1 -1 -1 1 1 1:0.0625 2:0.034090909 3:0.17613636 4:0.028409091 
-1 -1 -1 -1 1 1 1:0.16477273 2:0.056818182 3:0.045454545 4:0.073863636 
-1 -1 -1 -1 1 1 1:0.028409091 2:0.15340909 3:0.085227273 4:0.079545455 
-1 -1 -1 -1 1 1 1:0.085227273 2:0.0625 3:0.073863636 4:0.073863636 
-1 -1 -1 -1 1 1 1:0.028409091 2:0.034090909 3:0.056818182 4:0.028409091 
-1 -1 -1 -1 1 1 1:0.028409091 2:0.13636364 3:0.073863636 4:0.034090909 
-1 -1 -1 -1 1 1 1:0.090909091 2:0.039772727 3:0.034090909 4:1.1647727 
-1 -1 -1 -1 1 1 1:0.034090909 2:0.15340909 3:0.028409091 4:0.056818182 
-1 -1 -1 -1 1 1 1:0.073863636 2:0.068181818 3:0.068181818 4:0.039772727 
-1 -1 -1 -1 1 1 1:0.073863636 2:0.028409091 3:0.039772727 4:0.039772727 
-1 -1 -1 -1 1 1 1:0.090909091 2:0.028409091 3:0.028409091 4:0.034090909 
-1 -1 -1 -1 1 1 1:0.028409091 2:0.051136364 3:0.028409091 4:0.039772727 
-1 -1 -1 -1 1 1 1:0.039772727 2:0.028409091 3:0.045454545 4:0.11931818 
-1 -1 -1 -1 1 1 1:0.22727273 2:0.051136364 3:0.11363636 4:0.039772727 
-1 -1 -1 -1 1 1 1:0.073863636 2:0.034090909 3:0.028409091 4:0.039772727 
-1 -1 -1 -1 1 1 1:0.039772727 2:0.028409091 3:0.045454545 4:0.028409091 
-1 -1 -1 -1 1 1 1:0.068181818 2:0.051136364 3:0.028409091 4:0.034090909 
-1 -1 -1 -1 1 1 1:0.096590909 2:0.073863636 3:0.34090909 4:0.039772727 
-1 -1 -1 -1 1 1 1:0.034090909 2:0.028409091 3:0.051136364 4:0.039772727 
-1 -1 -1 -1 1 1 1:0.40909091 2:0.079545455 3:0.028409091 4:0.028409091 
-1 -1 -1 -1 1 1 1:0.045454545 2:0.034090909 3:0.31818182 4:0.028409091 
-1 -1 -1 -1 1 1 1:0.26136364 2:0.056818182 3:0.045454545 4:0.028409091 
-1 -1 -1 -1 1 1 1:0.034090909 2:0.051136364 3:0.24431818 4:0.028409091 
-1 -1 -1 -1 1 1 1:0.60795455 2:0.039772727 3:0.045454545 4:0.079545455 
-1 -1 -1 -1 1 1 1:0.051136364 2:0.034090909 3:0.0625 4:0.034090909 
-1 -1 -1 -1 1 1 1:0.056818182 2:0.039772727 3:0.073863636 4:0.034090909 
-1 -1 -1 -1 1 1 1:0.10227273 2:0.045454545 3:0.028409091 4:0.079545455 
-1 -1 -1 -1 1 1 1:0.028409091 2:0.051136364 3:0.039772727 4:0.039772727 
-1 -1 -1 -1 1 1 1:0.056818182 2:0.034090909 3:0.034090909 4:0.034090909 
-1 -1 -1 -1 1 1 1:0.045454545 2:0.051136364 3:0.085227273 4:0.056818182 
-1 -1 -1 -1 1 1 1:0.085227273 2:0.028409091 3:0.15909091 4:0.028409091 
-1 -1 -1 -1 1 1 1:0.034090909 2:0.028409091 3:0.079545455 4:0.034090909 
-1 -1 -1 -1 1 1 1:0.21590909 2:0.38636364 3:0.039772727 4:0.034090909 
-1 -1 -1 -1 1 1 1:0.090909091 2:0.034090909 3:0.0625 4:0.28977273 
-1 -1 -1 -1 1 1 1:0.039772727 2:0.034090909 3:0.039772727 4:0.15909091 
-1 -1 -1 -1 1 1 1:0.10795454 2:0.034090909 3:0.085227273 4:0.051136364 
-1 -1 -1 -1 1 1 1:0.028409091 2:0.034090909 3:0.073863636 4:0.18181818 
-1 -1 -1 -1 1 1 1:0.028409091 2:0.073863636 3:0.068181818 4:0.034090909 
-1 -1 -1 -0.2460166856391915 1 1 1:0.32386364 2:0.045454545 3:0.028409091 4:0.051136364 
-1 -1 -1 -1 1 1 1:0.039772727 2:0.034090909 3:0.051136364 4:0.034090909 
-1 -1 -1 -1 1 1 1:0.039772727 2:0.085227273 3:0.034090909 4:0.056818182 
-1 -1 -1 -1 1 1 1:0.034090909 2:0.10227273 3:0.056818182 4:0.096590909 
-1 -1 -1 -1 1 1 1:0.028409091 2:0.30113636 3:0.085227273 4:0.028409091 
-1 -1 -1 -1 1 1 1:0.125 2:0.65909091 3:0.21022727 4:0.039772727 
-1 -1 -1 -1 -1 1 1:0.055749129 2:0.045296167 3:0.031358885 4:0.017421603 
-1 -1 -1 -0 -1 1 1:0.094076655 2:0.024390244 3:0.024390244 4:0.017421603 
-1 -1 -1 -0 -1 1 1:0.097560976 2:0.024390244 3:0.017421603 4:0.020905923 
-1 -1 -0 -1 -0.6066633310936125 1 1:0.080139373 2:0.67247387 3:0.020905923 4:0.024390244 
-1 -1 -0 -0 -0 1 1:0.017421603 2:0.017421603 3:0.017421603 4:0.020905923 
-1 -1 -0 -0 -0 1 1:0.017421603 2:0.024390244 3:0.017421603 4:0.017421603 
-1 -1 -1 -1 -0 1 1:0.017421603 2:0.15331011 3:0.020905923 4:0.094076655 
-1 -1 -0 -0 -0 1 1:0.027874564 2:0.017421603 3:0.017421603 4:0.031358885 
-1 -1 -1 -1 -1 1 1:0.45993031 2:0.048780488 3:0.020905923 4:0.055749129 
-1 -1 -0 -0 -0 1 1:0.027874564 2:0.017421603 3:0.017421603 4:0.017421603 
-1 -1 -1 -1 -1 1 1:0.3554007 2:0.017421603 3:0.024390244 4:0.29616725 
-1 -1 -1 -0 -0 1 1:0.017421603 2:0.020905923 3:0.027874564 4:0.048780488 
-1 -1 -1 -1 -1 1 1:0.22299652 2:0.10801394 3:0.017421603 4:0.75958188 
-1 -1 -1 -1 -1 1 1:0.059233449 2:0.15679442 3:0.14982578 4:0.020905923 
-1 -1 -0 -0 -0 1 1:0.024390244 2:0.020905923 3:0.017421603 4:0.027874564 
-1 -1 -1 -1 -1 1 1:0.017421603 2:0.041811847 3:0.073170732 4:0.017421603 
-1 -1 -1 -1 -1 1 1:0.027874564 2:0.034843206 3:0.059233449 4:0.017421603 
-1 -1 -0 -0 -0 1 1:0.017421603 2:0.027874564 3:0.020905923 4:0.031358885 
-1 -1 -1 -0 -1 1 1:0.080139373 2:0.045296167 3:0.017421603 4:0.038327526 
-1 -1 -1 -0 -0 1 1:0.020905923 2:0.027874564 3:0.031358885 4:0.020905923 
-1 -1 -1 -1 -0 1 1:0.020905923 2:0.083623693 3:0.020905923 4:0.041811847 
-1 -1 -1 -1 -1 1 1:0.024390244 2:0.031358885 3:0.024390244 4:0.23344948 
-1 -1 -1 -1 -0 1 1:0.017421603 2:0.087108014 3:0.024390244 4:0.024390244 
-1 -1 -1 -0 -0 1 1:0.024390244 2:0.017421603 3:0.024390244 4:0.027874564 
-1 -1 -0 -0 -0 1 1:0.017421603 2:0.041811847 3:0.017421603 4:0.034843206 
-1 -1 -1 -1 -1 1 1:0.034843206 2:0.052264808 3:0.031358885 4:0.027874564 
-1 -1 -1 -1 -1 1 1:0.024390244 2:0.066202091 3:0.055749129 4:0.017421603 
-1 -1 -1 -0 -0.8012622689033477 1 1:0.080139373 2:0.017421603 3:0.017421603 4:0.069686411 
-1 -1 -1 -0.003824229310282097 -0 1 1:0.038327526 2:0.059233449 3:0.020905923 4:0.031358885 
-1 -1 -1 -1 -1 1 1:0.1010453 2:0.017421603 3:0.1010453 4:0.027874564 
-1 -1 -1 -0 -1 1 1:0.080139373 2:0.017421603 3:0.020905923 4:0.020905923 
-1 -1 -1 -1 -0 1 1:0.038327526 2:0.094076655 3:0.017421603 4:0.083623693 
-1 -1 -1 -1 -1 1 1:0.017421603 2:0.041811847 3:0.034843206 4:0.038327526 
-1 -1 -1 -1 -1 1 1:0.024390244 2:0.059233449 3:0.034843206 4:0.020905923 
-1 -1 -1 -0 -1 1 1:0.073170732 2:0.031358885 3:0.024390244 4:0.024390244 
-1 -1 -1 -1 -1 1 1:0.027874564 2:0.027874564 3:0.1010453 4:0.020905923 
-1 -1 -1 -1 -1 1 1:0.12543554 2:0.041811847 3:0.038327526 4:0.041811847 
-1 -1 -1 -1 -1 1 1:0.027874564 2:0.076655052 3:0.031358885 4:0.041811847 
-1 -1 -1 -1 -1 1 1:0.11498258 2:0.024390244 3:0.041811847 4:0.06271777 
-1 -1 -1 -1 -1 1 1:0.78048781 2:0.024390244 3:0.020905923 4:0.024390244 
-1 -1 -0 -1 -1 1 1:0.083623693 2:0.62369338 3:0.017421603 4:0.020905923 
-1 -1 -0 -0 -0 1 1:0.024390244 2:0.020905923 3:0.017421603 4:0.031358885 
-1 -1 -1 -0 -0 1 1:0.048780488 2:0.045296167 3:0.024390244 4:0.031358885 
-1 -1 -1 -1 -1 1 1:0.041811847 2:0.13937282 3:0.024390244 4:0.041811847 
-1 -1 -0.2306710063149676 -0 -0 1 1:0.017421603 2:0.020905923 3:0.024390244 4:0.034843206 
-1 -1 -1 -1 -1 1 1:0.066202091 2:0.020905923 3:0.055749129 4:0.027874564 
-1 -1 -1 -1 -0.4760857629207447 1 1:0.041811847 2:0.020905923 3:0.017421603 4:0.20557491 
-1 -1 -1 -1 -1 1 1:0.034843206 2:0.031358885 3:0.10801394 4:0.027874564 
-1 -1 -1 -1 -1 1 1:0.017421603 2:0.020905923 3:0.041811847 4:0.031358885 
-1 -1 -1 -1 -1 1 1:0.017421603 2:0.045296167 3:0.034843206 4:0.038327526 
-1 -1 -1 -1 -0 1 1:0.024390244 2:0.017421603 3:0.020905923 4:0.11498258 
-1 -1 -1 -1 -1 1 1:0.066202091 2:0.045296167 3:0.024390244 4:0.25783972 
-1 -1 -0 -0 -0 1 1:0.034843206 2:0.020905923 3:0.017421603 4:0.055749129 
-1 -1 -0.7132422389029741 -1 -0.7133005322853322 1 1:0.055749129 2:1.0487805 3:0.087108014 4:0.066202091 
-1 -1 -1 -1 -1 1 1:0.034843206 2:0.027874564 3:0.097560976 4:0.052264808 
-1 -1 -1 -1 -1 1 1:0.027874564 2:0.020905923 3:0.045296167 4:0.017421603 
-0.8376894564829377 -0.8337782696435894 -0 -0.9932039696431185 -0 0.9638226945313655 1:4.8641115 2:0.052264808 3:0.031358885 4:0.017421603 
-1 -1 -1 -0 -0.9617734912654343 1 1:0.045296167 2:0.027874564 3:0.027874564 4:0.020905923 
-1 -1 -1 -0 -0 1 1:0.041811847 2:0.020905923 3:0.024390244 4:0.031358885 
-1 -1 -1 -1 -1 1 1:0.024390244 2:0.038327526 3:0.034843206 4:0.048780488 
-1 -1 -1 -1 -1 1 1:0.031358885 2:0.034843206 3:0.052264808 4:0.059233449 
-1 -1 -1 -1 -1 1 1:0.080139373 2:0.017421603 3:0.087108014 4:0.066202091 
-1 -1 -0.05608675478205849 -1 -1 1 1:0.020905923 2:0.14285714 3:0.017421603 4:0.4738676 
-1 -1 -0 -0 -0 1 1:0.020905923 2:0.017421603 3:0.020905923 4:0.034843206 
-1 -1 -1 -0 -0 1 1:0.076655052 2:0.017421603 3:0.017421603 4:0.038327526 
-1 -1 -1 -1 -1 1 1:0.017421603 2:0.038327526 3:0.16376307 4:0.024390244 
-1 -1 -1 -1 -0 1 1:0.031358885 2:0.024390244 3:0.020905923 4:0.17073171 
-1 -1 -1 -1 -0 1 1:0.020905923 2:0.055749129 3:0.024390244 4:0.034843206 
-1 -1 -1 -0 -1 1 1:0.10452962 2:0.017421603 3:0.017421603 4:0.017421603 
-1 -1 -1 -1 -1 1 1:0.017421603 2:0.020905923 3:0.094076655 4:0.031358885 
-1 -1 -1 -0 -1 1 1:0.14285714 2:0.020905923 3:0.038327526 4:0.020905923 
-1 -1 -1 -0 -0.4409146135315284 1 1:0.076655052 2:0.076655052 3:0.017421603 
-1 -1 -1 -1 -1 -1 1:0.01010101 2:0.074747475 3:0.14747475 4:0.42828283 
-1 -1 -1 -1 -1 -1 1:0.01010101 2:0.13333333 3:0.046464646 4:0.01010101 
-1 -1 -1 -1 -1 -1 1:0.20808081 2:0.13535353 3:0.02020202 4:0.014141414 
-1 -0 -0 -0 -0 -1 1:0.014141414 2:0.050505051 3:0.014141414 4:0.012121212 
-1 -1 -1 -0 -0.7626364030441262 -1 1:0.050505051 2:0.01010101 3:0.034343434 4:0.016161616 
-1 -0 -0 -0 -0 -0 1:0.01010101 2:0.012121212 3:0.028282828 4:0.014141414 
-1 -0 -0 -0 -0 -0 1:0.012121212 2:0.018181818 3:0.018181818 4:0.01010101 
-1 -1 -1 -1 -1 -1 1:0.02020202 2:0.036363636 3:0.088888889 4:0.024242424 
-1 -0 -0 -0 -0 -0 1:0.014141414 2:0.016161616 3:0.014141414 4:0.024242424 
-1 -1 -1 -1 -1 -1 1:0.012121212 2:0.47272727 3:0.036363636 4:0.02020202 
-1 -1 -0 -0 -0 -0 1:0.016161616 2:0.014141414 3:0.026262626 4:0.036363636 
-0 -1 -0 -0 -0 -1 1:0.038383838 2:0.01010101 3:0.01010101 4:0.018181818 
-0.82448344078488 -0 -0 -0 -0 -0.8015110965900073 1:0.024242424 2:0.012121212 3:0.01010101 4:0.028282828 
-1 -1 -1 -1 -1 -1 1:0.044444444 2:0.02020202 3:0.082828283 4:0.028282828 
-1 -1 -1 -1 -1 -1 1:0.080808081 2:0.04040404 3:0.012121212 4:0.078787879 
-0.3349371106015239 -1 -1 -1 -1 -1 1:0.15151515 2:0.01010101 3:0.02020202 4:0.012121212 
-0.4111640590945658 -0.4241930764484463 -0.5485340067311584 -1 -0.8338412514207921 -1 1:0.01010101 2:0.01010101 3:0.016161616 4:1.8767677 
-1 -1 -1 -1 -1 -1 1:0.018181818 2:0.084848485 3:0.014141414 4:0.064646465 
-1 -1 -1 -0 -0 -0 1:0.01010101 2:0.01010101 3:0.054545455 4:0.038383838 
-0 -1 -1 -0 -0 -1 1:0.054545455 2:0.016161616 3:0.01010101 4:0.018181818 
-1 -1 -1 -1 -0 -0 1:0.012121212 2:0.044444444 3:0.068686869 4:0.012121212 
-1 -1 -1 -0 -1 -1 1:0.070707071 2:0.014141414 3:0.014141414 4:0.052525253 
-1 -0 -0 -0 -0 -1 1:0.03030303 2:0.014141414 3:0.012121212 4:0.022222222 
-1 -0 -0 -0 -0 -0 1:0.01010101 2:0.016161616 3:0.022222222 4:0.01010101 
-1 -1 -0 -0 -0 -1 1:0.02020202 2:0.046464646 3:0.02020202 4:0.024242424 
-1 -0 -0 -0 -0 -1 1:0.018181818 2:0.060606061 3:0.01010101 4:0.016161616 
-1 -1 -1 -0 -1 -1 1:0.088888889 2:0.018181818 3:0.014141414 4:0.016161616 
-1 -1 -0 -1 -1 -1 1:0.01010101 2:0.13333333 3:0.022222222 4:0.014141414 
-1 -1 -1 -0 -1 -1 1:0.052525253 2:0.042424242 3:0.01010101 4:0.018181818 
-1 -1 -1 -1 -1 -1 1:0.12323232 2:0.01010101 3:0.016161616 4:0.052525253 
-0.5733080944859873 -0 -0 -0 -0 -0 1:0.012121212 2:0.02020202 3:0.012121212 4:0.012121212 
-1 -1 -1 -1 -1 -1 1:0.01010101 2:0.012121212 3:0.3979798 4:0.044444444 
-1 -1 -1 -0 -0 -1 1:0.050505051 2:0.02020202 3:0.016161616 4:0.016161616 
-1 -0 -0 -0 -0 -0 1:0.018181818 2:0.012121212 3:0.012121212 4:0.028282828 
-1 -1 -0 -1 -0.4053168717007235 -1 1:0.01010101 2:0.12525253 3:0.02020202 4:0.012121212 
-1 -1 -1 -1 -1 -1 1:0.054545455 2:0.022222222 3:0.01010101 4:0.098989899 
-1 -0 -0 -0 -0 -0 1:0.01010101 2:0.028282828 3:0.016161616 4:0.01010101 
-1 -0 -0 -0 -0 -0 1:0.014141414 2:0.01010101 3:0.04040404 4:0.012121212 
-1 -0 -0 -0 -0 -0 1:0.01010101 2:0.022222222 3:0.012121212 4:0.01010101 
-1 -0 -0 -0 -0 -1 1:0.01010101 2:0.064646465 3:0.012121212 4:0.01010101 
-1 -1 -1 -1 -1 -1 1:0.18383838 2:0.028282828 3:0.01010101 4:0.016161616 
-1 -1 -1 -1 -1 -1 1:0.054545455 2:0.066666667 3:0.018181818 4:0.056565657 
-1 -1 -1 -1 -1 -1 1:0.01010101 2:0.21616162 3:0.024242424 4:0.016161616 
-1 -1 -1 -1 -1 -1 1:0.028282828 2:0.070707071 3:0.1010101 4:0.018181818 
-1 -1 -1 -1 -1 -1 1:0.02020202 2:0.016161616 3:0.45454545 4:0.11919192 
-1 -1 -0 -0 -0 -1 1:0.012121212 2:0.052525253 3:0.026262626 4:0.014141414 
-1 -1 -1 -0 -0 -0 1:0.024242424 2:0.012121212 3:0.038383838 4:0.028282828 
-1 -1 -0 -0 -0 -1 1:0.026262626 2:0.064646465 3:0.01010101 4:0.014141414 
-1 -0 -0 -0 -0 -0 1:0.012121212 2:0.022222222 3:0.022222222 4:0.014141414 
-1 -1 -1 -0 -0 -0 1:0.01010101 2:0.01010101 3:0.086868687 4:0.012121212 
-1 -0 -0 -0 -0 -0 1:0.022222222 2:0.014141414 3:0.026262626 4:0.014141414 
-1 -1 -1 -1 -1 -1 1:0.032323232 2:0.12121212 3:0.014141414 4:0.034343434 
-1 -1 -1 -1 -0 -1 1:0.014141414 2:0.054545455 3:0.042424242 4:0.016161616 
-1 -1 -0 -1 -1 -1 1:0.01010101 2:0.12727273 3:0.014141414 4:0.022222222 
-0 -1 -0 -0 -0 -1 1:0.038383838 2:0.01010101 3:0.014141414 4:0.016161616 
-1 -0 -0 -0 -0 -0 1:0.014141414 2:0.012121212 3:0.016161616 4:0.026262626 
-1 -1 -1 -1 -1 -1 1:0.068686869 2:0.15353535 3:0.014141414 4:0.012121212 
-1 -1 -1 -0 -1 -1 1:0.042424242 2:0.02020202 3:0.03030303 4:0.036363636 
-1 -0 -0 -0 -0 -0 1:0.024242424 2:0.026262626 3:0.012121212 4:0.01010101 
-1 -1 -1 -1 -0 -1 1:0.026262626 2:0.028282828 3:0.01010101 4:0.074747475 
-1 -1 -1 -0 -0 -1 1:0.016161616 2:0.02020202 3:0.01010101 4:0.076767677 
-1 -1 -1 -1 -1 -1 1:0.28080808 2:0.01010101 3:0.01010101 4:0.02020202 
-1 -1 -0.8972184556969343 -0 -0 -1 1:0.024242424 2:0.042424242 3:0.03030303 4:0.014141414 
-1 -1 -1 -1 -1 -1 1:0.048484848 2:0.02020202 3:0.052525253 4:0.070707071 
-1 -1 -0 -1 -0 -1 1:0.01010101 2:0.068686869 3:0.026262626 4:0.01010101 
-1 -0.5758069235515537 -0 -0 -0 -0 1:0.028282828 2:0.014141414 3:0.022222222 4:0.012121212 
-1 -0 -0 -0 -0 -1 1:0.022222222 2:0.032323232 3:0.01010101 4:0.01010101 
-1 -1 -1 -1 -0 -1 1:0.014141414 2:0.062626263 3:0.01010101 4:0.060606061 
-1 -1 -1 -1 -1 -1 1:0.10505051 2:0.018181818 3:0.04040404 4:0.012121212 
-1 -0 -0 -0 -0 -0.9036138429589293 1:0.012121212 2:0.042424242 3:0.014141414 4:0.012121212 
-1 -1 -1 -1 -1 -1 1:0.058585859 2:0.01010101 3:0.02020202 4:0.076767677 
-1 -0 -0 -0 -0 -1 1:0.01010101 2:0.036363636 3:0.018181818 4:0.036363636 
-1 -0 -0 -0 -0 -0 1:0.016161616 2:0.016161616 3:0.024242424 4:0.01010101 
-1 -1 -1 -1 -1 -1 1:0.076767677 2:0.014141414 3:0.016161616 4:0.062626263 
-1 -1 -1 -1 -0 -1 1:0.012121212 2:0.078787879 3:0.016161616 4:0.048484848 
-1 -0 -0 -0 -0 -0 1:0.012121212 2:0.012121212 3:0.012121212 4:0.03030303 
-1 -1 -1 -0 -1 -1 1:0.074747475 2:0.012121212 3:0.028282828 4:0.01010101 
-1 -1 -1 -1 -0.9982054738343582 -1 1:0.012121212 2:0.01010101 3:0.014141414 4:0.14949495 
-1 -1 -1 -0.4848064696149297 -1 -1 1:0.10505051 2:0.016161616 3:0.014141414 4:0.022222222 
-1 -1 -1 -1 -1 -1 1:0.076767677 2:0.17777778 3:0.012121212 4:0.032323232 
-1 -1 -0 -1 -1 -1 1:0.026262626 2:0.11515151 3:0.01010101 4:0.014141414 
-1 -1 -0 -0 -0 -1 1:0.03030303 2:0.026262626 3:0.012121212 4:0.02020202 
-0 -1 -0 -0 -0 -1 1:0.044444444 2:0.012121212 3:0.01010101 4:0.014141414 
-1 -1 -1 -0 -1 -1 1:0.066666667 2:0.03030303 3:0.01010101 4:0.02020202 
-0.8561072950330429 -0 -0 -0 -0 -0 1:0.01010101 2:0.012121212 3:0.026262626 4:0.01010101 
-1 -1 -1 -1 -1 -1 1:0.016161616 2:0.046464646 3:0.19191919 4:0.066666667 
-1 -1 -1 -1 -1 -1 1:0.15757576 2:0.034343434 3:0.018181818 4:0.01010101 
-1 -1 -1 -1 -1 -1 1:0.052525253 2:0.01010101 3:0.10505051 4:0.01010101 
-1 -1 -1 -1 -1 -1 1:0.022222222 2:0.096969697 3:0.016161616 4:0.13333333 
-0 -1 -1 -0 -0 -1 1:0.050505051 2:0.016161616 3:0.014141414 4:0.01010101 
-1 -1 -0 -0 -0 -1 1:0.034343434 2:0.024242424 3:0.016161616 4:0.016161616 
-1 -1 -1 -1 -1 -0.258697754982429 1:0.024242424 2:0.036363636 3:0.13939394 4:0.016161616 
-1 -0 -0 -0 -0 -0 1:0.022222222 2:0.012121212 3:0.02020202 4:0.022222222 
-1 -1 -1 -0 -0 -1 1:0.018181818 2:0.01010101 3:0.054545455 4:0.044444444 
-1 -1 -1 -0 -0 -0 1:0.012121212 2:0.016161616 3:0.070707071 4:0.022222222 
-1 -0 -0 -0 -0 -0 1:0.012121212 2:0.036363636 3:0.014141414 4:0.012121212 
-0 -1 -0 -0 -0 -1 1:0.034343434 2:0.01010101 3:0.012121212 4:0.022222222 
-1 -1 -1 -0 -0 -0 1:0.014141414 2:0.01010101 3:0.060606061 4:0.01010101 
-1 -1 -1 -1 -1 -1 1:0.070707071 2:0.014141414 3:0.084848485 4:0.012121212 
-1 -0 -0 -0 -0 -0 1:0.01010101 2:0.016161616 3:0.02020202 4:0.026262626 
-1 -1 -0.5542475375719074 -0 -0 -0 1:0.022222222 2:0.01010101 3:0.042424242 4:0.012121212 
