svm_type c_svc
kernel_type rbf
gamma 0.25
nr_class 7
total_sv 1135
rho -0.212856 -0.295215 -0.0165658 -0.0226988 -0.0396561 0.130516 -0.101047 0.200519 0.196898 0.182404 0.317047 0.285648 0.277519 0.266884 0.387916 -0.00661084 -0.0240352 0.146671 -0.0173517 0.15267 0.166497
label 1 2 3 4 5 6 7
nr_sv 173 136 122 170 169 166 199
SV
0.7870960947944168 0.7046890172625506 0.9833793135354892 0.977558484068023 0.9601732619170837 1 1:34.09912 2:31.35899 3:85.56054 4:37.63298 
0.7917797245902001 0.7055025554646318 0.9833785362050829 0.982195532918316 0.9601826737852588 1 1:49.44486 2:31.60438 3:35.69916 4:30.69037 
0.7870406642529167 0.7046018583497138 0.983379233249452 0.9774091328339226 0.9602292565270011 1 1:28.68177 2:48.38527 3:138.45341 4:78.74814 
0.7870470319995926 0.7047197622730235 0.9833793173943373 0.9776259646315418 0.9604585869625053 1 1:101.74527 2:55.65533 3:207.01669 4:34.25641 
0.7870958566026228 0.7045563501976864 0.9833793173943373 0.9773691404771745 0.9604585444778759 1 1:59.34461 2:35.69916 3:144.59296 4:33.65155 
0.78709696907185 0.7048409082190994 0.9833785362238227 0.9774091255414444 0.9602818665116528 1 1:68.90462 2:76.01936 3:26.34859 4:231.43027 
0.7870118955782122 0.7046892162235724 0.9829431320783797 0.9776550326913331 0.9609471363419161 1 1:57.96689 2:29.92328 3:46.57679 4:48.90732 
0.7871009947219881 0.7236072500859467 1 0.9772247908408555 1 1 1:27.92482 2:48.90732 3:29.58142 4:32.60487 
0.787093606795749 0.7047952523803263 0.9833785344288564 0.9777076874887999 0.9603639666360703 1 1:29.26237 2:31.60438 3:183.58989 4:75.80184 
0.7870960882762619 0.7048018952250201 0.9834565573140389 0.9773432002408904 0.9603639420528721 1 1:29.7493 2:32.60487 3:57.6409 4:191.90722 
0.7870407627138754 0.7049180796395299 0.983567492443656 0.977571222128249 0.9602291641101018 1 1:78.89165 2:39.42972 3:50.46193 4:39.96581 
0.7870947194620311 0.7049171984767943 0.9834566004976569 0.9773308068522093 0.960455548482007 1 1:28.96327 2:27.37433 3:47.73505 4:347.27622 
0.7870960882762619 0.7046849764788123 0.9834566155560982 0.9773416455499441 0.9604585444778759 1 1:387.00169 2:225.7441 3:41.39167 4:96.91376 
0.7869791905771387 0.7046224074070732 0.98346401451785 0.9773429282062767 0.9601823929477508 1 1:162.91582 2:56.5846 3:519.71376 4:217.57866 
0.7870953534465839 0.7046020258276307 0.9834640859333684 0.9773915532035765 0.9601823929477508 1 1:26.88069 2:102.28733 3:104.31291 4:72.79189 
0.7870373730080283 0.7047197623887492 0.9834640725798811 0.9773758228788112 0.9608901157777301 1 1:59.84657 2:159.97899 3:29.26237 4:32.14536 
0.7870405824617698 0.7047952378325009 0.983533122665828 0.9773764144653287 0.9600607534211634 1 1:26.69667 2:62.28407 3:31.35899 4:45.4655 
0.7930370855864717 0.7050674842819236 1 0.9801125610717667 1 1 1:32.97538 2:28.16408 3:45.26137 4:33.10439 
0.7869016262599389 0.7046813002423814 0.9827990676604977 0.9772825586469858 0.9602384528268774 1 1:27.17072 2:61.90667 3:31.12558 4:32.42652 
0.7870936422406051 0.7047969684818894 0.9834640920162384 0.9773763837376079 0.9603639666360703 1 1:27.92482 2:71.02408 3:29.41924 4:187.82409 
0.7876626046936106 0.7049173005044147 0.9834640857918029 0.9776746926467994 0.9602818664111951 1 1:92.81372 2:99.74376 3:32.60487 4:31.1356 
0.7870119148912134 0.7045922054212239 1 0.9776746932316152 0.9602291243549677 1 1:28.96327 2:27.07208 3:80.60541 4:60.23974 
0.7871020155755628 0.704602024880949 0.9835815505708233 0.9774633276869885 0.96022915343535 1 1:147.34424 2:42.71468 3:31.35899 4:52.69717 
0.7870967455033218 0.7049174047531412 0.9834660674240885 0.9774633276869886 0.9601823929477508 1 1:394.12711 2:62.84066 3:79.91141 4:32.13649 
0.7870373730520388 0.7055277557717244 0.983464085791799 0.9774569945126459 0.9608901157777263 1 1:53.76139 2:35.90795 3:38.62179 4:63.03693 
0.7870442183363333 0.7050321332104437 0.9834689308789135 0.9846433105404853 0.9600332952432872 1 1:29.7493 2:53.21449 3:39.09476 4:39.09476 
0.7870118955782122 0.7045563751073178 0.9834660674240829 0.9774548142866751 0.9604642611071947 1 1:49.57419 2:194.05164 3:89.9057 4:125.42442 
0.7869791708971702 0.7046525917297435 0.9834068748322274 0.9773654929136295 0.9602000036858758 1 1:33.10439 2:71.26815 3:28.547 4:89.72481 
0.7870367791728284 0.7053149518722865 0.9833927330530778 0.9773418222640644 0.9602818410419953 1 1:43.31534 2:29.11048 3:46.70341 4:33.10439 
0.7870370249556695 0.7048019441995762 0.9834294903369764 0.9768019106883149 0.9602000400655614 1 1:28.28834 2:36.12461 3:88.33905 4:42.29323 
0.787228888338032 0.7046849764788123 0.9834660674240829 0.9774569949458753 0.9600278472287047 1 1:116.69413 2:30.10383 3:103.92259 4:108.07646 
0.7617848856748639 0.6822409274721033 0.951789987272629 0.9559016507008646 0.9292631821962014 1 1:38.77577 2:25.86978 3:39.78231 4:26.97543 
0.7874011306103428 0.7047897758955084 0.9836098479448639 0.977456994729196 0.9600463053379465 1 1:71.02408 2:133.08507 3:31.61831 4:100.96203 
0.7870953561469611 0.7050748529738475 0.9836294946502393 0.9773338822060543 0.960182383087934 1 1:42.96653 2:27.69697 3:58.92192 4:35.69916 
0.7872289274406896 0.7045499044104282 0.9835220738661004 0.9769688186154775 0.9609514560698408 1 1:35.49771 2:70.46195 3:29.92328 4:81.97597 
0.787077233126687 0.7048387767112416 0.9836098478788918 0.9774569945126499 0.9600604877300971 1 1:29.58142 2:64.13548 3:70.0999 4:39.26015 
0.7876585578099087 0.7045922054212239 0.9836294577935764 0.9774569945126527 0.9600433656329271 1 1:224.72079 2:39.60369 3:53.95086 4:40.54859 
0.7870954130232609 0.7046018584092187 0.9836098494337423 0.9769688560420587 0.960144175948903 1 1:40.75468 2:475.01968 3:29.92328 4:54.52466 
0.7206488201280552 0.6469045668559018 0.9009084310977536 0.8944245768048728 0.8791783404256793 1 1:31.12558 2:35.49771 3:32.4865 4:31.60438 
0.7871167046245608 0.7047197622730235 0.9835221130819538 0.9769688560421322 0.9601421252325691 1 1:54.26848 2:33.10439 3:117.08284 4:28.16408 
0.7870373718299181 0.7046890380607945 0.9833932392295938 0.9774569924231152 0.9600340204676612 1 1:27.27144 2:29.41924 3:41.39167 4:49.46308 
0.7869791905771387 0.7047952523803263 0.9836098494162165 0.9769688563674079 0.9601823619771752 1 1:102.22895 2:34.41813 3:31.60438 4:180.74012 
0.7870373858180103 0.7046890175880017 0.9836098478791946 0.9769688563674278 0.9600607716782413 1 1:33.94602 2:127.93207 3:58.34282 4:93.29305 
0.7876625684469112 0.7046236104378365 0.9835243934730804 0.9781141105845181 0.9606469502955284 1 1:35.49771 2:28.04295 3:28.41593 4:42.86049 
0.7870387213482365 0.7048020694377877 0.9836294946505648 0.9769688564147646 0.9600604877300971 1 1:54.39922 2:30.90303 3:62.4579 4:170.48433 
0.7840745827879916 0.7018186718894338 0.9796278311606855 0.973037181581392 0.9583026510138212 1 1:30.10383 2:40.10385 3:52.20639 4:35.69916 
0.7874342100945153 0.7048258415663088 0.9835904324476825 0.977374326646642 0.9600960230236999 1 1:28.16408 2:28.82045 3:55.17398 4:28.16408 
0.7870961702611805 0.7046408984692113 0.9874170796028121 0.9769688627775621 0.9601823804166328 1 1:27.80954 2:28.41593 3:39.26015 4:40.92048 
0.7870960951614487 0.7048016531967776 0.983629494650563 0.9769688564147646 0.9602182490380019 1 1:531.15104 2:36.77155 3:32.42652 4:28.68177 
0.787095855491684 0.7045563927588379 0.9834294891160096 0.9768019111504632 0.9601824783755513 1 1:57.99226 2:62.28407 3:66.1299 4:377.24987 
0.787011903118538 0.7048016531967776 0.9829431320345404 0.9767435691767259 0.9604585869625053 1 1:100.50513 2:43.31534 3:51.73957 4:284.42809 
0.7871274285377311 0.704556375420935 0.9829713564150175 0.9767436208564518 0.9601447765865208 1 1:62.41508 2:36.12461 3:87.57226 4:33.37145 
0.7870373730080283 0.7046224074049472 0.9836280574098403 0.9773359158331325 0.9603639420528721 1 1:67.65765 2:38.62179 3:197.17106 4:37.25015 
0.7870179742380011 0.7047928997332134 0.983378880463845 0.9773303908293302 0.9601461434175385 1 1:30.69037 2:60.55432 3:30.10383 4:60.87777 
0.7839673095365174 0.70189201742372 0.9797007037296457 0.9731073528722766 0.9638921825639597 1 1:30.10383 2:38.62179 3:52.69717 4:40.15449 
0.7870958554916722 0.7047897758955084 0.9828185789057702 0.9773307391921465 0.9609806580271489 1 1:44.31517 2:48.05402 3:73.82638 4:57.42704 
0.7870407627138754 0.7045563759768911 0.9836098494162165 0.9772892567132788 0.96022915343535 1 1:43.00912 2:130.50982 3:65.60052 4:29.11048 
0.7870960951632475 0.7047950483279831 0.9834640857918029 0.9773915532035765 0.9602182407640342 1 1:119.33662 2:29.7493 3:45.06254 4:28.41593 
0.7870182089795486 0.7048019952805353 0.9834640725798811 0.9773431200427256 0.9604585869625053 1 1:29.11048 2:39.56308 3:565.9908 4:32.4865 
0.7870402127681175 0.7050803282939965 0.98324184934314 0.9775935982313866 0.960980111351988 1 1:34.41813 2:50.56703 3:47.73505 4:42.43115 
0.7870958553766283 0.7045563501997665 0.9833792818085714 0.9773429282062759 0.9602000404411839 1 1:33.50979 2:60.55432 3:60.87777 4:48.16615 
0.7870889354368792 0.7047984090536727 0.9896861815386695 0.9773561378359308 0.9601404719416717 1 1:27.92482 2:31.35899 3:45.06254 4:27.47948 
0.7870953534465839 0.7048020694377877 0.9834566155560982 0.9773429282062385 0.9601824783760055 1 1:350.33724 2:70.46195 3:28.68177 4:28.96327 
0.7210622132704473 0.6456093185431516 0.9005416347537928 0.9279110402302263 0.8790884128382539 1 1:28.28834 2:35.11485 3:31.35899 4:31.86304 
0.7874100827066755 0.705034290440088 0.9833995463998377 0.9772752689139844 0.9599976440353434 1 1:28.96327 2:54.74866 3:44.67973 4:41.18694 
0.7870967639505069 0.7056547911781961 0.987970637828086 0.9781240575565456 0.9601438080472838 1 1:29.7493 2:29.41924 3:39.42972 4:30.29147 
0.7876585576891745 0.7046018583907132 0.9834371016061438 0.9768115977035412 0.9604562154240989 1 1:40.36956 2:32.72574 3:63.39044 4:43.63432 
0.7869791831193823 0.7049172833464539 0.9829713574115915 0.976968856425928 0.9601824783924588 1 1:50.98088 2:31.60438 3:28.41593 4:46.84344 
0.7870953523098656 0.7048019952805353 0.9833932163267012 0.9773766784201576 0.9602291548617196 1 1:112.95935 2:29.11048 3:71.56408 4:219.20466 
0.7869114761668081 0.704801944530688 0.9833939438777286 0.9773766788916881 0.9601421311818298 1 1:71.81178 2:132.71122 3:1406.4895 4:66.79313 
0.787093606795749 0.7048016531967776 0.9833939420460205 0.9773758228788112 0.9601441720389691 1 1:54.39922 2:153.30781 3:45.06254 4:113.34516 
0.7870120029300812 0.7050426791054188 0.9834640621573392 0.9769688563125227 0.9601419503997827 1 1:49.6566 2:41.51414 3:43.47317 4:70.83407 
0.7876585578281721 0.7046526187192226 0.9829713573513992 0.9773691404771745 0.9609512687626983 1 1:36.77155 2:35.11485 3:221.29703 4:29.11048 
0.7871020791420569 0.7046890400102679 0.9834062844175152 0.9773360293367332 0.9601823929477508 1 1:28.96327 2:56.26564 3:96.0438 4:227.31374 
0.7875245512672628 0.7046224038388986 0.9829713515057112 0.9768165287820166 0.9604555480881606 1 1:42.43115 2:27.92482 3:40.15449 4:76.1744 
0.7871167784886715 0.7138543901698297 0.9834780514324073 0.9773361941538261 0.9604647934806574 1 1:66.1299 2:28.68177 3:28.547 4:27.80954 
0.7870771949113806 0.7055277216703403 0.9834471236092269 1 0.960980703734484 1 1:34.09912 2:34.75593 3:27.47948 4:47.27771 
0.7870066357957596 0.7047262347798565 0.9834680476604273 0.9773350837348487 0.959917292438052 1 1:44.8376 2:34.58455 3:49.27381 4:27.58699 
0.7870119145693681 0.7047197622730235 0.9836098451817176 0.9770931309481639 0.9604555481076644 1 1:59.0611 2:64.9696 3:80.11983 4:36.65705 
0.7870182089795486 0.7046018593172554 0.9836099976474214 0.977506610940031 0.9606824323965208 1 1:34.41813 2:28.82045 3:32.25684 4:68.58183 
0.7876585456472065 0.9130474864493937 0.9829774199475146 0.9773307248035411 0.9604555336685905 1 1:70.64389 2:43.31534 3:34.58455 4:39.42972 
0.7870967455033218 0.704801944530688 0.9829713564350817 0.9775712352245493 0.9609471363419152 1 1:152.68341 2:75.86394 3:225.97757 4:63.43984 
0.7870182089795486 0.7049172981826285 0.9835815505708233 0.9773441215516601 0.9601824783754922 1 1:90.59393 2:48.21805 3:48.21805 4:33.06534 
0.7870373753262629 0.7048020694377877 0.9834640857918029 0.9773416667405532 0.9609512687626983 1 1:29.26237 2:90.27297 3:142.73964 4:38.47128 
0.7870953523098656 0.7047952511930897 0.983437101603258 0.9773429282062385 0.9600278472287047 1 1:33.65155 2:91.63314 3:288.66626 4:37.12726 
0.787013014315684 0.7049171904575521 0.9835814004290169 0.9774089847869519 0.9604641154192719 1 1:52.36721 2:38.93337 3:56.10971 4:43.47317 
0.7871167045751833 0.7046224038532884 0.9833792321328644 0.9776746932316152 0.9604576819957195 1 1:41.03558 2:28.82045 3:56.74778 4:89.01873 
0.7871432357602823 0.7050782578386444 0.9835337120585995 0.9848121857802046 0.9601441759253783 1 1:43.96718 2:30.48676 3:30.69037 4:37.12726 
0.7870119125578138 0.7055025282906293 0.9834660674240829 0.9776887337000738 0.960217998146997 1 1:234.86215 2:121.80918 3:97.16959 4:42.29323 
0.7870373858180103 0.7050423518879849 0.9834640621573431 0.9773360293367332 0.9609489485557102 1 1:70.69399 2:33.23637 3:83.66988 4:130.89772 
0.7872184681646203 0.7050689229809256 0.9834435855632135 0.9773301760953762 0.960351241181658 1 1:53.04327 2:30.48676 3:28.04295 4:75.25756 
0.7870960951649547 0.7046708003583437 0.9834640725798811 0.9773340695947648 0.9602183376332487 1 1:165.84687 2:30.90303 3:40.34864 4:36.34977 
0.7876626046189136 0.7049214101812098 0.9836294644995277 0.9769688564349285 0.960217998146902 1 1:34.58455 2:37.63298 3:30.90303 4:57.25307 
0.7870120030199905 0.7046224074049472 0.9834062416185819 0.9774569945126528 0.9601823830786088 1 1:37.25015 2:53.76139 3:33.10439 4:100.96203 
0.7868649209160431 0.7049087355460883 0.9836164411045935 0.9774442041383469 0.9609450134881991 1 1:58.64854 2:28.547 3:29.92328 4:77.74973 
0.787095855491684 0.7046018583909444 0.9836294946505648 0.9767435691767259 0.9601420934653893 1 1:32.8492 2:103.50129 3:28.04295 4:73.48053 
0.7870373730361501 0.7049750306183675 0.9834295082173459 0.9769688575531151 0.9604642807903291 1 1:41.76513 2:29.11048 3:30.90303 4:79.49415 
0.7871332741153863 0.7047197623887492 0.9836098479448639 1 0.960363966636083 1 1:28.16408 2:27.92482 3:137.78685 4:30.29147 
0.7875245512833277 0.7045563501976866 0.983795603234946 0.9773432002408904 0.9600433592195269 1 1:64.973 2:42.57161 3:53.57559 4:40.15449 
0.7871020256161079 0.7045563927588344 0.9833939420460205 0.977456994729196 0.9602291548617194 1 1:35.11485 2:104.45719 3:36.34977 4:64.44646 
0.7870119148914161 0.7046890400314497 0.9833785344288564 0.9773416654041345 0.9600340236297966 1 1:65.6984 2:29.7493 3:39.42972 4:92.98848 
0.7871019791106513 0.7048018952250305 0.9833792321329001 0.9782037563751859 0.9602291548284616 1 1:80.11418 2:36.34977 3:48.72976 4:26.34859 
0.7876585576894204 0.7048043350317175 0.9833939438777286 0.9767436377576135 0.9601823830772959 1 1:45.53619 2:322.01986 3:27.37433 4:29.58142 
0.7621838960548852 0.6834555009696754 0.955268949326877 0.9585958089828718 0.9293719100327169 1 1:37.25015 2:29.11048 3:39.26015 4:27.69697 
0.7870367957761302 0.7046019181564551 0.9833786312479256 0.9778528874223991 0.9601027324793583 1 1:47.73505 2:36.77155 3:50.59575 4:40.96733 
0.7870961506473202 0.7048044461006381 0.9836296701213936 0.9773361941489908 0.9609472372383662 1 1:71.26815 2:56.91353 3:35.49771 4:34.58455 
0.7869057600676087 0.7046709962651474 0.9834592918479615 0.9772085243097853 0.960064223139987 1 1:28.547 2:66.31149 3:33.94602 4:34.75593 
0.7871274285377311 0.7046863796511469 0.9834217955848494 0.9773758228788172 0.9601824783755513 1 1:108.27869 2:29.58142 3:48.38527 4:55.80462 
0.7869233219295033 0.7048018952250305 0.98342950823741 0.9773915532035765 0.9604576813099508 1 1:53.39334 2:120.98288 3:29.92328 4:49.46308 
0.7875246199213342 0.7046890175883992 0.9834294891706905 0.9769688560420587 0.9608902308163988 1 1:101.42862 2:45.26137 3:39.60369 4:41.39167 
0.7875246199213342 0.7048020694558708 0.9835337079042804 0.9769688563125265 0.9609489485557103 1 1:49.08862 2:54.34145 3:36.82845 4:126.55676 
0.7876618346687809 0.7046708003576201 0.9836294577925864 0.9769688542996074 0.9600604877300228 1 1:50.05719 2:43.47317 3:50.2647 4:29.41924 
0.7870079100468033 0.7045922054236096 0.9833913299020716 0.9774569947294406 0.9600870804445927 1 1:45.67522 2:64.92801 3:38.77577 4:28.41593 
0.7876585577888229 0.7046018583909444 0.9834218306856017 0.9769688563674278 0.9609469264597748 1 1:43.79894 2:37.12726 3:47.42747 4:157.35116 
0.7870183141338623 0.7048024188519566 0.9829431307262436 0.9769688564147646 0.9601977158314418 1 1:27.92482 2:101.42862 3:32.03601 4:47.42747 
0.7871020155755628 0.7046890175883932 0.9834217956171403 0.9774569945126499 0.9604576819957193 1 1:28.28834 2:241.7856 3:33.50979 4:28.82045 
0.787018255410715 0.7046849945496874 0.9834660387545509 0.9774569945126527 0.9604642611071894 1 1:117.47772 2:27.37433 3:34.09912 4:56.5846 
0.7870409193383104 0.7046020258276307 0.9833932163267012 0.9774477484679831 0.9604642607788684 1 1:33.23637 2:57.99226 3:236.09678 4:151.37432 
0.7870958553766283 0.7047950483279831 0.9833939438777286 0.9773340695947648 0.9604576813099508 1 1:29.26237 2:41.27112 3:262.67389 4:54.34145 
0.7895243130056133 0.7046479271308168 0.9833794267786611 0.9773429282062758 0.9600737902485742 1 1:55.62547 2:59.34595 3:34.41813 4:28.82045 
0.7876626046936106 0.7046224126100618 0.9833792332494519 0.9773431372790633 0.9601292131574106 1 1:44.86874 2:57.08193 3:30.48676 4:46.56563 
0.7876578413732053 0.7049166540853454 0.9835328110421577 0.977373320722168 0.9601432989503624 1 1:74.39079 2:37.76561 3:28.96327 4:33.94602 
0.7871167784886715 0.7046849485340236 0.9833793139754854 0.9773416654041345 0.9603639420528721 1 1:34.58455 2:138.48236 3:100.43968 4:37.37535 
0.7870958586829719 0.7049174047531412 0.9833939438777304 0.9773742143169171 0.9602000405120131 1 1:29.26237 2:281.09408 3:33.37145 4:34.58455 
0.7875245512644315 0.7045922054212237 0.9833793139751533 0.9776550298737654 0.9609489485557101 1 1:37.76561 2:47.73505 3:79.31873 4:31.35899 
0.7871161754619006 0.7046439135174367 0.9836238837230654 0.9774602762797282 0.9602236715735871 1 1:29.58142 2:41.414 3:58.92192 4:37.00658 
0.7869792009714742 0.7046018583909444 0.9833785344288564 0.9773766784201576 0.9602000405100863 1 1:44.8376 2:55.07848 3:54.13934 4:107.66002 
0.7869533584222638 0.7047210699058538 0.9833528412789208 0.9775953534778427 0.9608386490611895 1 1:45.90796 2:36.12461 3:43.63432 4:26.60725 
0.7870373731110333 0.7047197620839136 0.9834566155560982 0.9776887337000738 0.9601421311818298 1 1:40.26398 2:33.23637 3:108.25799 4:71.45984 
0.787386063501968 0.7047969684818894 0.9834598338078918 0.9774658494817741 0.9604585444782339 1 1:93.34286 2:56.5846 3:32.8492 4:38.18003 
0.7870676432124407 0.7047434185052784 0.9844715473172168 0.977373249896456 0.9601251110564482 1 1:29.58142 2:39.42972 3:46.43002 4:37.50292 
0.7870978109322551 0.7046847430684893 0.9835671411441671 0.9773427036423675 0.9601763638126338 1 1:29.7493 2:54.54289 3:29.7493 4:65.59275 
0.7870958586132759 0.7046849764788139 0.9834640603518556 0.9774446731179058 0.9609471363419136 1 1:80.13331 2:52.69717 3:30.29147 4:48.05402 
0.787102079349177 0.7056115009966256 0.9834640725798811 0.977457204182096 0.9600607716444787 1 1:35.30309 2:28.68177 3:101.27199 4:37.37535 
0.7872283483726525 0.706313712397912 1 0.9767502530171871 0.9625819656073251 1 1:35.11485 2:33.23637 3:47.89306 4:29.26237 
0.7875245363160014 0.7050782919907533 0.9834457279032801 0.9768162906447877 0.9602292382926054 1 1:33.94602 2:64.44646 3:30.48676 4:49.08862 
0.7874011306103428 0.7048016531967776 0.9834640857918029 0.9774569947292959 0.9604576819957193 1 1:33.23637 2:86.29073 3:69.23539 4:348.42441 
0.7870182089795486 0.7049172969413541 0.9834640621573746 0.9774569945126528 0.9601141332901535 1 1:96.91376 2:42.57161 3:31.86304 4:113.15655 
0.7870425231502894 0.7045563927546142 0.9834347485219325 0.9776490988631188 0.9609580886553502 1 1:32.25684 2:62.23436 3:35.30309 4:69.35169 
0.7870373730080283 0.7046849235808892 0.9834640621573431 0.976968856312557 0.9601419503997866 1 1:103.92259 2:35.90795 3:28.547 4:56.5846 
0.7871075507659221 0.7046849703937295 0.9834640621425682 0.9774477484532587 0.9601422897669243 1 1:33.8028 2:65.20974 3:54.53161 4:33.7969 
0.7870959363016105 0.7045498821763396 0.9835337070231103 0.9773758228641025 0.9604576819812721 1 1:28.41593 2:70.13613 3:60.87777 4:31.32384 
0.7871166924305131 0.7046018445272716 0.9836099865608084 0.9774569801453994 0.9602291400275906 1 1:70.00715 2:39.60369 3:40.96733 4:35.30309 
0.7870079053410091 0.7045498821869278 0.9836098451817176 0.9769688564177648 0.9601142042090771 1 1:116.10775 2:33.65155 3:31.82336 4:28.96327 
0.7871234659393503 0.7050806729739436 0.9836098478789249 0.9769688564177648 0.9602000405120131 1 1:215.34555 2:80.60541 3:50.19977 4:29.41924 
0.7870093297304305 0.7050725405727574 0.9834661802372022 0.9773399316899495 0.9601774253263012 1 1:31.60438 2:57.25125 3:29.41924 4:29.92328 
0.7870182089795486 0.7046018583909444 0.9836098478789249 0.9767436377576135 0.9600960685035353 1 1:59.0611 2:93.1912 3:300.87232 4:25.94633 
0.7870960951806488 0.7048019279230389 0.9833939420460213 0.9769688565769589 0.9603639420528787 1 1:43.31534 2:48.38527 3:39.09476 4:30.90303 
0.7876585577888229 0.7048016531967776 0.9836294911531179 0.9773307398769701 0.9604642607788683 1 1:142.86523 2:27.69697 3:28.28834 4:45.89085 
0.7870373219968574 0.7047197620840517 0.9834217955848568 0.9774569949464196 0.9604576813099508 1 1:28.16408 2:32.97538 3:95.87424 4:28.547 
0.7870945519014553 0.7049172833495954 0.9829713564350817 0.9767148220205764 0.960455548482007 1 1:66.31149 2:51.73957 3:53.57559 4:27.27144 
0.7876585578670382 0.7048018952250201 0.9835806451687789 0.9769688559768683 0.9600604877310092 1 1:48.16615 2:31.35899 3:87.70111 4:120.5529 
0.7869233221134975 0.7046217614249962 0.9829452614735632 0.9776541373779116 0.9601816687219851 1 1:76.98656 2:30.77668 3:29.11048 4:34.09912 
0.7870373730080283 0.7045563501976864 0.9836098478789249 0.9773431372790633 0.9609489485557103 1 1:74.18077 2:37.00658 3:79.0402 4:210.57636 
0.7870182089795501 0.7047950909090258 0.9834705018900581 0.9773416667405532 0.9600433656329515 1 1:98.19867 2:30.29147 3:32.8492 4:29.11048 
0.7870119145693681 0.7046018583909444 0.9834517764188787 0.9773763837376079 0.9600603750713292 1 1:152.27335 2:34.93258 3:29.7493 4:83.27792 
0.7876585578281721 0.7048016531967776 0.9834218306852542 0.9773691404771745 0.9604585444778759 1 1:29.58142 2:123.66767 3:123.86382 4:47.73505 
0.7870182089795486 0.7048409082190994 0.9833785344288564 0.9776490988689686 0.9604555481076645 1 1:38.47128 2:55.07848 3:120.39349 4:34.41813 
0.7870958586055778 0.7050423518879849 0.9834566155560982 0.9773307399626985 0.9609514931232955 1 1:80.11983 2:28.82045 3:142.23159 4:48.21805 
0.787011887083649 0.7046849764788121 0.9833785362238382 0.9773758219246594 0.9601825448505285 1 1:35.49771 2:55.95606 3:71.12244 4:29.41924 
0.7870945519014553 0.7046708004095652 0.9834640920162384 0.9773915532035765 0.9609469264597935 1 1:424.29082 2:57.49298 3:59.55858 4:129.94456 
0.7870954130193656 0.7049180958479474 0.9833793064743308 0.9773880225148176 0.960965746831667 1 1:77.83901 2:52.69717 3:29.26237 4:36.65705 
0.7876585613898798 0.7047197622730235 0.9833793173943373 0.9773758513688234 0.9600960230208391 1 1:28.68177 2:93.51341 3:41.89261 4:31.86304 
0.7870470319995926 0.7048043350317175 0.9834294891706905 0.9774633276869886 0.9600603750713292 1 1:35.69916 2:83.02828 3:53.15957 4:96.91376 
0.7870369141539673 0.7055025282934655 0.9834640859333684 0.9773742128423082 0.9602183376332487 1 1:60.39595 2:59.78345 3:43.79894 4:81.84095 
0.7871167046245608 0.7049180958514438 0.9836098478788918 0.9774091255414444 0.9604555481077325 1 1:254.33833 2:47.91081 3:61.55336 4:53.27717 
0.7870390544959636 0.7045671193234516 0.9833939420460206 0.9773758219246597 0.9602818665116528 1 1:150.68023 2:57.25307 3:30.48676 4:33.23637 
0.7871213681805054 0.7046018583497138 0.9833932163267043 0.9774569945126615 0.9601825252085243 1 1:36.58412 2:74.3613 3:42.86049 4:39.42972 
0.7870387209324825 0.7055025279290925 0.9841869168347513 0.9773431575107774 0.9612151029604308 1 1:30.29147 2:38.77577 3:34.09912 4:43.96718 
0.7870980914470989 0.7048043604298239 0.9834503250636603 0.9773567344499635 0.9609469264597935 1 1:43.00912 2:76.65732 3:173.37071 4:29.58142 
0.7870509287100765 0.7048016532143171 0.9829713564350817 0.9769688564177648 0.9604576813099508 1 1:50.32995 2:52.86652 3:48.90732 4:62.28407 
0.7870956862743179 0.7045563927588387 1 0.976968856741676 0.9601441758568463 1 1:36.32487 2:30.29147 3:68.07738 4:28.41593 
0.7870118870026509 0.7049171984767943 0.9835815493125853 0.9768165288021096 0.9609806580271489 1 1:59.99718 2:113.27604 3:206.436 4:80.73912 
-1 0.8984504368762646 1 1 1 1 1:39.78231 2:246.34928 3:45.67522 4:326.56245 
-1 0.8984463420484085 1 1 1 1 1:54.34145 2:35.69916 3:105.75753 4:44.49528 
-1 0.899299395210414 1 1 1 1 1:46.11274 2:38.93337 3:55.61908 4:46.57679 
-1 0.8984463773525357 1 1 1 1 1:29.41924 2:506.86948 3:43.47317 4:63.53592 
-1 0.899205722347783 1 1 1 1 1:76.17637 2:34.41813 3:45.89085 4:64.74104 
-1 0.898450431813548 1 1 1 1 1:86.71501 2:28.82045 3:47.07079 4:36.82845 
-1 0.8992431788279044 1 1 1 1 1:29.41924 2:102.16765 3:30.29147 4:39.78231 
-1 0.898450423995343 1 1 1 1 1:73.88142 2:29.41924 3:54.54289 4:44.31517 
-1 0.8984592107557214 1 1 1 1 1:29.26237 2:74.91694 3:29.7493 4:30.90303 
-1 0.8989954571916873 1 1 1 1 1:40.96733 2:43.63432 3:55.95606 4:105.3781 
-1 0.8991319842374488 1 1 1 1 1:71.02408 2:35.30309 3:43.96718 4:86.89676 
-1 0.8991539850572889 1 1 1 1 1:39.42972 2:40.15449 3:30.69037 4:40.54859 
-1 0.8991539850582595 1 1 1 1 1:58.93316 2:140.68379 3:63.23662 4:53.57559 
-1 0.8991949069084803 1 1 1 1 1:29.41924 2:108.18272 3:31.35899 4:31.12558 
-1 0.8984504368762646 1 1 1 1 1:37.6308 2:274.44598 3:114.33784 4:99.57331 
-1 0.8984508252689174 1 1 1 1 1:35.30309 2:99.98148 3:611.36008 4:156.06564 
-1 0.918202168018219 1 1 1 1 1:36.12461 2:30.69037 3:35.49771 4:38.03902 
-1 0.8990961802718698 1 1 1 1 1:30.10383 2:45.67522 3:35.30309 4:31.71992 
-1 0.7889000542437588 1 1 1 1 1:43.63432 2:57.25307 3:31.04374 4:32.60487 
-1 0.8992789721264288 1 1 1 1 1:83.08542 2:48.90732 3:39.09476 4:46.70341 
-1 0.8984463773525357 1 1 1 1 1:45.89085 2:49.46308 3:28.82045 4:78.93599 
-1 0.898203621729027 1 1 1 1 1:28.82045 2:39.42972 3:39.96581 4:35.11485 
-1 0.8992057385510597 1 1 1 1 1:49.08862 2:47.42747 3:138.80224 4:61.3807 
-1 0.8992740978214079 1 1 1 1 1:28.82045 2:35.30309 3:252.53025 4:63.23662 
-1 0.8992740978305328 1 1 1 1 1:30.90303 2:40.54859 3:118.49325 4:30.29147 
-1 0.8984578751130721 1 1 1 1 1:42.71468 2:34.58455 3:30.90303 4:32.97538 
-1 0.8991939558499793 1 1 1 1 1:34.41813 2:39.96581 3:34.41813 4:29.26237 
-1 0.8989954571993988 1 1 1 1 1:57.96689 2:46.11274 3:74.75069 4:88.21753 
-1 0.8990986804749128 1 1 1 1 1:44.49528 2:28.96327 3:68.07738 4:64.13548 
-1 0.8992483602650863 1 1 1 1 1:66.51693 2:30.29147 3:58.93316 4:32.37052 
-1 0.8992100854520944 1 1 1 1 1:123.70474 2:84.69322 3:28.82045 4:43.63432 
-1 0.8992384929144543 1 1 1 1 1:55.17398 2:54.18692 3:34.25641 4:68.72649 
-1 0.8992740978305328 1 1 1 1 1:60.22353 2:60.39595 3:161.20051 4:33.10439 
-1 0.899205722347777 1 1 1 1 1:38.23566 2:30.69037 3:32.73527 4:97.18611 
-1 0.8984505293272417 1 1 1 1 1:41.18694 2:63.64672 3:46.78783 4:31.86304 
-1 0.8984940809671744 1 1 1 1 1:66.49576 2:85.17382 3:41.64903 4:31.60438 
-1 0.8984603599905441 1 1 1 1 1:193.31431 2:30.48676 3:31.35899 4:54.34145 
-1 0.8984504368323748 1 1 1 1 1:39.78231 2:75.49495 3:28.41593 4:106.33924 
-1 0.8984508252689174 1 1 1 1 1:64.72232 2:30.69037 3:66.49576 4:238.68452 
-1 0.8992905559915743 1 1 1 1 1:214.64946 2:47.42747 3:28.82045 4:29.7493 
-1 0.8991949522299518 1 1 1 1 1:35.30309 2:66.1299 3:59.99718 4:30.29147 
-1 0.8990994327114513 1 1 1 1 1:66.49576 2:66.31149 3:44.67973 4:40.75468 
-1 0.8984463773525357 1 1 1 1 1:53.39334 2:28.547 3:47.33029 4:251.33663 
-1 0.8990986804749128 1 1 1 1 1:55.84965 2:34.09912 3:61.3807 4:1106.8474 
-1 0.8992755905965664 1 1 1 1 1:93.29305 2:531.25234 3:82.91718 4:172.73218 
-1 0.8991949126420025 1 1 1 1 1:44.67973 2:71.02408 3:66.87272 4:35.69916 
-1 0.8991721465334435 1 1 1 1 1:70.83407 2:187.84794 3:46.34124 4:81.27626 
-1 0.8991949069090844 1 1 1 1 1:94.25864 2:148.8457 3:43.31534 4:125.60637 
-1 0.8984592110238727 1 1 1 1 1:36.82845 2:78.07238 3:46.34124 4:36.34977 
-1 0.8984613639674436 1 1 1 1 1:44.1392 2:30.90303 3:35.11485 4:28.16408 
-1 0.8984463420484085 1 1 1 1 1:35.30309 2:92.43739 3:37.63298 4:38.62179 
-1 0.8567756919296043 1 1 1 1 1:50.91904 2:35.49771 3:37.6308 4:31.35899 
-1 0.8992994026545948 1 1 1 1 1:68.29001 2:51.38463 3:38.18003 4:30.90303 
-1 0.8990986804756465 1 1 1 1 1:35.30309 2:115.56317 3:51.44054 4:43.79894 
-1 0.8992100854520944 1 1 1 1 1:29.7493 2:151.07166 3:39.78231 4:105.75753 
-1 0.8990986804749128 1 1 1 1 1:119.33662 2:33.65155 3:253.68769 4:33.10439 
-1 0.899290561751892 1 1 1 1 1:45.26137 2:34.41813 3:79.71129 4:35.69916 
-1 0.8984940809671744 1 1 1 1 1:76.30374 2:55.65533 3:92.64054 4:84.49834 
-1 0.8991949069090844 1 1 1 1 1:44.49528 2:58.93316 3:95.82164 4:79.04578 
-1 0.8990985427576854 1 1 1 1 1:51.87683 2:56.32815 3:33.94602 4:28.04295 
-1 0.8992328690822839 1 1 1 1 1:225.10925 2:40.54859 3:117.87897 4:322.89046 
-1 0.8999063527477786 1 1 1 1 1:37.3507 2:55.24268 3:61.72866 4:30.29147 
-1 0.8992100854408449 1 1 1 1 1:51.38463 2:45.06254 3:45.06254 4:33.7969 
-1 0.8984592089779454 1 1 1 1 1:51.73957 2:42.86049 3:42.71468 4:53.39334 
-1 0.8990985355776868 1 1 1 1 1:254.83785 2:68.95062 3:33.50979 4:30.69037 
-1 0.8992384676699599 1 1 1 1 1:30.90303 2:48.38527 3:33.7969 4:113.4447 
-1 0.899274097819586 1 1 1 1 1:28.68177 2:56.32815 3:34.58455 4:97.74757 
-1 0.8984607206331032 1 1 1 1 1:132.63189 2:47.27771 3:29.92328 4:28.96327 
-1 0.8984940809671744 1 1 1 1 1:29.7493 2:127.40858 3:98.19867 4:61.96097 
-1 0.8984607293710567 1 1 1 1 1:34.58455 2:28.28834 3:28.96327 4:299.1786 
-1 0.8990985355776868 1 1 1 1 1:55.65533 2:58.34282 3:65.45147 4:112.20589 
-1 0.8992905619020136 1 1 1 1 1:71.41237 2:29.41924 3:30.90303 4:38.62179 
-1 0.8984508239878638 1 1 1 1 1:115.58614 2:97.45441 3:30.69037 4:36.32487 
-1 0.8992995196478454 1 1 1 1 1:70.4153 2:126.94659 3:32.97538 4:64.29072 
-1 0.8991539850582595 1 1 1 1 1:89.01873 2:34.41813 3:38.77577 4:29.7493 
-1 0.8992327289963752 1 1 1 1 1:39.67841 2:112.76875 3:27.58699 4:32.25684 
-1 0.8984620294090255 1 1 1 1 1:33.65155 2:28.41593 3:44.24615 4:43.47317 
-1 0.8992327289963755 1 1 1 1 1:56.91353 2:103.47915 3:27.80954 4:64.92801 
-1 0.8984607206331032 1 1 1 1 1:54.39922 2:172.25604 3:142.51865 4:125.42442 
-1 0.8992327002081454 1 1 1 1 1:75.26596 2:38.03902 3:41.414 4:49.6566 
-1 0.8991949069090633 1 1 1 1 1:140.90017 2:90.52119 3:43.1607 4:28.96327 
-1 0.8982044330842326 1 1 1 1 1:33.23637 2:42.02463 3:42.02463 4:36.58412 
-1 0.8984425337681115 1 1 1 1 1:47.07079 2:120.58847 3:38.93337 4:28.547 
-1 0.8991319842374488 1 1 1 1 1:52.53077 2:29.11048 3:29.58142 4:87.57226 
-1 0.9032233889703057 1 1 1 1 1:33.23637 2:30.29147 3:54.54289 4:29.58142 
-1 0.8984592110234547 1 1 1 1 1:29.58142 2:42.43115 3:69.92247 4:34.93258 
-1 0.8992905748460219 1 1 1 1 1:106.14362 2:41.27112 3:53.21449 4:60.22353 
-1 0.8991721465302315 1 1 1 1 1:67.26145 2:33.37145 3:78.55083 4:64.51367 
-1 0.8984607216980522 1 1 1 1 1:51.38463 2:76.82106 3:47.07079 4:43.47317 
-1 0.8992739898915038 1 1 1 1 1:32.13649 2:38.62179 3:79.31873 4:32.8492 
-1 0.8992789717310113 1 1 1 1 1:108.44097 2:56.5846 3:38.93337 4:78.30961 
-1 0.899232727327133 1 1 1 1 1:30.48676 2:251.18269 3:67.26145 4:33.23637 
-1 0.899232727327133 1 1 1 1 1:78.93599 2:32.73527 3:126.49328 4:30.69037 
-1 0.8985628535960997 1 1 1 1 1:30.90303 2:27.80954 3:28.28834 4:33.37145 
-1 0.8992054293152879 1 1 1 1 1:40.34864 2:70.00715 3:43.47317 4:29.11048 
-1 0.8992755906096238 1 1 1 1 1:30.10383 2:62.64768 3:87.77137 4:50.05719 
-1 0.8991949146254827 1 1 1 1 1:76.01936 2:30.29147 3:115.47982 4:36.82845 
-1 0.89845042399542 1 1 1 1 1:28.68177 2:35.30309 3:48.05402 4:72.49034 
-1 0.9233151590537181 1 1 1 1 1:33.7969 2:31.60438 3:42.86049 4:34.58455 
-1 0.8984463420484086 1 1 1 1 1:29.7493 2:30.10383 3:33.23637 4:53.03892 
-1 0.8984620317162644 1 1 1 1 1:30.29147 2:31.12558 3:102.8748 4:29.92328 
-1 0.8992431788284876 1 1 1 1 1:33.50979 2:259.98162 3:45.4655 4:53.95086 
-1 0.7893790980334986 1 1 1 1 1:45.26137 2:55.17398 3:31.35899 4:33.50979 
-1 0.8992100854520944 1 1 1 1 1:58.15318 2:53.03892 3:114.83678 4:62.08749 
-1 0.8991721465079816 1 1 1 1 1:31.12558 2:36.88803 3:48.05402 4:52.04824 
-1 0.8989954571993346 1 1 1 1 1:33.65155 2:35.11485 3:106.31916 4:78.01901 
-1 0.898459213022422 1 1 1 1 1:34.09912 2:37.3507 3:56.91353 4:38.62179 
-1 0.898450423995343 1 1 1 1 1:29.58142 2:44.49528 3:96.23319 4:42.68148 
-1 0.8992057223478435 1 1 1 1 1:32.37052 2:40.54859 3:64.76541 4:63.64672 
-1 0.8989954571993346 1 1 1 1 1:75.69292 2:156.84374 3:314.07135 4:93.52254 
-1 0.8569428288319076 1 1 1 1 1:48.90732 2:37.50292 3:39.60369 4:31.12558 
-1 0.8990985383634834 1 1 1 1 1:33.50979 2:29.7493 3:118.2868 4:61.90667 
-1 0.8990987118384219 1 1 1 1 1:73.54309 2:56.83185 3:30.69037 4:55.80462 
-1 0.8992740920678077 1 1 1 1 1:208.67181 2:43.31534 3:31.35899 4:33.7969 
-1 0.8984463773525357 1 1 1 1 1:46.98577 2:30.10383 3:128.9823 4:56.83185 
-1 0.8984607216980498 1 1 1 1 1:30.48676 2:28.16408 3:65.09276 4:107.9701 
-1 0.8992328619623813 1 1 1 1 1:38.93337 2:40.54859 3:52.1339 4:49.46308 
-1 0.8992755921680564 1 1 1 1 1:38.77577 2:51.29446 3:55.36295 4:26.7878 
-1 0.899274097819586 1 1 1 1 1:112.57965 2:33.50979 3:54.34145 4:27.37433 
-1 0.8991539850582595 1 1 1 1 1:59.13753 2:49.46308 3:96.65378 4:133.58879 
-1 0.8992994026469751 1 1 1 1 1:48.38527 2:273.49522 3:34.25641 4:29.41924 
-1 0.8984940809671744 1 1 1 1 1:54.34145 2:104.10135 3:52.04824 4:37.6308 
-1 0.8989954554430226 1 1 1 1 1:51.15058 2:46.84344 3:46.57679 4:60.39595 
-1 0.8992057385510597 1 1 1 1 1:52.86652 2:45.26137 3:258.05465 4:34.41813 
-1 0.8992994023145123 1 1 1 1 1:272.90645 2:86.23947 3:47.73505 4:64.29072 
-1 0.8984592110238947 1 1 1 1 1:31.12558 2:29.92328 3:29.26237 4:80.52795 
-1 0.8984504239895174 1 1 1 1 1:34.75593 2:29.7493 3:76.17637 4:30.10383 
-1 0.8992291330999989 1 1 1 1 1:34.41813 2:44.31517 3:40.54859 4:29.7493 
-1 0.8990986804749128 1 1 1 1 1:350.82013 2:46.8198 3:44.67973 4:39.26015 
-1 0.8989954571993988 1 1 1 1 1:44.1392 2:302.38503 3:64.72232 4:70.90577 
-1 0.8992755906096238 1 1 1 1 1:75.29968 2:39.96581 3:73.14282 4:49.27381 
-1 0.8984585392431671 1 1 1 1 1:87.77137 2:29.26237 3:47.33029 4:45.4655 
-1 0.8992057385510597 1 1 1 1 1:37.76561 2:303.96006 3:34.41813 4:44.49528 
-1 0.8984463420484085 1 1 1 1 1:65.42895 2:67.95868 3:28.28834 4:61.3807 
-1 0.8992634570726656 1 1 1 1 1:28.96327 2:31.86304 3:52.1339 4:33.37145 
-1 0.8992057385510526 1 1 1 1 1:38.93337 2:33.41987 3:60.58293 4:104.10582 
-1 -1 1 1 1 1 1:108.18272 2:35.11485 3:39.60369 4:32.42652 
-1 -1 1 1 1 1 1:271.01805 2:50.91904 3:29.41924 4:228.16482 
-1 -1 1 1 1 1 1:66.87272 2:34.25641 3:31.86304 4:67.06556 
-1 -1 1 1 1 1 1:112.5313 2:35.74256 3:52.20639 4:60.69138 
-1 -1 1 1 1 1 1:75.69292 2:34.75593 3:33.8028 4:247.87099 
-1 -1 1 1 1 1 1:264.65261 2:104.31291 3:34.67503 4:40.54859 
-1 -1 1 1 1 1 1:55.84965 2:44.24615 3:30.48676 4:31.60438 
-1 -1 1 1 1 1 1:30.90303 2:49.6566 3:29.11048 4:35.11485 
-1 -1 1 1 1 1 1:85.56093 2:72.22446 3:29.7493 4:30.48676 
-1 -1 1 1 1 1 1:28.82045 2:107.55091 3:49.08862 4:43.9026 
-1 -1 1 1 1 1 1:36.34977 2:161.21085 3:75.68727 4:32.72574 
-1 -1 1 1 1 1 1:36.34977 2:64.74104 3:29.58142 4:41.18694 
-1 -1 1 1 1 1 1:53.76139 2:29.41924 3:39.96581 4:49.6566 
-1 -1 1 1 1 1 1:316.43809 2:33.06534 3:315.95849 4:92.86019 
-1 -1 1 1 1 1 1:32.42652 2:59.13753 3:33.94602 4:54.95895 
-1 -1 1 1 1 1 1:47.87727 2:67.46047 3:247.26801 4:54.14416 
-1 -1 1 1 1 1 1:36.58412 2:104.88371 3:52.1339 4:67.46047 
-1 -1 1 1 1 1 1:71.81226 2:157.34887 3:41.64903 4:114.98596 
-1 -1 1 1 1 1 1:38.18003 2:138.06965 3:39.09476 4:50.91904 
-1 -1 1 1 1 1 1:39.67841 2:34.93258 3:35.30309 4:136.13621 
-1 -1 1 1 1 1 1:43.00912 2:29.92328 3:118.40396 4:31.35899 
-1 -1 1 1 1 1 1:37.63298 2:33.06534 3:29.92328 4:61.55336 
-1 -1 1 1 1 1 1:40.34864 2:29.26237 3:102.87274 4:37.08364 
-1 -1 1 1 1 1 1:254.12964 2:44.24615 3:28.96327 4:32.13649 
-1 -1 1 1 1 1 1:35.69916 2:266.68423 3:85.64103 4:68.90462 
-1 -1 1 1 1 1 1:70.2797 2:81.50937 3:612.82039 4:61.43462 
-1 -1 1 1 1 1 1:37.6308 2:30.29147 3:91.56447 4:30.29147 
-1 -1 1 1 1 1 1:69.41135 2:53.03892 3:65.95076 4:33.41987 
-1 -1 1 1 1 1 1:40.54859 2:75.53122 3:36.38138 4:28.82045 
-1 -1 1 1 1 1 1:39.67841 2:52.39889 3:34.25641 4:126.50031 
-1 -1 1 1 1 1 1:38.91183 2:40.34864 3:139.23813 4:109.30133 
-1 -1 1 1 1 1 1:34.25641 2:32.13649 3:38.77577 4:37.12726 
-1 -1 1 1 1 1 1:381.64761 2:30.29147 3:181.65732 4:29.92328 
-1 -1 1 1 1 1 1:44.24615 2:87.77137 3:41.414 4:30.69037 
-1 -1 1 1 1 1 1:83.47272 2:36.82845 3:94.55245 4:49.80094 
-1 -1 1 1 1 1 1:62.51504 2:71.81226 3:43.26425 4:43.63432 
-1 -1 1 1 1 1 1:63.64672 2:47.33029 3:46.11274 4:32.13649 
-1 -1 1 1 1 1 1:194.06493 2:86.24351 3:40.75468 4:35.90795 
-1 -1 1 1 1 1 1:48.90732 2:50.91904 3:28.68177 4:50.69536 
-1 -1 1 1 1 1 1:30.29147 2:40.15449 3:133.83327 4:28.96327 
-1 -1 1 1 1 1 1:40.75468 2:43.1607 3:30.69037 4:89.02426 
-1 -1 1 1 1 1 1:102.8811 2:33.50979 3:51.38463 4:55.17398 
-1 -1 1 1 1 1 1:71.41237 2:49.85457 3:34.21906 4:53.95086 
-1 -1 1 1 1 1 1:31.12558 2:38.77577 3:53.95086 4:141.52862 
-1 -1 1 1 1 1 1:64.973 2:39.42972 3:57.6409 4:75.10704 
-1 -1 1 1 1 1 1:35.17908 2:54.14416 3:87.20059 4:207.84521 
-1 -1 1 1 1 1 1:34.75593 2:30.29147 3:40.54859 4:31.86304 
-1 -1 1 1 1 1 1:46.98577 2:55.07848 3:40.54859 4:30.69037 
-1 -1 1 1 1 1 1:31.60438 2:31.86304 3:57.96689 4:31.86304 
-1 -1 1 1 1 1 1:225.39491 2:841.99387 3:29.7493 4:39.96581 
-1 -1 1 1 1 1 1:251.75755 2:37.08364 3:40.54859 4:68.19823 
-1 -1 1 1 1 1 1:75.00585 2:30.90303 3:36.12461 4:69.41135 
-1 -1 1 1 1 1 1:28.96327 2:64.51367 3:64.51367 4:40.54859 
-1 -1 1 1 1 1 1:47.87727 2:41.414 3:191.69791 4:44.49528 
-1 -1 1 1 1 1 1:38.77577 2:49.08862 3:147.95026 4:33.41987 
-1 -1 1 1 1 1 1:45.26137 2:113.79588 3:61.96097 4:54.74866 
-1 -1 1 1 1 1 1:51.38463 2:188.75511 3:75.69292 4:54.34145 
-1 -1 1 1 1 1 1:29.58142 2:237.82935 3:47.33029 4:41.89261 
-1 -1 1 1 1 1 1:34.25641 2:31.35899 3:32.13649 4:29.7493 
-1 -1 1 1 1 1 1:44.1392 2:54.34145 3:247.67686 4:114.26454 
-1 -1 1 1 1 1 1:36.12461 2:29.92328 3:188.4684 4:41.414 
-1 -1 1 1 1 1 1:44.86874 2:189.92236 3:63.03693 4:35.69916 
-1 -1 1 1 1 1 1:38.62179 2:48.38527 3:36.58412 4:58.93316 
-1 -1 1 1 1 1 1:134.64707 2:32.42652 3:31.60438 4:93.88705 
-1 -1 1 1 1 1 1:101.10755 2:44.1392 3:42.14538 4:30.29147 
-1 -1 1 1 1 1 1:38.23566 2:160.30523 3:29.58142 4:36.82845 
-1 -1 1 1 1 1 1:41.18694 2:350.69899 3:59.13753 4:32.42652 
-1 -1 1 1 1 1 1:33.41987 2:34.93258 3:35.49771 4:35.30309 
-1 -1 1 1 1 1 1:38.18003 2:32.72574 3:147.91114 4:32.8492 
-1 -1 1 1 1 1 1:51.44054 2:61.69451 3:36.12461 4:39.26015 
-1 -1 1 1 1 1 1:36.12461 2:49.46308 3:50.91904 4:79.91141 
-1 -1 1 1 1 1 1:41.18694 2:102.39994 3:124.46875 4:47.59889 
-1 -1 1 1 1 1 1:43.96718 2:93.73647 3:45.4655 4:28.96327 
-1 -1 1 1 1 1 1:65.20974 2:29.92328 3:28.547 4:31.86304 
-1 -1 1 1 1 1 1:31.86304 2:30.69037 3:27.92482 4:38.62179 
-1 -1 1 1 1 1 1:76.72589 2:44.1392 3:38.56379 4:41.89261 
-1 -1 1 1 1 1 1:130.18552 2:67.86833 3:46.57679 4:89.36834 
-1 -1 1 1 1 1 1:28.96327 2:48.55579 3:119.76927 4:39.09476 
-1 -1 1 1 1 1 1:48.05402 2:31.12558 3:70.83407 4:39.09476 
-1 -1 1 1 1 1 1:30.48676 2:31.60438 3:51.87683 4:126.8287 
-1 -1 1 1 1 1 1:28.16408 2:32.73527 3:184.08541 4:364.89833 
-1 -1 1 1 1 1 1:198.94909 2:47.1305 3:49.46308 4:134.72647 
-1 -1 1 1 1 1 1:39.42972 2:30.69037 3:48.55579 4:29.58142 
-1 -1 1 1 1 1 1:85.56093 2:60.23974 3:39.42972 4:146.35244 
-1 -1 1 1 1 1 1:35.30309 2:205.62531 3:36.58412 4:30.90303 
-1 -1 1 1 1 1 1:29.41924 2:59.55858 3:54.95895 4:29.26237 
-1 -1 1 1 1 1 1:75.00585 2:61.43462 3:65.20974 4:44.86874 
-1 -1 1 1 1 1 1:30.10383 2:36.58412 3:54.95895 4:61.55336 
-1 -1 1 1 1 1 1:58.53594 2:41.18694 3:36.82845 4:341.29981 
-1 -1 1 1 1 1 1:68.95062 2:45.06254 3:34.25641 4:38.93337 
-1 -1 1 1 1 1 1:33.8028 2:36.82845 3:76.09723 4:49.85457 
-1 -1 1 1 1 1 1:102.67715 2:45.67522 3:140.79013 4:52.39889 
-1 -1 1 1 1 1 1:31.60438 2:39.60369 3:29.26237 4:75.00585 
-1 -1 1 1 1 1 1:59.7756 2:71.44666 3:34.93258 4:29.41924 
-1 -1 1 1 1 1 1:34.41813 2:32.72574 3:32.13649 4:36.34977 
-1 -1 1 1 1 1 1:60.23974 2:54.14416 3:29.11048 4:55.17398 
-1 -1 1 1 1 1 1:38.77577 2:69.57452 3:83.86947 4:84.12889 
-1 -1 1 1 1 1 1:28.68177 2:29.7493 3:33.06534 4:39.28233 
-1 -1 1 1 1 1 1:42.40807 2:104.52661 3:103.11338 4:50.05719 
-1 -1 1 1 1 1 1:49.6566 2:39.42972 3:33.37145 4:28.96327 
-1 -1 1 1 1 1 1:36.12461 2:58.34282 3:57.36355 4:29.92328 
-1 -1 1 1 1 1 1:30.10383 2:31.86304 3:99.19217 4:45.4655 
-1 -1 1 1 1 1 1:29.41924 2:76.49003 3:109.05438 4:31.60438 
-1 -1 1 1 1 1 1:40.96733 2:129.20982 3:71.81226 4:35.49771 
-1 -1 1 1 1 1 1:68.07738 2:54.74866 3:29.11048 4:129.9148 
-1 -1 1 1 1 1 1:62.80341 2:70.64389 3:46.8198 4:80.36341 
-1 -1 1 1 1 1 1:109.0858 2:31.35899 3:31.86304 4:93.97152 
-1 -1 1 1 1 1 1:69.17885 2:30.48676 3:77.60937 4:37.90092 
-1 -1 1 1 1 1 1:73.31411 2:56.32815 3:78.07238 4:83.27721 
-1 -1 1 1 1 1 1:35.49771 2:29.7493 3:53.03892 4:158.38025 
-1 -1 1 1 1 1 1:37.3507 2:38.93337 3:54.34145 4:61.43462 
-1 -1 1 1 1 1 1:101.10755 2:37.3507 3:33.50979 4:32.13649 
-1 -1 1 1 1 1 1:69.40388 2:48.72976 3:28.16408 4:45.26137 
-1 -1 1 1 1 1 1:415.35561 2:50.2647 3:149.81335 4:61.69451 
-1 -1 1 1 1 1 1:59.34595 2:32.13649 3:35.69916 4:47.87727 
-1 -1 1 1 1 1 1:71.41237 2:36.12461 3:35.69916 4:69.64828 
-1 -1 1 1 1 1 1:56.02607 2:51.87683 3:41.18694 4:64.74104 
-1 -1 1 1 1 1 1:34.58455 2:28.96327 3:95.75787 4:211.13402 
-1 -1 1 1 1 1 1:56.02607 2:49.85457 3:53.86193 4:45.06254 
-1 -1 1 1 1 1 1:64.07201 2:81.81435 3:29.11048 4:53.39334 
-1 -1 1 1 1 1 1:30.29147 2:29.41924 3:57.96689 4:36.58412 
-1 -1 1 1 1 1 1:58.83847 2:81.17038 3:49.44486 4:66.49576 
-1 -0.7996735275750091 -0.7141960763197808 0.9931827249778566 0.97561702596776 1 1:38.18003 2:65.20974 3:74.50031 4:71.02408 
-1 -0.7996758413494423 -0.7141960067163257 0.9931753536380882 0.9756129664735544 1 1:111.29627 2:78.01901 3:249.2304 4:133.13027 
-1 -0.79976097362543 -0.7148606751332277 0.9931753531932801 0.9900466439839847 1 1:55.39394 2:52.39889 3:72.9769 4:48.38527 
-1 -0.7994442544952091 -0.7148606547814741 0.9931812605636925 0.9756129388548506 1 1:30.10383 2:88.48202 3:41.414 4:64.07201 
-1 -0.799462206786111 -0.7141942836843163 0.993181260563987 0.9756120619498574 1 1:396.17723 2:167.85741 3:72.01974 4:44.31517 
-1 -0.799347332142948 -0.7141945686539791 0.9931659040266565 0.9765724610924992 1 1:80.11418 2:58.78442 3:33.37145 4:34.09912 
-1 -0.7994442544952091 -0.7148621512478297 0.9931812606088821 0.9756120895439174 1 1:27.17072 2:44.49528 3:45.67522 4:306.11917 
-1 -0.8177160182459025 -0.7149618986340628 0.9928093470674656 0.9753665375791474 1 1:30.29147 2:29.7493 3:43.00912 4:34.09912 
-1 -0.79976097362543 -0.7141960763186062 0.9931825821446469 0.9762130478000535 1 1:151.66726 2:678.93265 3:44.19145 4:182.37186 
-1 -0.7992627120392917 -0.7141960763197808 0.9931825821446469 0.9756131610323608 1 1:43.1607 2:69.87364 3:28.547 4:70.64672 
-1 -0.7993474538383278 -0.7141946230059059 0.9931825821446469 0.9756415970188358 1 1:45.67522 2:103.40067 3:31.12558 4:57.78385 
-1 -0.7994622062781395 -0.7147094935681482 0.9931814369932982 0.9756423788023308 1 1:28.41593 2:38.77577 3:40.34864 4:87.44893 
-1 -0.7995220494032768 -0.7141946192297333 0.9931814372315857 0.9756120007712004 1 1:86.24351 2:268.57185 3:39.09476 4:130.12709 
-1 -0.7996745674819299 -0.714194619229769 0.9931814372316841 0.9756119928269773 1 1:92.43739 2:57.73991 3:178.64958 4:143.05273 
-1 -0.7997048570574548 -0.7143143744770761 0.9931814376189007 0.9756121013573502 1 1:69.92247 2:58.78442 3:163.66097 4:64.44646 
-1 -0.79976097362543 -0.7139662599158654 0.9931814376189008 0.9756121013573502 1 1:115.1641 2:113.47045 3:105.19166 4:90.67614 
-1 -0.799429955300868 -0.7148619230847379 0.993183059320111 0.9756170259716973 1 1:35.11485 2:58.64854 3:42.29323 4:40.15449 
-1 -0.798580315435687 -0.7134220258752824 0.9920915080417242 0.9745603640317205 1 1:29.58142 2:36.34977 3:38.03902 4:41.15245 
-1 -0.8095090288185197 -1 1 0.9777203676840956 1 1:36.12461 2:30.48676 3:41.64903 4:31.42033 
-1 -0.7994912267625618 -0.7142024370039552 0.9931830601213745 0.9783258721657471 1 1:59.55858 2:29.58142 3:30.29147 4:28.41593 
-1 -0.7994284930116176 -0.7147094940165954 0.9931694276550526 0.9756120898630122 1 1:66.9334 2:35.30309 3:46.8198 4:34.41813 
-1 -0.7994622067824506 -0.7141945159394225 0.9931772186059264 0.9756120619498574 1 1:45.29698 2:40.69533 3:214.5495 4:48.21805 
-1 -0.7992627092324187 -0.7141942835220186 0.9931772186059264 0.9756173512318971 1 1:286.24315 2:64.76541 3:341.89744 4:34.25641 
-1 -0.7996239684795983 -0.7461793926843117 0.9931655499184676 0.9756388692692511 1 1:34.58455 2:32.60487 3:35.69916 4:32.4865 
-1 -0.7996731793779421 -0.713968429747718 0.9931689852451355 0.9765740328245224 1 1:59.6353 2:40.47661 3:35.30309 4:32.25684 
-1 -0.7996745674819299 -0.7141942836843163 0.9931772191247455 0.9756173512318972 1 1:30.69035 2:45.26137 3:82.78333 4:73.31411 
-1 -0.7997582598926239 -0.7143781010271268 0.9931772191250128 0.9756170234432141 1 1:93.88705 2:49.08862 3:56.26564 4:252.94493 
-1 -0.7994438893306568 -0.7148603734087474 0.9931772191252799 0.9756131610323608 1 1:28.16408 2:44.49528 3:776.09191 4:32.72574 
-1 -0.7993474538383278 -0.7143567044739484 0.9931772191252799 0.9756129664735544 1 1:28.96327 2:200.15188 3:82.61765 4:36.11223 
-1 -0.7995231051831527 -0.7141944296865891 0.9937094732178128 0.9756129388547994 1 1:52.69717 2:28.82045 3:39.96581 4:251.83656 
-1 -0.7993474538383278 -0.7141960763197808 0.9937094732178128 0.9756415970527774 1 1:76.82106 2:75.25756 3:180.91961 4:158.44053 
-1 -0.7996769212858005 -0.7143781010779516 0.9939852588223954 0.9756415970188281 1 1:95.82164 2:47.89306 3:243.84566 4:35.49771 
-1 -0.7994306490477375 -0.7147095003502832 0.9939852574239084 0.9765740329191734 1 1:38.93337 2:652.93278 3:125.46373 4:31.82336 
-1 -0.7994300967987882 -0.713968559999315 0.9940181323438304 0.9759003363301597 1 1:63.7192 2:28.547 3:39.09476 4:170.08652 
-1 -0.7994585618573977 -0.713968559999315 0.9940230760391771 0.9756864068555993 1 1:59.6353 2:27.58699 3:44.49528 4:116.12222 
-1 -0.7995219915098535 -0.7141951158035585 0.9940230786033483 0.976572427913812 1 1:85.87688 2:57.08193 3:34.75593 4:456.2268 
-1 -0.7997046562938561 -0.713968559999315 0.9940332274001611 0.976572428586562 1 1:31.60438 2:51.58889 3:152.09953 4:56.42391 
-1 -0.7997581793183284 -0.7141946118104536 0.9940332276345696 0.9765724285865621 1 1:75.55775 2:29.11048 3:574.42813 4:121.62998 
-1 -0.7995219915098537 -0.7140797784454168 0.9931828950017422 0.9765717645814814 1 1:34.41813 2:69.23539 3:32.72574 4:39.60369 
-1 -0.7994287340855262 -0.7148563092669198 0.9940597433878754 0.9765724334747058 1 1:35.69916 2:29.7493 3:131.70689 4:48.38527 
-1 -0.7994422984171823 -0.7143143744770759 0.994059743388259 0.9765717611264414 1 1:42.86049 2:61.04298 3:230.90885 4:56.10971 
-1 -0.7987627186359767 -0.7147094940017702 0.9933813339751077 0.9765717611264414 1 1:44.67973 2:889.60054 3:839.2631 4:39.60369 
-1 -0.7996755147515686 -0.7139662599158656 0.9931690791351486 0.9765717611574415 1 1:40.96733 2:33.23637 3:45.78225 4:166.77925 
-1 -0.8048385901562909 -0.7142172734108257 0.9932527931242443 0.9756108441837574 1 1:30.10383 2:42.43115 3:42.86049 4:39.78231 
-1 -0.7996755146671469 -0.7141946604536373 0.9931830206559508 0.9767370270667433 1 1:33.7969 2:35.90795 3:34.93258 4:70.83539 
-1 -0.7993471115161346 -0.7143687256687657 0.9931753534156831 0.9765550922727442 1 1:72.81287 2:30.10383 3:29.92328 4:28.41593 
-1 -0.79942929595775 -0.7148605675185774 0.9931753536380882 0.9765717611595485 1 1:44.49528 2:123.09832 3:150.08615 4:39.42972 
-1 -0.79942929595775 -0.7139662599158654 0.9931830379542663 0.9765717613017213 1 1:474.92677 2:48.05402 3:58.34282 4:66.31149 
-1 -0.7997056626630958 -0.7148603514957373 0.9931690791351486 0.9765724590742492 1 1:47.1305 2:127.88826 3:37.63298 4:29.26237 
-1 -0.7994306490477374 -0.7141945046057392 0.9931830379547947 0.9760945516210243 1 1:81.97597 2:33.50979 3:32.97538 4:57.99226 
-1 -0.799704791656725 -0.7139659662574949 0.993168985342981 0.9756287450287272 1 1:31.86304 2:42.43115 3:64.07201 4:30.29147 
-1 -0.7994422984171823 -0.7141942836843163 0.9931830379547816 0.9765717613017213 1 1:83.08542 2:110.24851 3:48.22115 4:75.10704 
-1 -0.799262712064597 -0.7143143744770761 0.9931830593199247 0.9765717618009859 1 1:42.29323 2:37.00658 3:62.08749 4:52.69717 
-1 -0.7994918378592974 -0.7141945686560474 0.9931814372315857 0.9765717618009859 1 1:36.77155 2:193.28824 3:1041.5887 4:40.54859 
-1 -0.7988977669148933 -0.7136870577487967 0.9930435732428151 0.977405947190365 1 1:40.75468 2:32.97538 3:41.89378 4:32.60487 
-1 -0.799262710392973 -0.7196499298165278 0.9931814822510298 1 1 1:27.80954 2:52.53077 3:29.41924 4:33.37145 
-1 -0.7995220494034406 -0.713968559999315 0.9931814372316841 0.9765426641086958 1 1:70.64672 2:33.50979 3:102.28733 4:30.48676 
-1 -0.7997056453834093 -0.7141945046057392 0.9931814376189008 0.9765550922727435 1 1:54.93908 2:100.97715 3:67.66273 4:31.9287 
-1 -0.7994422984171823 -0.7141960763186062 0.9931814376189008 0.9756119928269773 1 1:58.34282 2:51.73957 3:33.94602 4:108.39742 
-1 -0.7994417739858872 -0.7139662599158656 0.9931772186017306 0.9756120895459371 1 1:68.95062 2:48.05402 3:73.97514 4:137.21571 
-1 -0.7994917918226336 -0.7141944794866417 0.9931772186059264 0.9756128288442605 1 1:32.4865 2:28.68177 3:220.95937 4:33.94602 
-1 -0.7995414535200573 -0.7139685599998387 0.9931606195553495 0.9756128288438908 1 1:52.36721 2:65.09276 3:38.93337 4:29.11048 
-1 -0.7994417739858872 -0.7139662599158654 0.9931772191250128 0.9756120007702473 1 1:29.26237 2:96.43608 3:42.57161 4:77.32303 
-1 -0.7994292958742473 -0.7147095003502832 0.9931772191252799 0.9756173512318971 1 1:43.57582 2:509.1553 3:286.21128 4:27.07208 
-1 -0.7995220494034208 -0.7143781010271268 0.9932675426967579 0.9756862116031362 1 1:77.66707 2:33.37145 3:64.92801 4:60.87777 
-1 -0.7987627186359767 -0.7143781008143303 0.9935643679433395 0.9756864135229755 1 1:91.03056 2:45.26137 3:81.1935 4:27.69697 
-1 -0.7992627127770822 -0.7143567044727166 0.993564367905201 0.9765724405699607 1 1:32.97538 2:67.65765 3:28.41593 4:27.80954 
-1 -0.7995220819822546 -0.7142175685255368 0.993182895000136 0.975642334523848 1 1:86.59122 2:28.16408 3:43.79894 4:29.41924 
-1 -0.7992626389267081 -0.7139659332122166 0.9931811684749097 0.9756261131325585 1 1:65.95093 2:34.93258 3:44.1392 4:49.69608 
-1 -0.799347332145264 -0.7148563034647311 0.9931753536380882 0.9759001577458771 1 1:152.48698 2:33.37145 3:42.86049 4:29.92328 
-1 -0.7994918378592974 -0.7148606751269853 0.9931830601211336 0.976572427913812 1 1:35.30309 2:54.54289 3:61.04298 4:59.7756 
-1 -0.7994446525869936 -0.7148621324462043 0.993181578019137 0.976572428586562 1 1:31.60438 2:40.54859 3:71.56408 4:97.97403 
-1 -0.7997045518428263 -0.7143143744770366 0.9936424699229005 0.9756170255720614 1 1:58.92192 2:30.10383 3:51.89266 4:32.14536 
-1 -0.7992627120392917 -0.7141946118104536 0.9931828950017404 0.9765724334747058 1 1:57.60393 2:32.4865 3:125.40515 4:28.68177 
-1 -0.7992473023616029 -0.7142058381437864 0.9929342286068948 0.9753951474470121 1 1:37.25015 2:92.98848 3:28.96327 4:35.49771 
-1 -0.7997582599086246 -0.7141945159394225 0.9931814372316841 0.9765724347546583 1 1:30.10383 2:87.97281 3:40.34864 4:49.45383 
-1 -0.7994913667154424 -0.7140315144047655 0.9939417894937467 0.9754641317107777 1 1:37.90092 2:91.14866 3:33.50979 4:32.4865 
-1 -0.7995219915098535 -0.713968559999315 0.9931814376189008 0.9756172392928589 1 1:214.82825 2:103.22942 3:178.39474 4:49.33497 
-1 -0.8163537855596904 -0.714860679458961 0.9931636072610974 0.9766997425738189 1 1:76.81235 2:39.42972 3:43.79894 4:47.1305 
-1 -0.799347331648594 -0.7141960763197808 0.9938787834370842 0.9765426641079219 1 1:34.75593 2:85.33963 3:55.21976 4:28.16408 
-1 -0.7995220494034347 -0.7143781008143303 0.9940181323438304 0.9756112454465717 1 1:28.547 2:269.47325 3:33.37145 4:34.75593 
-1 -0.7997046562938561 -0.7144134028664818 0.9939852610522665 0.97561702596776 1 1:120.65783 2:141.40943 3:62.64768 4:43.79894 
-1 -0.7989003200547073 -0.7137221627630954 0.9929810485615536 0.9754062101379557 1 1:27.47948 2:39.60369 3:27.37433 4:41.15245 
-1 -0.7997582598926239 -0.7142175668668478 0.9937691176471759 0.9756131610323606 1 1:134.07438 2:100.97715 3:28.96327 4:46.57679 
-1 -0.7995414535139558 -0.7141946230059059 0.9937094732178128 0.9756129388547994 1 1:40.92048 2:63.98286 3:192.40401 4:29.11048 
-1 -0.7992627102753058 -0.7141951923611697 0.9937094742979102 0.9756112452846157 1 1:48.32688 2:27.17072 3:35.90795 4:47.1305 
-1 -0.7993473316154528 -0.7141946118097849 0.9935643675625986 0.9756864068555993 1 1:44.31517 2:39.60369 3:74.11244 4:66.9334 
-1 -0.7994417739858872 -0.7139661633587364 0.993169380460212 0.9760915602132134 1 1:28.68177 2:27.47948 3:60.23974 4:209.01235 
-1 -0.7997582599086247 -0.7142227813758366 0.993168985334273 0.9762158020922875 1 1:42.71468 2:52.67228 3:35.49771 4:333.22065 
-1 -0.799462206786111 -0.7139659677333159 0.9931689845554289 0.9756170255647791 1 1:28.68177 2:58.93316 3:56.83185 4:43.1607 
-1 -0.7994917940072674 -0.7143691520370168 0.9931830379547816 0.9756121013573502 1 1:66.20878 2:47.57989 3:47.42747 4:75.49495 
-1 -0.7994294786044999 -0.7141946118197393 0.9940181322581713 0.9765724278671507 1 1:33.50979 2:50.91904 3:33.7969 4:27.17072 
-1 -0.7995220494005795 -0.7148606547789276 0.9937094734851729 0.9765731200247678 1 1:27.17072 2:79.55841 3:33.65155 4:87.05148 
-1 -0.7985632553215877 -0.7134335274912041 0.99208340862787 0.9745595922535418 1 1:26.51946 2:32.37052 3:37.76561 4:42.57161 
-1 -0.7994422984171823 -0.7148563034605632 0.9931830601211336 0.9765426641086958 1 1:40.15449 2:118.2868 3:68.90462 4:97.45441 
-1 -0.7994417739858872 -0.7148563034647311 0.9931830585320321 0.9756119928396501 1 1:33.65155 2:51.15058 3:75.71008 4:171.52702 
-1 -0.7997581792989437 -0.7148606751290377 0.9932653889055919 0.9756121013573502 1 1:29.41924 2:29.41924 3:80.44194 4:57.99226 
-1 -0.7994288687542487 -0.7148603620860148 0.9932916208448443 0.9756865122130751 1 1:43.1607 2:36.43378 3:49.46308 4:34.75593 
-1 -0.7994438893306568 -0.7148619230847379 0.9931825821446469 0.97561702596776 1 1:215.75338 2:69.40388 3:312.74095 4:29.7493 
-1 -0.7992579002287544 -0.7148621324462043 0.9931828772336064 0.9756170255652988 1 1:179.98268 2:64.74104 3:76.98656 4:30.29147 
-1 -0.798762716779675 -0.7141945686560484 0.9931828797193847 0.976555092272744 1 1:65.25972 2:250.52349 3:30.69037 4:34.41813 
-1 -0.7997053674406334 -0.7141942835220187 0.993182882200736 0.9756170258787591 1 1:40.15449 2:28.82045 3:34.09912 4:201.26231 
-1 -0.7997046088759726 -0.7139685599993143 0.9931852668396783 0.9765717625578478 1 1:35.90795 2:32.72574 3:68.74225 4:31.22895 
-1 -0.7995220494032887 -0.714861923084732 0.9931828822029116 0.9756184473288818 1 1:73.70418 2:27.17072 3:50.91904 4:33.50979 
-1 -0.7992627102751664 -0.7142130667440052 0.9931814376189008 0.9756129388549346 1 1:70.64672 2:45.78225 3:29.11048 4:53.39334 
-1 -0.7996758413494423 -0.7139660925532373 0.9931814376189008 0.9756129388548506 1 1:30.69037 2:159.25346 3:28.68177 4:39.26015 
-1 -0.7996731794528049 -0.7141946118104536 0.9937094734679964 0.9756185518993797 1 1:77.66707 2:39.60369 3:28.82045 4:151.37432 
-1 -0.799429180323911 -0.7141945046058071 0.9937094734887276 0.9756864102711963 1 1:89.72481 2:43.63432 3:70.64672 4:113.4447 
-1 -0.7992776771954939 -0.7147094938027455 0.9931772188381198 0.9765717644842673 1 1:33.50979 2:38.47128 3:46.16503 4:69.74737 
-1 -0.7994917918226336 -0.7139659157765319 0.9937683340088139 0.9756120898825668 1 1:29.26237 2:30.48676 3:56.26564 4:98.66997 
-1 -0.799429180323911 -0.7148563188632009 0.9937691176471759 0.9756863074671283 1 1:64.04306 2:47.33029 3:53.03892 4:43.47317 
-1 -0.7995413585991999 -0.7143781003643837 0.9931828962685189 0.9781104557428437 1 1:32.4865 2:38.77577 3:44.1392 4:80.11418 
-1 -0.8024999828038858 -0.7141941100475339 0.9945056922047983 0.9756860158919936 1 1:37.37535 2:42.29323 3:44.31517 4:37.3507 
-1 -0.7989009382830194 -0.7140130072145828 1 0.9755672495095726 1 1:30.69037 2:35.30309 3:27.69697 4:41.76513 
-1 -0.7997046562938561 -0.7143143744770761 0.9940181323437317 0.9765724334747058 1 1:37.6308 2:37.37535 3:95.37397 4:142.51865 
-1 -0.799347332145264 -0.7141946034352378 0.9932653887194151 0.9765724347546583 1 1:34.41813 2:33.23637 3:101.34324 4:100.1897 
-1 -0.7992631797585077 -0.7141945159394225 0.9932675426967579 0.9756864102706896 1 1:119.44011 2:28.547 3:31.22895 4:50.32995 
-1 -0.7997045518406533 -0.7139662599158656 0.9931623750493097 0.9760324465735383 1 1:192.40644 2:45.78225 3:34.75593 4:30.90303 
-1 -0.8200394015518759 -0.7141951158035413 0.9971792290213399 0.9756129388592693 1 1:43.26425 2:39.26015 3:30.69037 4:40.75468 
-1 -0.8172062109848839 -0.7147911031832662 0.9930717977144007 0.9764367676317739 1 1:41.414 2:33.65155 3:29.92328 4:29.41924 
-1 -0.7994303003071584 -0.7141945159394225 0.9931828950001359 0.9765717640556417 1 1:86.98839 2:34.25641 3:42.43115 4:41.89378 
-1 -0.7994583071478287 -0.714862431293573 0.9931636072611034 0.9763162528857755 1 1:30.48676 2:47.73505 3:33.65155 4:74.11244 
-1 -0.7994022676245441 -0.7148584826533801 0.9945361441923963 0.9756144594823086 1 1:72.01974 2:31.35899 3:55.61908 4:49.85457 
-1 -0.7993471105903707 -0.7148563083713582 0.9931830601211336 0.9760915602132134 1 1:28.04295 2:509.72937 3:46.56563 4:51.44054 
-1 -0.7994299549862536 -0.7141945157723496 0.9944261447097051 0.9780911720261468 1 1:30.10383 2:34.93258 3:40.54859 4:64.07201 
-1 -0.7995220494034208 -0.7143143744770761 0.9931812605636925 0.9760945516210243 1 1:28.41593 2:31.9287 3:127.88826 4:190.29691 
-1 -0.7997582599086246 -0.7139661633587364 0.9931812606088821 0.9756129388547994 1 1:29.92328 2:160.09323 3:42.02463 4:32.25684 
-1 -0.7994918377501388 -0.7141960763186062 0.9940230760391771 0.9756415970526622 1 1:184.80239 2:65.25972 3:28.41593 4:57.42704 
-1 -0.7994292958742473 -0.7187027297871174 0.9940332276345696 0.9765724444098182 1 1:98.3052 2:36.82845 3:30.69037 4:29.7493 
-1 -0.7994438893306568 -0.7139659676968628 0.993182895000136 0.9756128288442617 1 1:49.27381 2:32.8492 3:40.54859 4:104.63832 
-1 -0.799257900151204 -0.7149643884551354 0.9939852612594225 0.9756129387729621 1 1:65.77449 2:39.96581 3:34.75593 4:39.60369 
-1 -0.7995220494130596 -0.7141946034352378 0.994059743388259 0.9756129664773616 1 1:28.96327 2:66.79313 3:84.90585 4:41.414 
-1 -0.7987627186359797 -0.7141942715558318 0.9931814372316841 0.9756415970188358 1 1:75.53122 2:29.11048 3:29.58142 4:49.33497 
-1 -0.7996745674819299 -0.7139685599992889 0.9931618295899836 0.9756179946407932 1 1:41.15245 2:38.47128 3:29.11048 4:284.16082 
-1 -0.799347331648594 -0.7139659676968628 0.993181578019137 0.9765717611264414 1 1:90.59393 2:108.02354 3:195.76474 4:28.82045 
-1 -0.8002629000535596 -0.7142229120590794 0.9933407162877965 0.9756637697096944 1 1:32.37052 2:33.50979 3:50.46193 4:28.82045 
-1 -0.7994585618573977 -0.7148603555574204 0.9931772186059264 0.9765717611595485 1 1:43.47317 2:34.25641 3:27.80954 4:160.02426 
-1 -0.7994282923439638 -0.71419607631605 0.9931689853307198 0.9756129388514426 1 1:30.29147 2:71.61083 3:34.93258 4:92.60875 
-1 -0.7987627186359767 -0.7141946118097829 0.9931772191252799 0.9765717613017213 1 1:37.12726 2:29.26237 3:68.26663 4:336.06297 
-1 -0.7988012533218778 -0.7141942835189696 0.9937691176429403 0.9756864102665284 1 1:26.88069 2:44.72649 3:90.46464 4:42.86049 
-1 -0.7997609752866871 -0.7142227813758366 0.9939852588223954 0.9756129388547994 1 1:207.50224 2:50.69536 3:27.58699 4:37.08364 
-1 -0.7993064542673668 -0.714012233760237 0.993337322335037 0.994282047113372 1 1:31.12558 2:28.82045 3:43.63432 4:28.68177 
-1 -0.7994301241196046 -0.7148624309689332 0.9939852610480211 0.9756128288400951 1 1:31.12558 2:41.15245 3:88.17662 4:51.14869 
-1 -0.7996748948530794 -0.7144134028664818 0.9931659040023384 0.9756129388548506 1 1:43.26425 2:45.89085 3:94.44717 4:201.55723 
-1 -0.79962343728047 -0.720609231569948 0.9930699186553187 0.976436577583448 1 1:35.49771 2:34.09912 3:28.82045 4:30.10383 
-1 -0.7994302225487584 -0.7139659677043152 0.9931830379542663 0.9756863074671283 1 1:39.96581 2:61.55336 3:91.07237 4:49.44486 
-1 -0.7993474538383278 -0.7148619258178275 0.9931753536380882 0.976321409796292 1 1:42.02463 2:29.26237 3:155.06637 4:33.7969 
-1 -0.7994294946315372 -0.7141955361478961 0.9931828822029201 0.9756198231027304 1 1:43.63432 2:99.61884 3:51.15058 4:28.16408 
-1 -0.7995220494034208 -0.9445288425633436 0.9938485395428128 0.9765340508560965 1 1:36.88803 2:28.41593 3:90.27297 4:29.92328 
-1 -0.7994918377501388 -0.7141942836843163 0.9931828949973442 0.9756120007712004 1 1:33.65155 2:70.55396 3:58.15318 4:87.57226 
-1 -0.7994912267625618 -0.7141954912097132 0.9931814484778583 0.9765336654661129 1 1:61.3807 2:90.16618 3:31.12558 4:33.94602 
-1 -0.7997581908553207 -0.7141946118229808 0.9938943433017038 1 1 1:75.69292 2:51.38463 3:38.93337 4:35.11485 
-1 -0.7992627120392918 -0.7139662599158654 0.9937691176471797 0.9756129664735544 1 1:88.33905 2:118.08205 3:94.63759 4:0.005507821 
-1 -0.7995220494034208 -0.7148606751332277 0.9938485357393876 0.9756170255647791 1 1:2.4945874 2:49.27381 3:30.10383 4:30.29147 
-1 -0.7997582562883693 -0.714378097869823 0.9931828905131398 0.9756119884435526 1 1:136.05235 2:29.92328 3:61.181 4:35.30309 
-1 -0.7997582598926238 -0.7148563083713582 0.9931772186017306 0.9759003363301858 1 1:51.73957 2:132.71122 3:39.26015 4:39.26015 
-1 -0.7992631797585077 -0.7143567044727166 0.9931694276551158 0.9756112452846157 1 1:149.53196 2:30.29147 3:27.37433 4:27.69697 
-1 -0.7994292959574095 -0.7148658031422042 0.9939852765969724 0.9756131610319436 1 1:51.15058 2:75.10704 3:42.40807 4:28.82045 
-1 -0.7994438893306568 -0.7141945159384733 0.9931659040211426 0.9756862116031362 1 1:33.10439 2:119.2706 3:54.80149 4:126.30101 
-1 -0.7994282923468227 -0.7147094940087931 0.9931825821446469 0.9765724347546583 1 1:33.94602 2:73.43793 3:32.03601 4:55.50813 
-1 -0.7994912267625618 -0.7139659157765319 0.9931825821446469 0.9762158020922875 1 1:28.28834 2:233.01171 3:33.94602 4:104.31291 
-1 -0.7997053674406334 -0.7141945046055793 0.993160416345211 0.976321409796292 1 1:114.54142 2:331.3487 3:36.12461 4:32.4865 
-1 -0.7996745674819299 -0.7148605675185774 0.9933813339751077 0.9756121013573502 1 1:27.92482 2:70.83407 3:141.94359 4:78.74445 
-1 -0.7997581756915655 -0.7142175653032732 0.9931828777208994 0.975641592652196 1 1:135.34713 2:30.10383 3:53.57559 4:39.60369 
-1 -0.7994912267625617 -0.7141947514422358 0.993183163918431 0.9761018697030993 1 1:84.48334 2:48.90732 3:38.47128 4:27.27144 
-1 -0.7997048570574352 -0.7147094940017531 0.9931990020134526 0.9756864135229526 1 1:40.80707 2:30.86433 3:26.43326 4:46.2965 
-1 -0.7994896185138822 -0.7148584050492078 0.9931801688209712 0.9756172950479822 1 1:71.26815 2:32.72574 3:49.08862 4:52.36721 
-1 -0.7997046562938561 -0.7148621512478297 0.9931825821446469 0.9765731200282318 1 1:169.5213 2:1.9409741 3:95.87768 4:29.26237 
-1 -0.7992627102751655 -0.714194619229769 0.9931753534156831 0.9765717618009859 1 1:38.62179 2:115.74813 3:34.93258 4:723.84935 
-1 -0.799347332145264 -0.7141945160535206 0.993182895000136 0.9760945516194935 1 1:37.3507 2:66.49576 3:38.18003 4:65.20974 
-1 -0.8031750765384345 -0.7225144180464532 -1 0.9824157992307694 1 1:74.50031 2:71.02408 3:111.29627 4:78.01901 
-1 -0.8032235613472634 -0.7225366517717493 -1 0.9824224429758881 1 1:249.2304 2:133.13027 3:55.39394 4:52.39889 
-1 -0.8031752098775509 -0.7222970111675119 -1 0.9824161475869804 1 1:72.9769 2:48.38527 3:30.10383 4:88.48202 
-1 -0.8032235612232455 -0.7226881498291057 -1 0.9831341692166335 1 1:41.414 2:64.07201 3:396.17723 4:167.85741 
-1 -0.8032236787100806 -0.7228066002355271 -1 0.9825543031390663 1 1:72.01974 2:44.31517 3:80.11418 4:58.78442 
-1 -0.7978095659551919 -0.717605533278301 -1 0.9761257829844241 1 1:33.37145 2:34.09912 3:27.17072 4:44.49528 
-1 -0.8033060846926753 -0.7222894468736221 -1 0.9831341691887661 1 1:45.67522 2:306.11917 3:30.29147 4:29.7493 
-1 -0.80310432200173 -0.7218401242426744 -1 0.983124109679545 1 1:43.00912 2:34.09912 3:151.66726 4:678.93265 
-1 -0.8030755858072628 -0.7223029293297345 -1 0.9831219044497093 1 1:44.19145 2:182.37186 3:43.1607 4:69.87364 
-1 -0.8031367403783622 -0.7228066758765035 -1 0.9831265099012918 1 1:28.547 2:70.64672 3:45.67522 4:103.40067 
-1 -0.8024496001109733 -0.7217361619794427 -1 0.9816668798957654 1 1:31.12558 2:57.78385 3:28.41593 4:38.77577 
-1 -0.8031739661739925 -0.7228066758765251 -1 0.982395218784516 1 1:40.34864 2:87.44893 3:86.24351 4:268.57185 
-1 -0.80330563163452 -0.7228308140003001 -1 0.9823980777472032 1 1:39.09476 2:130.12709 3:92.43739 4:57.73991 
-1 -0.8031277142472135 -0.7228308139973838 -1 0.9823951842576043 1 1:178.64958 2:143.05273 3:69.92247 4:58.78442 
-1 -0.8029630191615076 -0.7227637565648648 -1 0.982395808237399 1 1:163.66097 2:64.44646 3:115.1641 4:113.47045 
-1 -0.8031739661739925 -0.7226758082959587 -1 0.9824125212822388 1 1:105.19166 2:90.67614 3:35.11485 4:58.64854 
-0.9849849093580643 -0.773722339623568 -0.6951891589067806 -0.9725428541585915 0.9463494151887755 1 1:42.29323 2:40.15449 3:29.58142 4:36.34977 
-1 -0.8116017868547684 -0.7224023909798458 -1 0.9847076673448574 1 1:38.03902 2:41.15245 3:36.12461 4:30.48676 
-1 -0.8032235587519805 -0.721840865268074 -1 0.9830985278371985 1 1:41.64903 2:31.42033 3:59.55858 4:29.58142 
-1 -0.8029585264545952 -0.7222786494959417 -1 0.9824034562505346 1 1:30.29147 2:28.41593 3:66.9334 4:35.30309 
-1 -0.8031041164121641 -0.7223164751361644 -1 1 1 1:46.8198 2:34.41813 3:45.29698 4:40.69533 
-1 -0.8031041166436277 -0.7226784877015218 -1 0.9824226512504309 1 1:214.5495 2:48.21805 3:286.24315 4:64.76541 
-1 -0.8033060846926757 -0.7226733291998023 -1 0.9824209375681707 1 1:341.89744 2:34.25641 3:34.58455 4:32.60487 
-1 -0.803048005867306 -0.7222871600957561 -1 0.9824690079195768 1 1:35.69916 2:32.4865 3:59.6353 4:40.47661 
-1 -0.7976279369761066 -0.7178569057763171 -1 0.9761295957605132 1 1:35.30309 2:32.25684 3:30.69035 4:45.26137 
-1 -0.803171922599879 -0.7226743618537361 -1 0.9824230784022649 1 1:82.78333 2:73.31411 3:93.88705 4:49.08862 
-1 -0.8030513544366362 -0.7224640954536492 -1 0.9824169251372713 1 1:56.26564 2:252.94493 3:28.16408 4:44.49528 
-1 -0.8032236787100806 -0.7226797338259204 -1 0.9824266101237656 1 1:776.09191 2:32.72574 3:28.96327 4:200.15188 
-1 -0.8031367398137921 -0.7226743618537361 -1 0.9824232690493708 1 1:82.61765 2:36.11223 3:52.69717 4:28.82045 
-1 -0.8030111781165551 -0.7226873829904291 -1 0.9824326210867125 1 1:39.96581 2:251.83656 3:76.82106 4:75.25756 
-1 -0.8031752098776288 -0.7222864418706216 -1 0.9825239058648411 1 1:180.91961 2:158.44053 3:95.82164 4:47.89306 
-1 -0.8026970553107388 -0.7228308046517511 -1 0.982554303141293 1 1:243.84566 2:35.49771 3:38.93337 4:652.93278 
-1 -0.8031752098776288 -0.7227637565648648 -1 0.9825973962799532 1 1:125.46373 2:31.82336 3:63.7192 4:28.547 
-1 -0.8031737021555436 -0.7226797338259204 -1 0.9824120867643265 1 1:39.09476 2:170.08652 3:59.6353 4:27.58699 
-1 -0.8031750765384345 -0.7223182572344302 -1 0.9821826901583292 1 1:44.49528 2:116.12222 3:85.87688 4:57.08193 
-1 -0.8029789674126979 -0.7218401242426744 -1 0.9824224301950223 1 1:34.75593 2:456.2268 3:31.60438 4:51.58889 
-1 -0.8031277137683863 -0.7222863824777284 -1 0.9824209375709656 1 1:152.09953 2:56.42391 3:75.55775 4:29.11048 
-1 -0.8031719222397415 -0.7227369576921039 -1 0.9824158113171122 1 1:574.42813 2:121.62998 3:34.41813 4:69.23539 
-1 -1 -0.7223904174022659 -1 1 1 1:32.72574 2:39.60369 3:35.69916 4:29.7493 
-1 -0.8031277142472135 -0.7226873872816124 -1 0.9824157992307694 1 1:131.70689 2:48.38527 3:42.86049 4:61.04298 
-1 -0.8033053850267454 -0.7222970005396679 -1 0.9823980777648842 1 1:230.90885 2:56.10971 3:44.67973 4:889.60054 
-1 -0.8033060846926753 -0.7228066758765462 -1 0.9823952187845436 1 1:839.2631 2:39.60369 3:40.96733 4:33.23637 
-1 -0.8029649959937326 -0.722674361853743 -1 0.9823958082373991 1 1:45.78225 2:166.77925 3:30.10383 4:42.43115 
-1 -0.7865805764782701 -0.7075369305658299 -0.9865874872056023 0.9626376285430333 1 1:42.86049 2:39.78231 3:33.7969 4:35.90795 
-0.9966248934396289 -0.782716329842207 -0.7039701943449552 -0.9805178617861579 0.9574862594659478 1 1:34.93258 2:70.83539 3:72.81287 4:30.10383 
-1 -0.8029630191615076 -0.7222863852003119 -1 0.9824685471369048 1 1:29.92328 2:28.41593 3:44.49528 4:123.09832 
-1 -0.8025135892406192 -0.7226758176553943 -1 0.9824556198435522 1 1:150.08615 2:39.42972 3:474.92677 4:48.05402 
-1 -0.8031752098773046 -0.7226758082959575 -1 0.9824326210894929 1 1:58.34282 2:66.31149 3:47.1305 4:127.88826 
-1 -0.8028604353230222 -0.7228308135904885 -1 0.9823951837190613 1 1:37.63298 2:29.26237 3:81.97597 4:33.50979 
-1 -0.8026931554884602 -0.7217683920218194 -1 0.981774797272616 1 1:32.97538 2:57.99226 3:31.86304 4:42.43115 
-1 -0.8033060846926753 -0.7226873829904291 -1 0.9823959025053313 1 1:64.07201 2:30.29147 3:83.08542 4:110.24851 
-1 -0.8029844942334324 -0.7222864418241423 -1 0.9831094389390268 1 1:48.22115 2:75.10704 3:42.29323 4:37.00658 
-1 -0.8030351567450241 -0.7221176535344793 -1 0.9824226512504309 1 1:62.08749 2:52.69717 3:36.77155 4:193.28824 
-1 -0.8029782739652112 -0.7226766543160563 -1 0.9831094447803016 1 1:1041.5887 2:40.54859 3:40.75468 4:32.97538 
-1 -0.8033056010257629 -0.7226703056866284 -1 0.9824325835796061 1 1:41.89378 2:32.60487 3:27.80954 4:52.53077 
-1 -0.8032857083976996 -0.7224456933010805 -1 0.9830893682936159 1 1:29.41924 2:33.37145 3:70.64672 4:33.50979 
-1 -0.8029649959937326 -0.7226873829904291 -1 0.9831094412281984 1 1:102.28733 2:30.48676 3:54.93908 4:100.97715 
-1 -0.8028177043754017 -0.7224640582798975 -1 0.983134174483705 1 1:67.66273 2:31.9287 3:58.34282 4:51.73957 
-1 -0.8031043220017272 -0.7222877553570493 -1 0.9825250821045548 1 1:33.94602 2:108.39742 3:68.95062 4:48.05402 
-1 -0.8033060846926753 -0.7225145978084471 -1 0.9826008234864571 1 1:73.97514 2:137.21571 3:32.4865 4:28.68177 
-1 -0.8031737021555436 -0.7223029293058375 -1 0.9831341691887661 1 1:220.95937 2:33.94602 3:52.36721 4:65.09276 
-1 -0.8231869103739903 -0.7222877553570517 -1 0.9831341692166335 1 1:38.93337 2:29.11048 3:29.26237 4:96.43608 
-1 -0.8031719222397415 -0.7222894341281989 -1 0.9831141803283021 1 1:42.57161 2:77.32303 3:43.57582 4:509.1553 
-1 -0.8032235613664195 -0.7218401242426744 -1 0.9831220948921895 1 1:286.21128 2:27.07208 3:77.66707 4:33.37145 
-1 -0.802977517841284 -0.7221179317420645 -1 0.9831219044502022 1 1:64.92801 2:60.87777 3:91.03056 4:45.26137 
-1 -0.8026970551827451 -0.722797375451489 -1 0.9823952187495545 1 1:81.1935 2:27.69697 3:32.97538 4:67.65765 
-1 -0.8032847185709613 -0.7222702126350152 -1 0.9823962809042919 1 1:28.41593 2:27.80954 3:86.59122 4:28.16408 
-1 -0.8033059200658954 -0.722688324558888 -1 0.982554300374896 1 1:43.79894 2:29.41924 3:65.95093 4:34.93258 
-1 -0.8032236787100806 -0.7223061310286341 -1 0.9825618152133803 1 1:44.1392 2:49.69608 3:152.48698 4:33.37145 
-1 -0.8031856888775112 -0.7220364063585977 -1 0.9831341370096508 1 1:42.86049 2:29.92328 3:35.30309 4:54.54289 
-1 -0.8028564137571601 -0.7228308046519061 -1 0.9825239059304099 1 1:61.04298 2:59.7756 3:31.60438 4:40.54859 
-1 -0.8031331122489567 -0.7223021337248411 -1 0.9824326210894929 1 1:71.56408 2:97.97403 3:58.92192 4:30.10383 
-1 -0.8031718301580546 -0.7223021337247215 -1 0.9831083254401247 1 1:51.89266 2:32.14536 3:57.60393 4:32.4865 
-1 -0.8031367403900349 -0.7226766543160583 -1 0.9824172268837795 1 1:125.40515 2:28.68177 3:37.25015 4:92.98848 
-1 -0.8029775179469264 -0.7218961362502754 -1 0.9824224204292549 1 1:28.96327 2:35.49771 3:30.10383 4:87.97281 
-1 -0.8026879617689741 -0.7222968366792688 -1 0.9831094655858758 1 1:40.34864 2:49.45383 3:37.90092 4:91.14866 
-1 -0.8033056475363133 -0.7226514101728545 -1 0.9824120867643265 1 1:33.50979 2:32.4865 3:214.82825 4:103.22942 
-1 -0.8033056475363133 -0.7226743618537361 -1 0.9825543031388971 1 1:178.39474 2:49.33497 3:76.81235 4:39.42972 
-1 -0.8031855255494481 -0.7222903052845255 -1 0.9824118660747054 1 1:43.79894 2:47.1305 3:34.75593 4:85.33963 
-1 -0.8032236787100806 -0.7226733353920368 -1 0.9830681090666877 1 1:55.21976 2:28.16408 3:28.547 4:269.47325 
-1 -0.8031043220017301 -0.7226754441469037 -1 0.9831219043083326 1 1:33.37145 2:34.75593 3:120.65783 4:141.40943 
-1 -0.8033060846925574 -0.7218408679560904 -1 0.9824224204291108 1 1:62.64768 2:43.79894 3:27.47948 4:39.60369 
-1 -0.8029782739652112 -0.7228308139999431 -1 0.9831341691890081 1 1:27.37433 2:41.15245 3:134.07438 4:100.97715 
-1 -0.8032236787100806 -0.7228066758765257 -1 0.9824122379769048 1 1:28.96327 2:46.57679 3:40.92048 4:63.98286 
-1 -0.8029730219782196 -0.7228066758676064 -1 0.983134174483705 1 1:192.40401 2:29.11048 3:48.32688 4:27.17072 
-1 -0.8033118471804161 -0.7226727595696207 -1 0.9831086202842202 1 1:35.90795 2:47.1305 3:44.31517 4:39.60369 
-1 -0.803133244521844 -0.7222970005396679 -1 0.9825003294241911 1 1:74.11244 2:66.9334 3:28.68177 4:27.47948 
-1 -0.8029535369509646 -0.7221176543762367 -1 0.9823951842585484 1 1:60.23974 2:209.01235 3:42.71468 4:52.67228 
-1 -0.8031277142472135 -0.7227369576921039 -1 0.9824326210894929 1 1:35.49771 2:333.22065 3:28.68177 4:58.93316 
-1 -0.8033059227124595 -0.7226743618537361 -1 0.9831094390023682 1 1:56.83185 2:43.1607 3:66.20878 4:47.57989 
-1 -0.8029844905175009 -0.7228066758764999 -1 0.9824120867642632 1 1:47.42747 2:75.49495 3:33.50979 4:50.91904 
-1 -0.8097268645080079 -0.7225765907243897 -1 1 1 1:33.7969 2:27.17072 3:27.17072 4:79.55841 
-1 -0.8031332445211439 -0.7226743618537361 -1 0.9824209375681707 1 1:33.65155 2:87.05148 3:26.51946 4:32.37052 
-1 -0.8032235612232457 -0.7226733291998023 -1 0.9830681084614736 1 1:37.76561 2:42.57161 3:40.15449 4:118.2868 
-1 -0.8031718301581874 -0.7228393049839541 -1 0.9824326210895256 1 1:68.90462 2:97.45441 3:33.65155 4:51.15058 
-1 -0.8033060846926753 -0.722675798936488 -1 0.9831265099012918 1 1:75.71008 2:171.52702 3:29.41924 4:29.41924 
-1 -0.8031041164454918 -0.7223193456527888 -1 0.9824230784023638 1 1:80.44194 2:57.99226 3:43.1607 4:36.43378 
-1 -0.8031718301581874 -0.7228308140003001 -1 0.9824226512504309 1 1:49.46308 2:34.75593 3:215.75338 4:69.40388 
-1 -0.8032236787100806 -0.7223096905235171 -1 0.9831341692166335 1 1:312.74095 2:29.7493 3:179.98268 4:64.74104 
-1 -0.8029006841249157 -0.7220513327359158 -1 0.9823951842576043 1 1:76.98656 2:30.29147 3:65.25972 4:250.52349 
-1 -0.8031257592221607 -0.722671238501598 -1 0.9825742521213447 1 1:30.69037 2:34.41813 3:40.15449 4:28.82045 
-1 -0.8029630191615076 -0.7246094247252066 -1 0.9831094412849485 1 1:34.09912 2:201.26231 3:35.90795 4:32.72574 
-1 -0.8029630191615076 -0.7225650382093599 -1 0.9831265099012918 1 1:68.74225 2:31.22895 3:73.70418 4:27.17072 
-1 -0.8032235614115639 -0.72256546686802 -1 0.9823980777648842 1 1:50.91904 2:33.50979 3:70.64672 4:45.78225 
-1 -0.8031857195204681 -0.7220364339253306 -1 0.9831219044502022 1 1:29.11048 2:53.39334 3:30.69037 4:159.25346 
-1 -0.8026973125936462 -0.7225145978084027 -1 0.982432621110249 1 1:28.68177 2:39.26015 3:77.66707 4:39.60369 
-1 -0.8030625827149096 -0.7226766543160563 -1 0.9823980777472032 1 1:28.82045 2:151.37432 3:89.72481 4:43.63432 
-1 -0.8028564137571601 -0.7221179317420645 -1 0.9824224429758881 1 1:70.64672 2:113.4447 3:33.50979 4:38.47128 
-1 -0.8031040687810919 -0.7221176106004642 -1 0.9831093876185336 1 1:46.16503 2:69.74737 3:29.26237 4:30.48676 
-1 -0.8031331122489567 -0.7222894341281989 -1 0.9825298380470178 1 1:56.26564 2:98.66997 3:64.04306 4:47.33029 
-1 -0.803127714247057 -0.7226767689668432 -1 0.9825298380468312 1 1:53.03892 2:43.47317 3:32.4865 4:38.77577 
-1 -0.8025135891888784 -0.7225144179999006 -1 0.983121904245026 1 1:44.1392 2:80.11418 3:37.37535 4:42.29323 
-0.9838968403747013 -0.792269882636474 -0.6949485730064759 -0.9680385297079623 0.945357285274494 1 1:44.31517 2:37.3507 3:30.69037 4:35.30309 
-1 -0.8162074589913753 -0.7227125635938534 -1 0.9823574975475315 1 1:27.69697 2:41.76513 3:37.6308 4:37.37535 
-1 -0.8028177043750344 -0.7228393049839541 -1 0.9824209375709656 1 1:95.37397 2:142.51865 3:34.41813 4:33.23637 
-1 -0.8029643943292724 -0.7222970005396679 -1 0.9824131208015378 1 1:101.34324 2:100.1897 3:119.44011 4:28.547 
-1 -0.8031752098773046 -0.7222863824777284 -1 0.9825973962799532 1 1:31.22895 2:50.32995 3:192.40644 4:45.78225 
-1 -0.8074469260657731 -0.7241447409765038 -1 0.9839825868524887 1 1:34.75593 2:30.90303 3:43.26425 4:39.26015 
-1 -0.9103545178288681 -0.7222332528720683 -1 0.9832087890950191 1 1:30.69037 2:40.75468 3:41.414 4:33.65155 
-1 -0.8030407935524524 -0.7224444427003999 -1 0.982827431153551 1 1:29.92328 2:29.41924 3:86.98839 4:34.25641 
-1 -0.8031719508415675 -0.7226758176552412 -1 0.9847981627545422 1 1:42.43115 2:41.89378 3:30.48676 4:47.73505 
-0.9966397851899854 -0.7825622144490025 -0.7036973262580303 -0.980693103411139 0.9574860535282887 1 1:33.65155 2:74.11244 3:72.01974 4:31.35899 
-1 -0.8031737021555436 -0.7222863824777284 -1 0.9831139897464802 1 1:55.61908 2:49.85457 3:28.04295 4:509.72937 
-1 -0.8113294216845418 -0.7227643038984224 -1 0.983122094892168 1 1:46.56563 2:51.44054 3:30.10383 4:34.93258 
-1 -0.8033057153384315 -0.7223028863740437 -1 0.9824707988800496 1 1:40.54859 2:64.07201 3:28.41593 4:31.9287 
-1 -0.8030111781165551 -0.7226758082959575 -1 0.9825298380470178 1 1:127.88826 2:190.29691 3:29.92328 4:160.09323 
-1 -0.8031277139417574 -0.7228066002407221 -1 0.9830982716266043 1 1:42.02463 2:32.25684 3:184.80239 4:65.25972 
-1 -0.803133244521844 -0.7223164752785909 -1 0.982412085838717 1 1:28.41593 2:57.42704 3:98.3052 4:36.82845 
-1 -0.8218376773613812 -0.7222894358838535 -1 0.9843541955991841 1 1:30.69037 2:29.7493 3:49.27381 4:32.8492 
-1 -0.8028783523722409 -0.7228308139992059 -1 0.9824172268837766 1 1:40.54859 2:104.63832 3:65.77449 4:39.96581 
-1 -0.8026970346756016 -0.7223193334816893 -1 0.9832862537279982 1 1:34.75593 2:39.60369 3:28.96327 4:66.79313 
-1 -0.8033056475363133 -0.7221179317420645 -1 0.9824209375709656 1 1:84.90585 2:41.414 3:75.53122 4:29.11048 
-1 -0.8031361118927433 -0.7223023473893174 -1 0.9830673168353802 1 1:29.58142 2:49.33497 3:41.15245 4:38.47128 
-1 -0.8033060846926753 -0.7221076819702175 -1 0.9824158113171122 1 1:29.11048 2:284.16082 3:90.59393 4:108.02354 
-1 -0.8031752098773046 -0.7228308139992083 -1 0.9824507768386398 1 1:195.76474 2:28.82045 3:32.37052 4:33.50979 
-1 -0.802900681816953 -0.7218636735899047 -1 0.9824266068885908 1 1:50.46193 2:28.82045 3:43.47317 4:34.25641 
-1 -0.8031367403900349 -0.7222970113984394 -1 0.9825618152133803 1 1:27.80954 2:160.02426 3:30.29147 4:71.61083 
-1 -0.8033056321061881 -0.7226733353920435 -1 0.982395808237399 1 1:34.93258 2:92.60875 3:37.12726 4:29.26237 
-1 -0.8032236787100806 -0.7228066002355271 -1 0.9821826901122291 1 1:68.26663 2:336.06297 3:26.88069 4:44.72649 
-1 -0.8031737021555436 -0.7223307427551174 -1 0.9824169251372713 1 1:90.46464 2:42.86049 3:207.50224 4:50.69536 
-1 -0.8031740795028819 -0.7226745809271309 -1 0.9824225017306331 1 1:27.58699 2:37.08364 3:31.12558 4:28.82045 
-1 -0.803127713966049 -0.7224636773378671 -1 0.9825250820871774 1 1:43.63432 2:28.68177 3:31.12558 4:41.15245 
-1 -0.8032283597569082 -0.7223021337248411 -1 0.9824172268837795 1 1:88.17662 2:51.14869 3:43.26425 4:45.89085 
-1 -0.8031332445211439 -0.7226797338259204 -1 0.9825239058648411 1 1:94.44717 2:201.55723 3:35.49771 4:34.09912 
-1 -0.8031367403784937 -0.7226733383915758 -1 1 1 1:28.82045 2:30.10383 3:39.96581 4:61.55336 
-1 -0.8031857193018849 -0.7226797338259282 -1 0.9823993830446685 1 1:91.07237 2:49.44486 3:42.02463 4:29.26237 
-1 -0.8031041164454918 -0.7226873829904291 -1 0.9824507768386398 1 1:155.06637 2:33.7969 3:43.63432 4:99.61884 
-1 -0.8033063790710177 -0.7218961340249106 -1 0.9831196528675882 1 1:51.15058 2:28.16408 3:36.88803 4:28.41593 
-1 -0.8031739060271231 -0.7226733291740987 -1 0.9831341691540462 1 1:90.27297 2:29.92328 3:33.65155 4:70.55396 
-1 -0.8031367403900349 -0.7218401242426744 -1 0.9824226512504309 1 1:58.15318 2:87.57226 3:61.3807 4:90.16618 
-1 -0.8031750765384345 -0.7337000494638932 -1 0.9831094412849485 1 1:31.12558 2:33.94602 3:75.69292 4:51.38463 
-1 -0.8031041166436277 -0.7226758082959587 -1 0.9826110189290806 1 1:38.93337 2:35.11485 3:88.33905 4:118.08205 
-1 -0.802977517841284 -0.7226733532761604 -1 0.9831341692166335 1 1:94.63759 2:0.005507821 3:2.4945874 4:49.27381 
-1 -0.8029844905175526 -0.7228066002470246 -1 0.9831094028810724 1 1:30.10383 2:30.29147 3:136.05235 4:29.92328 
-1 -0.8032236787100806 -0.7223096905235171 -1 0.9831139897464802 1 1:61.181 2:35.30309 3:51.73957 4:132.71122 
-1 -0.803305922717609 -0.7221196770971272 -1 0.982423078402355 1 1:39.26015 2:39.26015 3:149.53196 4:30.29147 
-1 -0.8031041222488321 -0.7221176543762367 -1 0.9831219044497093 1 1:27.37433 2:27.69697 3:51.15058 4:75.10704 
-1 -0.803062166354501 -0.7222970111675119 -1 0.9824172268837801 1 1:42.40807 2:28.82045 3:33.10439 4:119.2706 
-1 -0.8030111781165551 -0.7224640954536492 -1 0.9824131208015378 1 1:54.80149 2:126.30101 3:33.94602 4:73.43793 
-1 -0.8030755858072628 -0.7226766492881156 -1 0.9823952187845436 1 1:32.03601 2:55.50813 3:28.28834 4:233.01171 
-1 -0.80310432200173 -0.7222877553570517 -1 0.9831141803283021 1 1:33.94602 2:104.31291 3:114.54142 4:331.3487 
-1 -0.8032235408618071 -0.722676631081606 -1 0.9937903084348292 1 1:36.12461 2:32.4865 3:27.92482 4:70.83407 
-1 -0.8030755858072628 -0.7228066758676064 -1 0.9824125212822388 1 1:141.94359 2:78.74445 3:135.34713 4:30.10383 
-1 -0.8031739060556682 -0.7228308139999431 -1 0.9824120867643265 1 1:53.57559 2:39.60369 3:84.48334 4:48.90732 
-1 -0.8031045426774739 -0.7247752577701881 -1 0.9824013705636387 1 1:38.47128 2:27.27144 3:40.80707 4:30.86433 
-1 -0.8033881990315938 -0.7226733291998021 -1 0.9846226991751853 1 1:26.43326 2:46.2965 3:71.26815 4:32.72574 
-1 -0.8030755858072628 -0.722675798936488 -1 0.9821826901583292 1 1:49.08862 2:52.36721 3:169.5213 4:1.9409741 
-1 -0.8031750765384345 -0.7226733532761604 -1 0.9830982716266043 1 1:95.87768 2:29.26237 3:38.62179 4:115.74813 
-1 -0.8031367403900349 -0.7226703331940014 -1 0.9824230784022649 1 1:34.93258 2:723.84935 3:37.3507 4:29.58142 
-1 -0.8175385893089879 -0.7325351453905316 -1 -1 1 1:38.62179 2:67.66273 3:39.78231 4:42.43115 
-1 -0.8178248365359848 -0.7333286268870141 -1 -1 1 1:28.82045 2:28.68177 3:83.02828 4:37.92526 
-1 -0.8178433905035791 -0.7325345420459591 -1 -1 1 1:76.94171 2:83.27721 3:67.66273 4:51.38463 
-1 -0.8178795049684278 -0.7334048930718213 -1 -1 1 1:29.26237 2:127.76074 3:33.23637 4:60.58293 
-1 -0.8174395185733795 -0.7333281230611991 -1 -1 1 1:39.60369 2:34.58455 3:40.54859 4:26.88069 
-1 -0.8178433902747597 -0.7325345420462452 -1 -1 1 1:58.93316 2:135.31529 3:38.62179 4:31.12558 
-1 -0.8177742316303295 -0.7333932226884681 -1 -1 1 1:34.58455 2:28.96327 3:106.53661 4:615.3108 
-1 -0.821628034542105 -0.7333665975581665 -1 -1 1 1:34.09912 2:39.60369 3:39.42972 4:29.41924 
-1 -0.8175385882987245 -0.733404959039877 -1 -1 1 1:28.82045 2:544.21132 3:34.93258 4:30.48676 
-1 -0.8174402295748416 -0.7325345420287643 -1 -1 1 1:94.26098 2:35.69916 3:28.16408 4:36.77155 
-1 -0.817210364226382 -0.7325351456173551 -1 -1 1 1:28.82045 2:29.58142 3:28.96327 4:179.87206 
-1 -1 -0.7325082767836586 -1 -1 1 1:34.09912 2:40.54859 3:33.10439 4:29.41924 
-1 -0.8174401075432316 -0.733182093911243 -1 -1 1 1:41.89261 2:102.8748 3:37.08364 4:84.49834 
-1 -0.8172078308014732 -0.7325351456177058 -1 -1 1 1:53.03892 2:121.18237 3:50.73147 4:43.79894 
-1 -0.8175385869835968 -0.7334268725694059 -1 -1 1 1:51.62721 2:39.96581 3:29.7493 4:52.04824 
-1 -0.8178247566591111 -0.733393286610156 -1 -1 1 1:33.65155 2:48.55579 3:29.92328 4:47.42747 
-1 -0.8174401075432318 -0.7325351453904202 -1 -1 1 1:475.35771 2:68.4233 3:28.82045 4:32.42652 
-1 -0.8178433916819687 -0.7333646004654641 -1 -1 1 1:42.14538 2:104.82094 3:54.95895 4:30.10383 
-1 -0.8177746577273586 -0.7333846194198171 -1 -1 1 1:43.63432 2:41.61004 3:55.84965 4:123.02886 
-1 -0.8172103642263764 -0.7334268848705903 -1 -1 1 1:60.45485 2:52.04824 3:34.93258 4:140.90017 
-1 -0.8177742380601245 -0.7329870870942233 -1 -1 1 1:46.98577 2:73.82638 3:82.78333 4:47.07079 
-1 -0.8174400686507025 -0.7329870870942233 -1 -1 1 1:28.82045 2:30.48676 3:28.96327 4:371.6057 
-1 -0.8175382445014306 -0.7333286299169596 -1 -1 1 1:70.64672 2:29.11048 3:42.02463 4:30.90303 
-1 -0.8172078307639877 -0.7333184423291534 -1 -1 1 1:37.3507 2:39.60369 3:54.74866 4:29.41924 
-1 -0.8178248508812958 -0.7334046569839524 -1 -1 1 1:41.18694 2:77.15387 3:119.55201 4:37.08364 
-1 -0.8174461551775246 -0.7333870184658653 -1 -1 1 1:43.1607 2:62.71799 3:33.23637 4:28.96327 
-1 -0.8175385881387729 -0.7334046418559809 -1 -1 1 1:30.48676 2:114.54142 3:44.86874 4:86.71501 
-1 -0.8178347710931393 -0.7334046418559808 -1 -1 1 1:328.34238 2:32.73527 3:119.44011 4:57.78385 
-1 -0.8175146790108404 -0.7329512978879564 -1 -1 1 1:68.95062 2:32.97538 3:42.29323 4:79.56461 
-1 -0.817843394404197 -0.7334044953544401 -1 -1 1 1:68.90462 2:121.20351 3:68.11177 4:249.2304 
-1 -0.8174393246597036 -0.7325345420462452 -1 -1 1 1:132.56267 2:64.85304 3:34.21906 4:29.7493 
-1 -0.8172093872417896 -0.7325345420462452 -1 -1 1 1:693.35884 2:80.44194 3:188.3503 4:177.93862 
-1 -0.817843644501604 -0.7334268133272381 -1 -1 1 1:32.4865 2:41.61004 3:30.29147 4:43.57582 
-1 -0.8175382680623585 -1 -1 -1 1 1:29.26237 2:50.17441 3:28.82045 4:34.41813 
-1 -0.8179486997291708 -0.7335949729746315 -1 -1 1 1:33.7969 2:28.96327 3:46.11274 4:30.29147 
-1 -0.8177297370001884 -0.7333870184608088 -1 -1 1 1:62.84066 2:98.58141 3:30.10383 4:42.57161 
-1 -0.8178248366084734 -0.7326531101930808 -1 -1 1 1:28.82045 2:73.31411 3:52.69717 4:38.62179 
-1 -0.8223424065711191 -0.7325351456177035 -1 -1 1 1:28.96327 2:45.90796 3:67.07515 4:34.09912 
-1 -0.8172078300555724 -0.733426143795723 -1 -1 1 1:135.05989 2:29.11048 3:84.3155 4:86.47755 
-1 -0.8175381543109618 -0.7339982464560438 -1 -1 1 1:28.82045 2:39.09476 3:138.9608 4:29.11048 
-1 -0.8175385893090409 -0.7333941751285 -1 -1 1 1:84.83277 2:34.75593 3:45.90796 4:106.55436 
-1 -0.8494597877156338 -0.7334050181812013 -1 -1 1 1:86.95599 2:27.80954 3:43.63432 4:35.90795 
-1 -0.8172094364169034 -0.7325345420462795 -1 -1 1 1:64.29 2:51.44054 3:29.7493 4:30.90303 
-1 -0.8178434304887356 -0.7325351453904202 -1 -1 1 1:152.89029 2:201.42889 3:82.33744 4:51.29446 
-1 -0.8175385882987245 -0.7325351481732387 -1 -1 1 1:35.30309 2:47.27771 3:106.93674 4:68.07738 
-1 -0.8174401166124325 -0.7333941777962361 -1 -1 1 1:28.547 2:209.61953 3:39.09476 4:59.13753 
-1 -0.8172078301778615 -0.7341557009465154 -1 -1 1 1:33.50979 2:49.6566 3:36.12461 4:58.15318 
-1 -0.8178433944046479 -0.733387018460809 -1 -1 1 1:42.40807 2:126.01286 3:31.12558 4:30.29147 
-1 -0.8263455861059459 -0.7329870870942233 -1 -1 1 1:72.6507 2:35.49771 3:43.63432 4:48.72976 
-1 -0.8174400689873196 -0.7333935689460162 -1 -1 1 1:32.4865 2:34.41813 3:112.88632 4:34.25641 
-1 -0.8175385893089879 -0.7333645985025607 -1 -1 1 1:62.2712 2:48.38527 3:36.58412 4:79.51375 
-1 -0.8174401075432318 -0.7333845916280006 -1 -1 1 1:27.92482 2:29.58142 3:29.26237 4:159.25736 
-1 -0.8172113247989112 -0.7333842462935112 -1 -1 1 1:41.64903 2:36.58412 3:47.1305 4:48.16615 
-1 -0.8172084273924939 -0.7329870870942234 -1 -1 1 1:28.68177 2:137.56795 3:127.83231 4:67.50963 
-1 -0.8172074314667772 -0.7325351456177058 -1 -1 1 1:46.11274 2:123.92649 3:438.29252 4:85.12129 
-1 -0.8172104136569693 -0.7325348659573381 -1 -1 1 1:29.58142 2:70.2797 3:54.95895 4:71.39833 
-1 -0.8174402492142774 -0.7325351481732385 -1 -1 1 1:31.86304 2:29.11048 3:37.76561 4:254.80312 
-1 -0.8169888394504303 -0.732995985379944 -1 -1 1 1:32.73527 2:27.58699 3:62.2712 4:40.96733 
-1 -0.8174400928002727 -0.7333645629046019 -1 -1 1 1:117.82329 2:205.63632 3:90.64782 4:80.95323 
-1 -0.8174401166124329 -0.7334413349560014 -1 -1 1 1:107.77145 2:81.21626 3:56.83185 4:41.414 
-1 -0.8175381543109614 -0.7334046418559808 -1 -1 1 1:46.70341 2:274.55361 3:389.82166 4:38.62179 
-1 -0.8178793730253049 -0.7344076289034416 -1 -1 1 1:34.25641 2:39.78231 3:50.2647 4:62.08749 
-1 -0.8174397018263642 -0.7333642255717187 -1 -1 1 1:44.49528 2:35.69916 3:45.26137 4:41.414 
-1 -0.8178248510645967 -0.7331820939110303 -1 -1 1 1:83.86947 2:51.87683 3:32.42652 4:36.58412 
-1 -0.8177746577273509 -0.733182093911238 -1 -1 1 1:69.06898 2:66.1299 3:30.48676 4:30.69037 
-1 -0.8172103642175215 -0.7325351481653151 -1 -1 1 1:42.57161 2:60.39595 3:41.18694 4:92.02421 
-1 -0.8177742380612154 -0.7333941751285 -1 -1 1 1:29.7493 2:30.69037 3:39.42972 4:61.72866 
-1 -0.817538244507437 -0.733404959039877 -1 -1 1 1:30.10383 2:99.19217 3:29.41924 4:52.69717 
-1 -0.8177742380608179 -0.733364598286527 -1 -1 1 1:138.00738 2:47.33029 3:54.14416 4:28.68177 
-1 -0.8177742380601245 -0.7325351456177058 -1 -1 1 1:42.14538 2:142.91966 3:30.29147 4:74.75069 
-1 -0.817843394404197 -0.7325357835253661 -1 -1 1 1:58.34282 2:37.63298 3:38.93337 4:44.31517 
-1 -0.817843394404197 -0.7333941777962361 -1 -1 1 1:30.29147 2:61.3807 3:33.8028 4:28.28834 
-1 -0.8177742380601245 -0.7333917752869258 -1 -1 1 1:55.61908 2:55.61908 3:33.7969 4:94.25864 
-1 -0.8175380734859375 -0.7325345325678085 -1 -1 1 1:34.41813 2:49.6566 3:57.60393 4:34.41813 
-1 -0.8178797438302765 -0.7329906920613538 -1 -1 1 1:55.84965 2:80.09003 3:49.85457 4:47.87727 
-1 -0.8172084273924939 -0.7334268735865783 -1 -1 1 1:38.62179 2:94.19098 3:77.32303 4:46.34124 
-1 -0.8178793702972462 -0.7333870184608088 -1 -1 1 1:34.41813 2:45.06254 3:29.92328 4:303.96006 
-1 -0.817879648790464 -0.7331819451724946 -1 -1 1 1:51.29446 2:69.64828 3:50.05719 4:43.47317 
-1 -0.8190139812732901 -0.7333870184658566 -1 -1 1 1:30.10383 2:107.13956 3:29.58142 4:39.42972 
-1 -0.817879370136553 -0.7333645629046019 -1 -1 1 1:29.26237 2:46.98577 3:162.38699 4:207.53919 
-1 -0.8178347710931393 -0.7333286299169598 -1 -1 1 1:88.59165 2:128.51637 3:74.75069 4:50.69536 
-1 -0.8174400721950326 -0.7334046569839523 -1 -1 1 1:49.27381 2:64.04306 3:69.17885 4:34.25641 
-1 -0.8174401692793078 -0.7333870184606134 -1 -1 1 1:121.1143 2:28.82045 3:27.80954 4:27.80954 
-1 -0.8172078298717441 -0.7333184423708078 -1 -1 1 1:84.49834 2:32.4865 3:57.96689 4:37.11884 
-1 -0.8174401166124329 -0.7333184422404651 -1 -1 1 1:142.6788 2:78.55083 3:97.27959 4:38.03902 
-1 -0.817538244507437 -0.7332012931252855 -1 -1 1 1:140.79013 2:73.77606 3:48.38527 4:30.48676 
-1 -0.8178248365359846 -0.7332012922247397 -1 -1 1 1:29.41924 2:94.44717 3:57.78385 4:33.10439 
-1 -0.8175385893089848 -0.7325346498073918 -1 -1 1 1:84.07153 2:45.29698 3:32.97538 4:59.51763 
-1 -0.817824850650532 -0.7329870870942233 -1 -1 1 1:30.48676 2:51.38463 3:139.36613 4:29.58142 
-1 -0.8174401692795256 -0.7334050157654357 -1 -1 1 1:58.73268 2:64.92801 3:32.97538 4:132.16554 
-1 -0.8178433944041977 -0.7325351456173551 -1 -1 1 1:29.58142 2:129.10367 3:47.33029 4:29.26237 
-1 -0.817538244507437 -0.7325351456173526 -1 -1 1 1:111.15183 2:30.10383 3:65.09276 4:38.62179 
-1 -0.8244070344275674 -0.7334046569831491 -1 -1 1 1:33.94602 2:28.68177 3:28.68177 4:77.32303 
-1 -0.8178248508812958 -0.7325351453904201 -1 -1 1 1:224.47133 2:33.50979 3:57.42704 4:118.70195 
-1 -0.8196087556885115 -0.7379725515245947 -1 -1 1 1:37.90092 2:30.10383 3:52.86652 4:29.92328 
-1 -0.8178793730252691 -0.7333845916226213 -1 -1 1 1:34.41813 2:56.57669 3:110.15687 4:29.58142 
-1 -0.8175380632851265 -0.7334046569839534 -1 -1 1 1:61.2106 2:44.19145 3:80.31967 4:57.92654 
-1 -0.8172078300555724 -0.7334046569839578 -1 -1 1 1:38.47128 2:46.2965 3:69.74737 4:132.16554 
-1 -0.8178248362639562 -0.7325345325482201 -1 -1 1 1:48.55579 2:65.44846 3:65.20974 4:45.67522 
-1 -0.8175385901573037 -0.7325347977496406 -1 -1 1 1:33.7969 2:34.09912 3:29.92328 4:68.4233 
-1 -0.8174400550926501 -0.735439058671751 -1 -1 1 1:29.92328 2:29.7493 3:28.96327 4:43.00912 
-1 -0.8174400977144238 -0.7329870870942241 -1 -1 1 1:30.29147 2:39.78231 3:39.78231 4:80.28009 
-1 -0.8177742985166461 -0.7334046569839578 -1 -1 1 1:52.20639 2:33.65155 3:99.57141 4:48.90732 
-1 -0.8178377295564078 -0.7331447374996672 -1 -1 1 1:68.4233 2:29.41924 3:39.96581 4:84.17028 
-1 -0.8175382445039703 -0.7334048930718213 -1 -1 1 1:142.45923 2:37.12726 3:44.67973 4:43.31534 
-1 -0.8177742316303295 -0.7334048930718313 -1 -1 1 1:130.15883 2:35.30309 3:159.25346 4:63.64672 
-1 -0.8175385892910374 -0.7334261437893848 -1 -1 1 1:34.09912 2:56.5846 3:33.06534 4:64.51367 
-1 -0.8174400550673964 -0.733404959039877 -1 -1 1 1:63.64672 2:52.53077 3:78.01901 4:30.29147 
-1 -0.8174402492142776 -0.733404959039877 -1 -1 1 1:62.84066 2:29.41924 3:42.57161 4:104.10135 
-1 -0.8177742316303295 -0.7329885482459595 -1 -1 1 1:37.08364 2:63.32237 3:46.2965 4:110.55625 
-1 -0.8181458820702046 -0.73340456788426 -1 -1 1 1:31.86304 2:100.26353 3:36.12461 4:90.59393 
-1 -0.8177742380608179 -0.733404959039877 -1 -1 1 1:38.93337 2:205.74784 3:62.08749 4:51.87683 
-1 -0.817824850650532 -0.7334046569839578 -1 -1 1 1:45.39714 2:141.50979 3:65.45147 4:48.21805 
-1 -0.8175385901582164 -0.7326537120953173 -1 -1 1 1:37.37535 2:101.04485 3:60.55432 4:88.17662 
-1 -0.8175381543109614 -0.7326531101930808 -1 -1 1 1:724.19483 2:39.96581 3:34.58455 4:37.76561 
-1 -0.8178795049684278 -0.7333645985025607 -1 -1 1 1:109.95976 2:599.59837 3:27.69697 4:36.58412 
-1 -0.8174400977144238 -0.7333846233355534 -1 -1 1 1:59.3245 2:257.20399 3:37.08364 4:29.92328 
-1 -0.838394652688029 -0.755322785726559 -1 -1 1 1:36.82845 2:33.10439 3:41.18694 4:35.69916 
-1 -0.8172104136569693 -0.7333931494941586 -1 -1 1 1:50.47734 2:27.92482 3:28.68177 4:185.18597 
-1 -0.8167578000422413 -0.7325874494164331 -1 -1 1 1:35.69916 2:29.58142 3:66.1299 4:39.42972 
-1 -0.8178433891400495 -0.7333286259287929 -1 -1 1 1:45.26137 2:43.79894 3:33.94602 4:49.08862 
-1 -0.8172078368731002 -0.732535145617337 -1 -1 1 1:41.39167 2:32.13649 3:50.2647 4:74.01315 
-1 -0.8177297370001884 -0.73340456788426 -1 -1 1 1:34.25641 2:38.47128 3:62.4171 4:76.72589 
-1 -0.8178248508812958 -0.7334044953544401 -1 -1 1 1:76.51326 2:29.26237 3:96.02631 4:58.93316 
-1 -0.8172094360658573 -0.733404959039877 -1 -1 1 1:62.64768 2:40.15449 3:48.05402 4:59.6353 
-1 -0.8178793702972462 -0.7329885482459595 -1 -1 1 1:167.20687 2:38.77577 3:61.72866 4:34.41813 
-1 -0.8173827131537176 -0.7333745364853409 -1 -1 1 1:127.50369 2:29.41924 3:36.34977 4:29.11048 
-1 -0.8181458820702044 -0.7333937448434216 -1 -1 1 1:61.90667 2:30.90303 3:34.41813 4:28.547 
-1 -0.817879387065533 -0.7334046569839578 -1 -1 1 1:55.50813 2:33.7969 3:176.84724 4:28.04295 
-1 -0.8178433943680046 -0.7325345420134532 -1 -1 1 1:85.34691 2:33.10439 3:30.10383 4:39.09476 
-1 -0.8174400550585751 -0.7334048930638961 -1 -1 1 1:41.18694 2:53.76139 3:39.26015 4:84.85855 
-1 -0.8214916344547077 -0.7334049851925408 -1 -1 1 1:44.49528 2:37.08364 3:37.92526 4:31.35899 
-1 -0.8175385882987389 -0.7334049590511751 -1 -1 1 1:79.71129 2:56.42391 3:57.92654 4:44.1392 
-1 -0.8178433904210092 -0.7340153332759041 -1 -1 1 1:64.07201 2:74.54414 3:36.12461 4:29.41924 
-1 -0.817843394404197 -0.7331820939108843 -1 -1 1 1:87.18083 2:50.2647 3:71.44666 4:48.16615 
-1 -0.8172078298717428 -0.7333845916226213 -1 -1 1 1:33.06534 2:30.10383 3:41.89261 4:243.54458 
-1 -0.8177742380608179 -0.7325345420462452 -1 -1 1 1:54.34145 2:35.90795 3:58.34282 4:29.58142 
-1 -0.8288340753405361 -0.7331820939098271 -1 -1 1 1:30.29147 2:36.12461 3:51.73957 4:50.2647 
-1 -0.8181458820702047 -0.732535145617337 -1 -1 1 1:139.13531 2:31.12558 3:67.21842 4:43.47317 
-1 -0.8177742316303295 -0.7325351481732492 -1 -1 1 1:50.46193 2:87.95727 3:78.18953 4:44.31517 
-1 -0.8172074312146459 -0.7329870871050301 -1 -1 1 1:28.68177 2:32.4865 3:202.63007 4:74.01315 
-1 -0.8174548176825338 -0.7329885482459596 -1 -1 1 1:28.04295 2:64.07201 3:81.62235 4:50.69536 
-1 -0.8172104136569693 -0.7333870184607935 -1 -1 1 1:57.09401 2:30.69037 3:81.27626 4:113.79588 
-1 -0.8175390720304923 -0.7329901568560354 -1 -1 1 1:70.0999 2:68.07738 3:51.15058 4:41.18694 
-1 -0.8174402492142776 -0.7334049590398771 -1 -1 1 1:61.43462 2:36.34977 3:42.40807 4:269.29616 
-1 -0.8182694693799581 -0.7334050181800612 -1 -1 1 1:34.75593 2:28.16408 3:47.59889 4:47.33029 
-1 -0.8186269475472759 -0.7376206911975292 -1 -1 1 1:30.29147 2:29.26237 3:32.72574 4:30.90303 
-1 -0.8172106662453066 -0.732535145620349 -1 -1 1 1:75.10704 2:50.2647 3:37.50292 4:33.37145 
-1 -0.8174356097146804 -0.7326497675992737 -1 -1 1 1:34.09912 2:30.69037 3:88.48202 4:87.37543 
-1 -0.8175561322324393 -0.7333933582438387 -1 -1 1 1:230.91901 2:141.1151 3:90.45943 4:57.78385 
-1 -0.8181458820702047 -0.7332012931252855 -1 -1 1 1:64.29 2:38.47128 3:282.50532 4:52.04824 
-1 -0.8178748824555991 -0.7333246135777799 -1 -1 1 1:34.75593 2:28.82045 3:83.02828 4:83.53026 
-1 -0.8175382445039703 -0.7329901568560347 -1 -1 1 1:948.93067 2:116.45606 3:93.29305 4:50.46193 
-1 -0.8172074314667772 -0.7325345420727287 -1 -1 1 1:44.31517 2:126.94659 3:72.1749 4:44.49528 
-1 -0.8175385881167773 -0.732535145617337 -1 -1 1 1:34.09912 2:68.50634 3:28.68177 4:3939.5622 
-1 -0.8178248508812926 -0.7325345420462426 -1 -1 1 1:78.79617 2:49.85457 3:28.04295 4:67.26145 
-1 -0.8178793702972458 -0.7334046420142856 -1 -1 1 1:45.26137 2:42.86049 3:33.23637 4:61.04298 
-1 -0.81757521797577 -0.7334260788337897 -1 -1 1 1:33.7969 2:38.77577 3:50.69536 4:38.77577 
-1 -0.8177742316303295 -0.7334050157654357 -1 -1 1 1:58.34282 2:54.95895 3:72.64974 4:49.6566 
-1 -0.8178433944041977 -0.7325346498073935 -1 -1 1 1:54.95895 2:75.29968 3:83.27792 4:106.53661 
-1 -0.8178795040385414 -0.7333286299169555 -1 -1 1 1:30.10383 2:112.95935 3:93.07533 4:35.49771 
-1 -0.8178248362639562 -0.732535145617337 -1 -1 1 1:171.83032 2:30.69037 3:475.77328 4:34.09912 
-1 -0.8178433916819687 -0.7334050157654391 -1 -1 1 1:28.41593 2:34.41813 3:49.81954 4:104.10135 
-1 -0.8172104136569693 -0.7333846233355534 -1 -1 1 1:173.65526 2:29.58142 3:48.05402 4:87.57226 
-1 -0.817538589308482 -0.7333935689455621 -1 -1 1 1:120.81722 2:36.82845 3:41.64903 4:31.86304 
-1 -0.8173827425093236 -0.7324829819820766 -1 -1 1 1:129.93921 2:31.60438 3:41.414 4:30.48676 
-0.8695890823303081 -0.6826481170130416 -0.6123097569470451 -0.8534506818958765 -0.8475859615920098 -0.833530934548752 1:29.26237 2:52.36721 3:80.00526 4:170.13556 
-0.8696225307932843 -0.6830695714008688 -0.6123142571864297 -0.8535300281283429 -0.8475892786166349 -0.8331081435123463 1:57.49298 2:35.41703 3:40.47661 4:36.43378 
-0.8695890823303077 -0.6826324645189115 -0.612293161508412 -0.8529701132991554 -0.8471762578229356 -0.833222961169801 1:56.55518 2:33.37145 3:755.12709 4:85.6984 
-0.8696032801237337 -0.6830105782208131 -0.6123147488432896 -0.8529473117909948 -0.8468927058621043 -0.8334024372694467 1:49.69608 2:44.1392 3:38.93337 4:66.1299 
-0.8692148219832264 -0.6827254544122897 -0.6122743270874527 -0.8529441217030096 -0.8472195235194174 -0.8339527108915508 1:91.56447 2:95.13557 3:28.96327 4:28.28834 
-0.8696955549426167 -0.6831310094250218 -0.6122923417191481 -0.8534206762137844 -0.8473441480627459 -0.8341121070080375 1:48.72976 2:61.3807 3:34.75593 4:28.04295 
-0.8696280095029059 -0.6830031640472773 -0.6122886006496528 -0.8534137347019888 -0.8475874300393014 -0.833713092980907 1:67.07515 2:97.47466 3:49.94461 4:163.07661 
-0.8696280095030617 -0.682969119129349 -0.612266451096397 -0.8529488978557299 -0.8475883865159599 -0.8332706429597518 1:71.81226 2:65.77449 3:156.08927 4:31.71992 
