svm_type c_svc
kernel_type rbf
gamma 0.25
nr_class 7
total_sv 1120
rho -0.558694 -0.992324 0.342178 -0.201461 0.0162097 0.875705 -0.956848 0.660525 0.973025 1.1136 1.19362 0.536325 0.998114 0.907012 1.07585 -0.091227 -0.00824529 0.397865 -0.55672 0.333382 0.79
label 1 2 3 4 5 6 7
probA -0.0151877 -0.00880592 0.0490111 -0.00779062 0.0305897 0.0112057 -0.00338735 0.0209268 -0.0451867 0.00997132 0.0234954 0.0185892 -0.0939613 0.0656912 -0.0460638 -0.130714 0.058464 -0.036995 -0.0633921 0.0597157 -0.0741879
probB -0.228255 -0.343512 -0.0133337 -0.0222525 -0.0470613 0.140701 -0.107881 0.22999 0.209538 0.200527 0.393514 0.33978 0.291027 0.334965 0.451251 0.00827741 -0.0337585 0.148551 -0.022559 0.177324 0.156461
nr_sv 170 135 121 166 167 165 196
SV
284.6414666155299 0 84.32985753207214 115.186142541918 0 0 1:2.761082 2:2.595208 3:6.501426 4:3.00633 
1342.632301660193 0 996.3087764744656 313.4604047594843 84.60330030135766 1202.399798711161 1:4.079379 2:2.619747 3:2.921087 4:2.528346 
2.487285433686448 0.08173660366660429 3.361101764442441 1.492437707118181 0.7472727568618374 2.108265565726211 1:2.327486 2:3.865281 3:10.493054 4:6.1446 
0.4456774348369156 0 1.291614234388725 1.752039915101641 0.8393673120166767 1.524786626449895 1:7.687346 2:4.376012 3:15.186616 4:2.776811 
0 2.044333718799478 6.364857936112469 2.877505754419495 0 1.592671836389603 1:4.636802 2:2.921087 3:10.782594 4:2.716325 
0.4508962387413215 0.03771020662011221 1.376085133661809 1.028180712181838 1.023843688496981 1.851268027911229 1:5.376525 2:5.871722 3:2.094168 4:16.762867 
0 21.64953910304728 55.20347545628165 31.390128680625 0 637.6755888630981 1:4.607169 2:2.451637 3:3.792571 4:3.917486 
0 0 6424.013838867516 938.8019018173188 482.9153130976458 0 1:2.251792 2:3.917486 3:2.417451 4:2.611658 
0.2538407041584066 0.3481683055656604 1.346665967222844 2.419250494507669 1.836472520126497 1.739468675380634 1:2.385546 2:2.619747 3:13.060213 4:6.066248 
0.3396593699962721 1.657833448459042 8.530904278145487 0.5778287409771917 0.9932957076953224 1.992872888680172 1:2.434239 2:2.611658 3:4.682708 4:14.108221 
0 1.803563476869394 35.74662587948532 14.64314117198256 65.96212087038789 0 1:6.050815 2:3.186003 3:3.964811 4:3.239613 
0.4873678546591796 0.3379456843492342 2.021347845918663 0.7787626430118813 1.500000398031954 1.826861118328841 1:2.355636 2:2.196742 3:3.800259 4:24.454483 
0.4415730659704246 0.007237453200029165 1.342412379806435 0.7987432594131924 1.016016672180065 1.875891456613662 1:26.480541 2:16.518666 3:3.27406 4:7.420471 
0.441623763831066 0.007800740727008315 1.34194736247187 0.7986928388540353 1.015943189410126 1.875760616813058 1:12.290465 2:4.468939 3:34.020417 4:15.81026 
1.900012614762962 0.9677629139217445 2.623730671982411 1.262427335935234 1.771814317348956 1.893657724078635 1:2.147378 2:7.84969 3:8.052247 4:5.548975 
0.2334799103282973 0.634142560445332 2.581295879136593 5.108259565048894 3.150448827924627 5.340138291104886 1:4.903275 2:11.672366 3:2.385546 4:2.565706 
0 87.43481465713143 0 0 32.65599668501199 0 1:2.128976 2:4.822609 3:2.595208 4:3.681443 
691.1984142908686 775.8769229993976 4833.755426739533 6848.568907901817 5712.890567100482 367.0439374187821 1:2.648708 2:2.275717 3:3.661029 4:2.661609 
46.42642766251483 52.57032475900545 1399.676154825652 0 222.7410237941898 0 1:2.176381 2:4.893008 3:2.571867 4:2.701961 
0.41414464188179 0 1.368754416896103 1.454166130757203 1.047777457700868 2.753443726943652 1:2.251792 2:5.588471 3:2.401233 4:13.808046 
2.704288584366511 10.01931760673277 2.746323566333228 3.131450148754857 0.6433233696442048 106.4557038263546 1:7.118605 2:7.595332 3:2.611658 4:2.46473 
0 15.57899833684403 45.25940287015464 45.3582306707393 1.600691575111184 27.11374224731595 1:2.355636 2:2.166517 3:6.222191 4:4.726315 
0 0 0 1.313890492982159 0 7.183498840529204 1:10.841445 2:3.406361 3:2.595208 4:4.188335 
0.4682441083121768 0.007906738398921698 1.341170396743711 0.8008098045848748 1.015187036490284 1.874250514145704 1:28.058188 2:4.986406 3:6.260927 4:2.672958 
5.530727168177799 181.5704281491444 0 97.45267548867918 138.5552398280841 52.37325132601879 1:4.294757 2:2.941965 3:3.105211 4:5.006034 
0 0 569.4830004811972 2438.457672814237 224.5319191804844 0 1:2.434239 2:4.240067 3:3.152508 4:3.152508 
0.4706790906973766 0.01232396384988693 1.333678240577848 0.7939460720716432 1.009160986401875 1.858534690139827 1:3.876037 2:14.106388 3:6.935943 4:9.406432 
5.7169813055926 0 0 0 0 0 1:2.661609 2:5.504739 3:2.314009 4:6.917854 
0 934.3587425977992 0 4069.132121036303 0 1286.76299251224 1:3.466427 2:2.370357 3:3.697095 4:2.661609 
0 13.26442892832596 0 23.89282407354349 59.37741950505581 14.6464707771157 1:2.288143 2:2.963631 3:6.779277 4:3.364216 
0.4629389065812199 0.04662403977512185 1.364356554245183 0.8659644323301892 1.37193720740283 1.857028220535644 1:8.857817 2:2.469692 3:7.905079 4:8.212328 
0 0 0 2278.221982068084 0 142.3426893431556 1:3.120609 2:2.046287 3:3.221262 4:2.156852 
1.227918865590527 0.2143587964476976 1.160241940131267 1.405263419944635 1.449056224039766 1.468039847429307 1:5.588471 2:9.848081 3:2.513001 4:7.609023 
0 0 0 102.6709701876459 147.7763021875388 405.7352972042955 1:3.539684 2:2.229006 3:4.594533 4:2.921087 
0 0 52.77427345142714 6.470667983726566 0 0 1:2.900941 2:5.532259 3:2.451637 4:6.359246 
0 117.9372905721009 159.1028597854518 0 0 0 1:2.417451 2:5.00775 3:5.496053 4:3.169046 
1.138928817321727 0 1.367662565780344 1.898708445078668 0.852241265333509 2.114918983693365 1:16.200057 2:3.203401 3:4.313704 4:3.29789 
0.6338051544506798 0.007604634824801948 1.476677252238031 4.815352913250368 1.016185178486621 1.884230343555233 1:3.3185 2:32.146328 3:2.451637 4:4.47922 
1738.58354109189 1003.397223185434 0 2425.411880391275 1910.365342919395 4617.037087052525 1:2.571867 2:2.900941 3:2.59982 4:2.619747 
8.149902351264828 11.61955511189491 31.60797460308624 0 0 11.75684716872157 1:4.237327 2:2.661609 3:8.896688 4:2.275717 
141.3654942049778 0 132.4144663723422 0 0 135.8055482257915 1:2.186453 2:2.401233 3:3.27406 4:3.973062 
0.4239685555047303 0.1157902230662019 1.501917934262918 0.8745162713212724 1.036352775278066 1.870065652196791 1:7.735714 2:2.792984 3:2.619747 4:13.315927 
1.033439029338708 0.3123610378914318 4.693142023270599 0.7698600018788093 4.192182733510628 3.283298029573325 1:2.745772 2:9.549059 3:4.644761 4:7.274677 
113.8308755850505 112.1385842702946 667.7984113518787 2112.989712237828 75.36548864202354 1351.055419676466 1:2.900941 2:2.263605 3:2.300902 4:3.420942 
0.02025552064024653 0.1084659202331222 1.332791105683981 0 0 0.5288995707570197 1:4.250401 2:2.549612 3:4.94813 4:12.506625 
510.6695272648612 0 342.744925893714 586.9535574244237 81.45973224302612 654.8925200986544 1:2.275717 2:2.341354 3:4.436016 4:2.275717 
0 106.9726689268328 1229.90251166584 0 0 1346.115670588431 1:2.240263 2:2.300902 3:3.169046 4:3.226941 
0.4412211592320266 0.007801376952561834 1.362585482031121 0.7985465353684994 1.123983585705583 1.878031296138977 1:35.056007 2:2.920186 3:2.701961 4:2.327486 
0.3764971635881705 0.2730419156660103 1.235061989472707 0.6780948195724386 0.8738128454341514 1.606533715901122 1:4.501567 2:4.822609 3:5.207192 4:25.505359 
0.4981815813370907 0.6762666342489165 1.942166774845705 1.012327608765466 1.163839494687442 1.857163084246792 1:7.563333 2:3.466427 3:4.092575 4:19.791744 
33.1160519214831 26.13838140545522 48.62893753073578 37.67122259832404 13.67644262639919 20.90938899718724 1:5.268262 2:2.963631 3:6.810737 4:2.688316 
0.5344414445792264 1.463685847449125 1.281473132345643 1.583706199418124 1.398971714490695 2.905748928654653 1:5.251828 2:3.105211 3:14.526466 4:2.968047 
0 54.34178512565781 0 0 0 0 1:2.469692 2:3.105211 3:4.188335 4:3.258481 
28.1090029853355 1.902649648840756 75.34437403289638 0.5632058687950573 0 29.32424821984903 1:3.56641 2:3.832157 3:5.760563 4:4.553183 
2.079011100029031 7.155140401953545 4.931151069552306 1.401184351567818 8.591555047056028 4.512650903548013 1:3.435805 2:9.806834 3:5.154254 4:2.370357 
2.690246792837041 0 0 0 10.1287728568732 12.19249676984612 1:9.122066 2:2.434239 3:3.641147 4:2.300902 
0.4414644936180033 0.007953418319934347 1.342544099038706 0.7987027433036639 1.016424688533762 1.875606553390057 1:2.370357 2:3.091201 3:37.999292 4:2.59982 
0 0 1137.128000635515 0 196.7271988780637 0 1:2.792984 2:4.191596 3:3.800259 4:3.378008 
0 57.34995126443574 203.760135846341 0 28.65374780699536 40.8383772881113 1:2.70215 2:4.757773 3:4.790118 4:3.951508 
0 0 2216.395633360004 517.0216211921064 0 115.008206233249 1:2.251792 2:2.595208 3:3.641147 4:2.207257 
0.8833218261070275 0.01748359377960512 1.341112098422319 0.9623621403558109 1.015546328107117 1.875019327305805 1:24.652447 2:5.532259 3:2.327486 4:2.355636 
0 0 0 1684.803817856152 0 5652.348695110727 1:2.288143 2:2.862655 3:2.595208 4:2.645613 
0 19.64929321300773 526.7445985932574 0 0 0 1:2.355636 2:4.393484 3:3.602866 4:3.361726 
0 0 4114.499716958902 0 0 0 1:2.434239 2:2.401233 3:3.186003 4:2.488456 
405.1049943173086 219.2541969634747 0 214.9459240326831 186.8987716511665 0 1:3.171849 2:2.623744 3:4.933246 4:3.498325 
0 110.5781824277959 537.6262686025976 72.9043512897739 50.27524461464145 0 1:4.232981 2:2.619747 3:2.300902 4:3.711098 
0.3920802247694663 0 1.282129402982973 0.7589306400914535 0.8896234563436736 1.650344805350902 1:8.592477 2:2.370357 3:5.534332 4:15.864721 
0.4414667011655481 0.007569937001522364 1.342174054318278 0.7989611171181007 1.01588486241223 1.875412765299086 1:5.450964 2:10.026974 3:86.579794 4:5.165377 
1.198773933120749 1.512449342687868 1.007204511094531 0.577044238942361 0.5890688411491829 2.551112268756216 1:4.250401 2:11.437803 3:3.641147 4:8.631059 
27.27071134244394 0 0 0 3.638137877091989 0 1:3.992414 2:3.286307 3:3.48221 4:5.56947 
0.6881670578992198 0.7311710832378857 9.259178399680186 0.9199661903293479 0.925005820548411 8.009613786159976 1:2.920186 2:2.862655 3:16.073959 4:2.370357 
0.4547971128681372 2.863434104067146 1.631767871117276 0.804021631667114 0.9985480722315584 2.151393765366637 1:2.355636 2:4.437043 3:7.333475 4:16.783768 
0 0 67.09061521639893 0 0 0 1:3.378008 2:2.251792 3:3.258481 4:5.779089 
0 133.9080238331337 1025.208491371457 0 55.92316920800575 0 1:5.207192 2:2.327486 3:2.314009 4:2.240263 
0 0 0 10000 0 0 1:2.761082 2:2.826763 3:2.207257 4:3.754525 
0 383.3866948734216 0 0 0 0 1:3.510514 2:2.809625 3:3.954136 4:2.218008 
0 0 5.154775778140769 15.57914420005576 41.42415223857895 0 1:4.60845 2:4.983024 3:6.173633 4:2.908737 
85.06802652706156 120.3916587241564 47.68371974227052 304.9772633649332 36.43613247054342 120.2665449716135 1:2.792984 2:2.341354 3:2.576854 4:5.344246 
155.4146194559434 1288.934532478678 591.6879539671203 14.21995304883955 95.10257151151355 0 1:5.658591 2:3.466427 3:2.809625 4:3.186003 
0.4436156184859217 0.007789720656975291 1.338861377134442 0.7957223798873462 1.013873811647983 1.870081456971798 1:11.375363 2:5.85618 3:16.433874 4:5.046324 
2.03022491008039 0 58.31276776380768 45.34649552951119 8.378319468650124 143.5032477479708 1:7.112904 2:3.848559 3:3.848559 4:2.765843 
0 0.9700762643032232 0.9779049815825573 0.4587780594398586 0.8116062893368807 22.09448157873626 1:2.385546 2:6.97267 3:11.35423 4:3.090159 
0.3219106852161047 0.2097548285342057 1.066900099246736 0.6233827423871982 0.7956960130710237 1.485449913063686 1:2.716325 2:7.000548 3:20.107424 4:2.955757 
123.415827788307 0 0 0 0 0 1:4.155339 2:3.136368 3:4.421451 4:3.48221 
17.36917320288038 1.46578250067496 6.060180636029321 0 19.329534583238 11.75639679875293 1:3.238451 2:2.341354 3:4.485257 4:6.847245 
97.365718059361 195.4033526304727 1246.630702846533 1745.643102435259 0 580.6064607476565 1:3.531611 2:2.507985 3:2.528346 4:2.955757 
0.441002478050939 0.004902088388608616 1.338350659873332 0.8920129059503074 1.439729657653712 1.914414032140743 1:16.997916 2:9.153045 3:7.337915 4:3.364216 
0.922353474701942 0 1.816176406214798 0.1795056202016563 2.414083737343247 1.345405310282 1:5.447323 2:2.674807 3:6.528638 4:9.845624 
0 26.40430970313244 1.535450643447184 46.05504766539861 0 14.9649307491245 1:4.114806 2:2.507985 3:2.263605 4:5.795542 
0.6909234635982361 0 6.775496583883927 1.219547369565595 1.657110638089569 7.11365566722083 1:12.151015 2:2.549612 3:3.277896 4:2.986147 
25.86868733386064 464.0684816595552 0 0 253.4604849193706 224.0216195892041 1:2.809625 2:3.00633 3:2.549612 4:4.535786 
29.2886992173637 3.550093243373303 21.91445377062186 31.28414011350072 22.14255361897579 9.917364264297028 1:2.968047 2:4.294757 3:2.661609 4:7.609023 
0 0 0 0 6.852757848556035 0 1:2.63609 2:7.75481 3:2.263605 4:5.725978 
0 0 26.48280385578463 0 6.493041926140467 42.02734565829453 1:3.311406 2:2.370357 3:2.549612 4:6.111065 
1.784028217598043 9.397902460617274 2.957717328556854 30.08243218522001 9.070679793916437 13.55716773947266 1:2.275717 2:2.251792 3:10.426398 4:2.488456 
0 54.23309308630338 0 37.56894379379965 0 0 1:5.199641 2:3.392054 3:4.276177 4:3.258481 
0.468784359395609 0 10.06362841932572 0 14.15652500583812 4.317523831986145 1:2.862655 2:7.958539 3:2.986147 4:5.038848 
16.44813546644056 0 0 0 71.97290336251862 11.23918950484679 1:5.272181 2:2.434239 3:3.186003 4:7.136081 
48.3240872003591 0 0 5.42552835315203 26.37362801162142 84.92005244593958 1:6.281204 2:2.986147 3:3.899731 4:2.094168 
2.364203847603278 0.06176735731368455 3.445875349548332 8.645403827989414 0.9747281031081123 1.762313627230788 1:3.580374 2:22.469538 3:2.196742 4:2.417451 
0 445.0798201375877 999.1741964872151 1049.735387690959 2650.503603416181 219.7537526329828 1:2.968047 2:2.370357 3:3.169046 4:2.229006 
278.5129043617569 0 1631.550088951599 0 244.8542515411006 259.4841687697671 1:3.800259 2:2.920186 3:3.978193 4:3.339764 
11.43953433066572 165.1341134930123 445.9234324187728 77.26826063350822 97.62944283709842 0 1:5.504739 2:4.501832 3:2.900941 4:2.809625 
0 0 0 0 0 179.9253451409639 1:2.314009 2:5.225351 3:2.745772 4:2.826763 
3.010658923288935 12.99451705164173 0 1.609259992702922 1.51771799901556 12.39974163717502 1:8.448826 2:2.417451 3:3.865281 4:4.390942 
6.148760806016479 2.516089399024493 1.131192179414324 3.891164163778792 7.023621899500954 6.885290272041138 1:4.257952 2:9.178554 3:2.451637 4:3.973062 
25.03968289961741 52.20001965122963 0 0 18.55146986208896 0 1:7.655682 2:3.661029 3:3.203401 4:3.27406 
0 11.41549571616816 1.46808085665116 0.557407659667989 7.649182981949292 10.89323423676104 1:3.935616 2:4.352763 3:3.034015 4:9.411527 
106.435885350236 0 0 0 0 0 1:4.032474 2:3.48221 3:4.053225 4:2.401233 
0 166.2273071338428 622.8017057348573 0 0.8307675502193835 403.7257116469879 1:3.702415 2:5.087003 3:3.120609 4:2.300902 
0.5878940181131539 7.212358955711882 12.201149210838 2.437142024129329 2.253047283585565 6.224880000745649 1:3.514787 2:2.955757 3:3.769502 4:11.733999 
5.239030695858404 0.4060871016328805 21.77731729212222 10.23250457109947 0 13.69534199818587 1:2.251792 2:7.655682 3:2.554771 4:3.769502 
0.3953091784719238 2.042472348755917 0 1.004816918831408 1.04795920201595 1.830773738497971 1:2.288143 2:17.14957 3:2.70215 4:2.341354 
0 0 26.35524825179248 0 0 0.8504644435385316 1:8.936176 2:2.196742 3:2.761082 4:4.468939 
0.4416727730443272 0.2175970144042718 1.343423171916992 0.8096077704592737 1.016665275926692 1.875902618213731 1:2.674807 2:4.501567 3:17.121379 4:11.35259 
5.881698148981671 0.3461282965805804 1.710076059645918 0.8148902794061923 1.098825471986096 3.584776641524789 1:2.385546 2:3.262005 3:18.913985 4:4.352763 
452.3328963430691 67.6217246147867 0 0 30.45610281428475 218.9935118382806 1:4.589301 2:4.745074 3:2.792984 4:2.341354 
65.86739001136827 437.8465804266367 114.9570364865098 292.3625967661123 122.0885363619728 52.85675118351592 1:3.621767 2:4.518672 3:2.507985 4:3.683317 
0 0 5.096014518189089 0 134.6230525605994 94.5746805257365 1:5.708865 2:3.019593 3:2.355636 4:2.745772 
0.7887217669027125 1.792235488969415 0.2932125883046071 2.817192823769501 0.4759180689306459 1.355524474436259 1:2.809625 2:10.279672 3:7.664924 4:2.980566 
2.798018455588148 0.3306471075023728 176.4957681099908 1.740451840562205 0.8697923385984002 3.296876288414153 1:2.385546 2:19.566481 3:2.688316 4:2.809625 
19.75571700723906 0 44.76848130556118 0 0 0 1:3.019593 2:3.800259 3:6.201659 4:2.595208 
0 37.02565500208612 0 0 274.2433671885782 0 1:2.417451 2:3.384432 3:4.594533 4:2.943689 
8.618237559528215 0 0.6652019956847928 0 4.923634329706145 9.587387326812866 1:3.510514 2:4.318327 3:4.224413 4:8.062545 
0 0 0 0 1107.919612786346 0 1:3.61755 2:2.963631 3:3.498325 4:2.120034 
7.300938628080872 6.472124629542098 0 0 12.93352746677265 0 1:3.161291 2:2.674807 3:8.230481 4:5.41577 
10.00440345246188 0 62.01183788462184 27.74555967948759 85.52784099597905 0 1:7.17152 2:4.468939 3:2.63609 4:3.061035 
2763.699129311911 0 5508.901704854954 4124.584632761835 0 4260.071845821932 1:2.417451 2:3.186003 3:3.669756 4:2.993324 
0 70.23777125876103 0 0 13.05228240850265 0 1:2.434239 2:4.372907 3:2.434239 4:5.045339 
6.919661722111352 30.01337836143254 0 0 0 0 1:6.066842 2:4.188335 3:2.488456 4:3.832157 
8.995024387685106 104.1053615159309 26.47026652985357 3.94741494808273 8.006344038879666 0 1:2.881479 2:2.327486 3:7.640019 4:2.980566 
1774.174023857775 975.3185881142567 10000 584.6427547824597 6990.373493883968 207.850830106961 1:2.862655 2:2.674807 3:3.81606 4:2.385546 
0 366.994785918399 203.6818414517064 0 150.1854573434827 0 1:2.745772 2:5.038848 3:2.507985 4:3.935616 
0.3893263767363606 0 1.219467037142165 0.7533127165549683 0.8986982368616576 1.652991128853126 1:2.674807 2:6.574445 3:5.409602 4:24.244886 
0.5432525249417205 1.760506921974241 2.256214119171595 8.929192325246994 0.7805437501398831 2.080624474485448 1:7.420471 2:3.392054 3:2.645613 4:8.39592 
0 65.18840286833822 0 4.304117927826681 0 10.43136812133987 1:2.576854 2:5.033915 3:2.881479 4:5.313094 
4.17785213366865 0 1.816343925308239 2.20852590961897 12.55835770622671 2.383692041988914 1:7.905079 2:2.941965 3:2.314009 4:4.468939 
59.19569434484009 110.3535217809266 0 0 34.86661177642025 0 1:2.839589 2:5.223315 3:4.26364 4:2.73086 
0 49.92051013120692 0 0 31.66223226293937 22.49740083175396 1:2.300902 2:5.607815 3:4.790118 4:2.483554 
244.3658006454104 0 777.5685997594109 0 0 477.4247665714151 1:5.37864 2:3.203401 3:3.339764 4:2.881479 
0 51.91681034430371 31.57617216360532 0 24.05023182756329 0 1:8.691041 2:2.716325 3:2.533506 4:2.355636 
0.5899434671627666 2.318870801644515 1.569306781924247 0.7303776029349845 0.9417346254551655 1.935588120907914 1:15.370672 2:6.222191 3:3.938595 4:2.401233 
56.5655898665417 109.5430059050942 2225.770190513345 0 866.0368174298405 235.9937073168393 1:2.619747 2:4.427466 3:2.401233 4:2.451637 
0.3706094559469097 0 1.066631167842487 0.6368436849125956 0.8156359343964658 1.49501285037402 1:4.60845 2:7.048215 3:21.111752 4:2.053942 
1392.193628182835 491.4379280977395 504.0462317734267 243.6696738552068 526.2393651583957 827.7398055628883 1:3.466427 2:3.865281 3:3.152508 4:2.549612 
0 0 5.858814582513548 0 3.155205781518557 7.261237450782498 1:10.60982 2:2.229006 3:2.288143 4:3.723978 
56.74973815043911 0 13.26357614269429 79.08573672024237 0 0 1:2.275717 2:2.648708 3:7.316519 4:2.314009 
53.44224098784673 0 43.02678868606559 0 0 86.2765295652617 1:5.225351 2:4.092575 3:4.276177 4:2.186453 
2.207893239443147 0.06400770998901589 2.308459815036414 7.014530797190039 3.842866746480424 1.969616612870044 1:3.951508 2:2.595208 3:6.931761 4:9.351833 
147.1910928817918 0 0 0 0 0 1:5.968442 2:2.428838 3:2.370357 4:2.761082 
0.9718664221274258 0.2475177903137149 1.361319858828518 0.9391575930268083 0.8773846385850604 1.569489814760307 1:5.796002 2:2.943689 3:6.065669 4:15.326305 
29.23645924802994 0 33.54921716798989 0 12.33812613695909 61.88998088295017 1:7.548962 2:2.488456 3:2.63609 4:2.370357 
0.279190161677225 1.964049685564819 0.1457881169107078 2.680329785971014 0.7784619904354131 5.697463413675466 1:11.334357 2:2.844429 3:2.434239 4:6.489442 
0.678480009493611 1.026522673484792 1.077845823830642 0.3013058450483436 1.459584655794693 1.07890071253042 1:2.417451 2:9.230757 3:9.358509 4:3.800259 
8.471442916472144 8.148696453216663 1.390163909539251 0.07672477112336185 26.38212187389971 5.325551837515581 1:3.090159 2:4.318327 3:9.119615 4:2.792984 
3.68944095480978 0 2.553977702470851 0 1.193802149999156 1.592889621527008 1:6.173633 2:2.341354 3:10.762733 4:3.848559 
87.01359800018942 0 0 6.893498715820312 128.6195451778962 38.34619143912153 1:2.900941 2:4.406085 3:5.490169 4:2.401233 
0.4408796987807387 0.007636868500076499 1.342592933322245 0.7983832965165251 1.016206289293036 1.876113752775761 1:29.12807 2:4.451639 3:4.766337 4:9.858446 
0 0 0 0 201.6480340670931 132.4088714806607 1:6.161826 2:4.188335 3:2.385546 4:2.908737 
12.58777025624804 0 0 0 0 18.65740085042134 1:2.327486 2:7.296713 3:3.432292 4:2.645613 
0.1884412332590249 0 8.297843977453851 6.266677193074114 12.92895389008926 0.1317789844918616 1:2.921087 2:6.572614 3:4.126436 4:7.420471 
2.473741763973238 0 9.136036149484669 0 16.97628022825796 0 1:4.741936 2:4.680686 3:3.514787 4:6.453881 
0.5025482308131243 0.856391280978902 1.162799135871241 0.8282689533925859 0.9037358579504066 2.013002233362458 1:18.837398 2:3.709699 3:4.857677 4:4.138196 
5.958114071894319 0 1.5236469244538 0.4868042348475151 5.253674952201609 2.662197869425871 1:11.175045 2:4.535786 3:2.507985 4:2.674807 
0 0 282.1219062833789 0 502.4822099713518 118.5106627243857 1:3.009582 2:5.814055 3:3.420942 4:3.186003 
494.0770579601739 0 3251.370781388125 569.4034711343377 0 463.6460348070348 1:2.488456 2:3.120609 3:2.761082 4:3.531611 
1.25836106318383 0.223346981846974 2.378279784640994 1.585246731845769 0.9944917273731447 3.745371742836201 1:3.435805 2:5.935518 3:12.795263 4:2.417451 
31.91191158061553 7.802926489138917 0 0 14.68261099072954 91.22092415165439 1:3.951613 2:4.20527 3:3.917486 4:4.822609 
1321.682639418633 182.7865592595108 399.8844139174184 877.9873208020508 190.4963244192347 250.4033371735133 1:2.875519 2:2.488456 3:5.40194 4:2.300902 
0.4407673256761956 0.01348970994875682 1.349795718195878 0.7977640494697497 1.015510696849411 1.881489201538595 1:4.810197 2:8.516008 3:15.344824 4:6.343698 
-1.558911060571726 0.04332358327745101 1.660514544669535 1.9727599592307 2.113671140560841 2.193701689631316 1:3.221262 2:17.822215 3:3.702415 4:23.248213 
-1.807329365058143 19.87107608351852 0 0 12.81630064525192 7.837992352273602 1:4.352763 2:2.921087 3:8.088573 4:3.584421 
-291.4893386803969 0 577.0821059343538 283.5492208662169 0 0 1:3.746167 2:3.136368 3:4.480526 4:3.792571 
-1.632935567305063 0.04281312776389684 4.994804430972382 1.979234235553873 2.113759932728735 2.193528465637795 1:2.401233 2:34.682478 3:3.48221 4:4.947794 
-0 29.73994466726645 0 0.1596757704291281 45.87962114536143 40.57953561034345 1:5.887423 2:2.792984 3:3.723978 4:5.176445 
-0 0 168.7542000120206 23.48366942440908 347.3396081804691 0 1:6.833151 2:2.341354 3:3.841972 4:3.034015 
-10.05493247812417 0 0.9243133826742052 0 0 0 1:2.401233 2:7.94586 3:2.488456 4:3.221262 
-0 0 87.03886791971361 1.704264632073065 72.68131809164638 86.30626592326612 1:5.982344 2:2.401233 3:4.372907 4:3.56641 
-14.7765212219399 0 41.20433917255483 11.81814903766659 97.60939812581459 164.2583938060753 1:2.385546 2:5.869619 3:2.434239 4:2.549612 
-17.71083856254857 3.476340839466382 15.84966935578047 2.368384013646289 31.32180301948908 46.23225794540091 1:3.339764 2:3.498325 3:4.406085 4:8.05063 
-14.14620740457212 5.19778508235131 13.3853949644121 3.514191151888931 58.89303938306995 3.945888470109823 1:5.588471 2:2.881479 3:3.531611 4:6.635049 
-288.9251629072168 299.0158527667959 602.3856028289706 2488.296327687171 800.6599452521754 372.6949062093169 1:3.186003 2:3.258481 3:2.528346 4:3.29789 
-1.481504214152248 1.888206434042546 1.715041357332519 2.980224628210024 8.26129620994787 5.13379945587503 1:4.703795 2:10.607953 3:5.026002 4:4.276177 
-0 0 0 0 9.662776660342743 23.12739742097954 1:2.401233 2:8.331092 3:2.595208 4:2.571867 
-1.541964225883573 0.3368391701235295 1.641016278634147 2.144838132536028 2.088079787648258 2.168240032333049 1:3.11425 2:19.983055 3:8.730327 4:7.578287 
-1.558544966037566 0.04338803076674197 1.6605292685766 1.973038515212469 2.11331449698185 2.193708706429224 1:2.881479 2:7.727243 3:41.88739 4:11.821723 
-0 2053.02684894716 0 0 0 3068.651494859952 1:2.963631 2:2.528346 3:2.900941 4:3.046934 
-0 0 0 1402.838864285689 222.8790187120333 0 1:2.469692 2:3.702415 3:2.881479 4:2.523162 
-0 0 42.68583429498361 0 139.4065183793301 129.1382472005727 1:3.498325 2:4.535786 3:2.455545 4:2.611658 
-70.4010806240907 10.23699534938619 47.60230151498994 0.1395083350915016 0 0 1:6.470192 2:3.917486 3:3.152508 4:3.697095 
-15.46996384216662 34.38406039629749 16.40999844872213 20.84110658093887 29.91602384381465 27.68419877750783 1:3.723978 2:3.973062 3:2.341354 4:6.163385 
-2286.814922437152 19.73338403769184 191.3288189872011 8356.465076790419 0 619.9012220038985 1:2.341354 2:3.186003 3:3.239613 4:2.862655 
-2.075827282075884 0 1.378683990095008 1.537017024398611 0 1.168634892542518 1:3.935616 2:3.769502 3:10.419798 4:4.840411 
-6.137446146257773 0.2344920980114371 1.723226486695372 1.84704041722451 1.931831746540552 3.656909498936313 1:2.341354 2:2.881479 3:18.440312 4:5.026002 
-0 20.86167282605851 0 0 41.40822626222408 0.4498321825760608 1:2.549612 2:3.29789 3:9.037729 4:2.488456 
-0 0 1993.14648442026 871.0811461842698 0 2108.57749964177 1:3.406361 2:2.809625 3:2.549612 4:2.648708 
-674.3839445502659 391.3597521943169 580.9663122119055 7390.342478834033 10000 455.6888870239039 1:2.792984 2:3.239613 3:2.792984 4:2.385546 
-0 1.291388949319551 0 0 8.449248585558637 0 1:4.607169 2:3.746167 3:5.961132 4:6.983403 
-47.4845727378776 35.88518761837 119.9980911688946 0 60.99706804746149 124.2722471023063 1:3.584421 2:2.355636 3:5.40194 4:5.00775 
-101.3922226428217 14.54987095882226 7.978200663285971 30.39488421929932 120.2264946234302 339.9771904641906 1:5.137757 2:2.488456 3:4.703795 4:2.588222 
-1.1938691946445 0.3663116892710037 2.483135146078939 0.766953610680976 2.075695774361122 1.379753919627385 1:9.45074 2:6.630972 3:2.341354 4:3.498325 
-25.50872148929735 0 0 0 0 0 1:4.436016 2:4.445446 3:2.776811 4:5.466851 
-2.549803748823324 0.6673585517355772 1.91764879360347 2.620084031051577 2.429379097744074 3.716953405791432 1:4.832832 2:4.741936 3:12.118934 4:2.661609 
-0 0 10.38195424342641 34.76905814127322 0 0 1:3.174736 2:2.528346 3:2.732836 4:7.663984 
-138.4004742294251 193.773918292976 0 0 0 0 1:3.361726 2:5.067013 3:3.921815 4:2.645613 
-14.87268331989439 44.17204638166992 18.30650812020998 6.167021323888665 0 14.76511659048578 1:5.243778 2:6.570893 3:3.407935 4:2.619747 
-1.46535182222305 0.01745334487942733 1.580764927928756 2.739585101516792 1.793719544312953 7.413436879388373 1:14.681485 2:2.507985 3:2.595208 4:4.352763 
-6.681116225905001 0 0.4524651363398326 0 1.881374596158892 1.437767140008134 1:3.221262 2:5.92742 3:2.300902 4:8.146744 
-1.600388670447772 0.08652074581286499 0 3.784029470787441 1.255686081182307 1.607690724576727 1:5.282712 2:2.528346 3:5.243778 4:17.055739 
-1.151458248219972 0.2860663328717981 2.09514967814798 0 1.657767574656385 0.09194590005301226 1:15.841754 2:3.769502 3:2.341354 4:2.434239 
-0 89.45538942544638 0 0 34.94178160439968 0 1:2.881479 2:5.207192 3:4.810197 4:2.488456 
-0 110.252719693447 13.05318264436835 0 11.848045965676 39.87997240913339 1:5.243778 2:5.225351 3:3.602866 4:3.3185 
-0.9740426302780132 0.514151588279776 10.44607169953687 2.024684805786022 3.034324302861183 1.642107110036933 1:4.257952 2:2.314009 3:3.867922 4:18.104673 
-1.558512340096434 0.0433623689737222 1.660530529531418 1.973032724111762 2.113533936438827 2.193267224123495 1:4.503583 2:2.761082 3:4.840411 4:70.457295 
-1.558354958122502 0.04297114557844095 1.660401901050441 1.972882006613234 2.113637666918313 2.193928642760022 1:7.274677 2:36.255658 3:6.345229 4:12.839546 
-0 0 0 12.04535971372008 38.09920233109921 0 1:3.602866 2:5.588471 3:5.281474 4:2.921087 
-1.56007163065106 0.2657232449992619 1.641291125437433 2.157678208693651 2.073555763831373 2.205270648629668 1:5.56947 2:14.351123 3:3.769017 4:6.289276 
-1.789121942293643 1.034435583581742 1.661244946072296 1.958389427933409 2.098058527804077 2.240762014246967 1:7.263098 2:11.099729 3:3.466427 4:9.424627 
-0 0 0 2.507037921487671 0 0 1:3.034015 2:6.185163 3:3.769017 4:2.986147 
-749.0832612673928 415.627214545562 1941.995750326405 205.0171603228832 5.692016110886144 3945.935106044678 1:3.548813 2:2.549612 3:2.862655 4:2.275717 
-0 25.34762514714252 42.26150844365416 25.61672592446905 0 42.36429555324293 1:2.881479 2:7.189112 3:3.00633 4:3.105211 
-1241.057568444178 0 613.0895093131222 0 0 0 1:4.118658 2:2.900941 3:3.11425 4:2.595208 
-248.1683038058186 71.06986989768427 163.150244155824 0 0 99.48376446863666 1:5.423203 2:4.165217 3:3.061035 4:2.549612 
-4.434080047219436 25.26362862514569 2.93671407803406 0 19.92826948250855 10.91282162055374 1:2.881479 2:8.744721 3:4.062672 4:3.514787 
-2.301875061775346 0.2424747317743574 1.769140101980498 2.159746814654049 2.316801746590646 8.95466630067274 1:2.434239 2:11.214187 3:3.221262 4:8.088573 
-1.569432502131846 0.04188912453932947 2.071948688936307 1.971286858249304 2.111417282157182 2.189690676886588 1:9.122066 2:2.716325 3:18.231641 4:2.661609 
-125.1859680895899 11.07253557511138 69.38751528760335 36.88741138591094 13.49204800653534 0 1:3.661029 2:2.792984 3:6.240915 4:2.921087 
-1.319486682185779 1.836505769824126 1.085232522168934 1.72456200666618 2.708760085619085 0.5607068030032965 1:6.008298 2:4.376012 3:7.101288 4:6.503345 
-1.652785706211025 0 6.809183384680902 0 8.24993100214447 0 1:3.584421 2:4.703795 3:7.419398 4:6.282503 
-392.6827913991449 227.7111876957523 132.5388087923063 0 0 1038.084862473677 1:4.214437 2:4.551433 3:2.745772 4:2.263605 
-1.558412542811971 0.04310285971456018 1.660546776157991 1.973231750321607 2.113760192539154 2.193786664771531 1:16.563319 2:3.29789 3:8.976301 4:23.313567 
-0 277.7580129269344 0 0 0 0 1:3.08624 2:4.551022 3:4.875206 4:2.488456 
-382.8245434307478 251.3045742606805 268.0340449371334 0 0 656.5085139163742 1:4.165217 2:3.641147 3:3.641147 4:2.73086 
-0 0 2.407705231268187 0 581.2615056350561 96.95022559744454 1:4.092575 2:3.420942 3:3.406361 4:4.257952 
-1.452878930346848 1.082842133917371 1.490274657394747 1.77310038099236 1.857900493810162 2.252119348163162 1:18.671073 2:5.489264 3:2.70215 4:2.528346 
-0.05648307564012169 9.574566677687901 0 23.19370795294829 3.025042657152934 0.02940533407467803 1:2.549612 2:3.865281 3:2.73086 4:8.532874 
-21.10043464874771 0.9875115564539084 1.692595125762347 35.45930521683018 8.804494187509427 0 1:2.327486 2:4.551433 3:2.809625 4:7.611991 
-9.85578561774792 1.029644767267976 7.553028744532326 0.838539229948581 8.370318954486139 7.884053837742706 1:10.127179 2:3.754525 3:2.451637 4:2.355636 
-2.754052667883875 1.292723076366037 1.593654963949016 4.912970915945542 2.315818437875773 2.735395484940459 1:2.434239 2:9.496709 3:7.548962 4:5.006577 
-1.545174010737968 0.1370289253267726 5.760240867306678 2.348017827976031 2.851610539062724 2.164518917749239 1:2.809625 2:2.288143 3:2.355636 4:21.158657 
-1.413793986755866 1.203276707285267 0.2918386221561296 3.733344865384812 0 1.757766551966004 1:4.376012 2:4.644761 3:5.247488 4:8.517132 
-287.1057197861236 79.23903764400096 254.0287654403965 0 297.4086066895237 111.7132598348591 1:5.627301 2:2.401233 3:2.549612 4:3.105211 
-1.594818988042169 1.006634113526328 1.446159457089829 1.486787024397191 0.900757909171564 3.041166109011909 1:8.855156 2:7.474536 3:2.528346 4:2.875519 
-3.290329181830708 0 0.7505621896944371 5.022980307929832 2.427404892167583 4.188574707615689 1:5.419454 2:9.666786 3:2.648708 4:5.131413 
-101.6066962474153 1.896920668880294 254.6618333521051 9.572991913597843 134.898779632521 50.95885610071671 1:6.847245 2:2.792984 3:3.120609 4:2.434239 
-0 1.262033800074941 9.856766320456993 0 11.79668274189048 0 1:3.319011 2:8.573417 3:2.218008 4:2.576854 
-43.73318282243078 0 0 1866.970431271895 0 71.99969333103935 1:2.716325 2:2.300902 3:3.667646 4:3.48221 
-2.213061694520956 0 5.788004457534678 2.936188363513725 6.819732316414207 1.057825781579696 1:4.501832 2:7.968871 3:2.240263 4:5.087003 
-1.56825535222665 0.0433317256948999 1.660481282168496 1.973025815840499 2.114381935476478 2.193648370991914 1:4.250401 2:12.900071 3:10.683301 4:9.406432 
-0 50.97729746758038 379.3801000590489 0 230.8338190335211 0 1:6.012659 2:3.046934 3:3.384432 4:3.992414 
-1.342322102229771 0 1.074016285675695 1.218073113092819 3.712185411314256 1.095929231646648 1:10.629591 2:6.889352 3:3.450963 4:2.355636 
-976.0655163384283 0 1994.341927630717 3024.482309308985 417.3229004202213 4394.493425534979 1:2.674807 2:3.337356 3:3.337356 4:3.009582 
-1.116887940616002 0 14.56983846451235 0.1088875532346586 10.91112489166244 0 1:3.841972 2:9.139112 3:3.136368 4:2.314009 
-17.25863903126659 18.02662766117965 4.401557340083626 2.85778378868096 5.83404923736681 94.34894924968199 1:4.171695 2:2.370357 3:2.417451 4:6.810737 
-2520.251488333557 920.8017157423415 500.4235887103857 1679.366530814859 114.6027212056838 0 1:2.674807 2:2.488456 3:4.372907 4:2.417451 
-45.50123271680663 144.843551553702 102.045229518368 0 0 405.3633814774726 1:2.417451 2:3.378008 3:5.478311 4:2.844429 
-1.476013264229757 11.37292966517994 0.05980736171628381 0 0 0.7783880741198115 1:8.127182 2:3.262005 3:4.240067 4:4.832832 
-0 0 0 1.711753417538229 0 10.94131391122658 1:5.320347 2:2.688316 3:6.233008 4:5.153708 
-0 0 11.10565024266586 16.46325881438687 182.1521441264069 32.88610259538291 1:4.165217 2:5.951892 3:3.841972 4:3.48221 
-66.26316841324061 0 87.30040965828609 32.73428983759027 0 0 1:2.672958 2:3.105211 3:6.201659 4:2.63609 
-0 0 0 1.964808626144019 3.086817231047511 2.405984468818643 1:8.248778 2:4.468939 3:3.136368 4:6.208886 
-1.328743484877649 1.131499662334196 1.370928020629389 1.524606293887973 1.728865523529122 1.591467925777805 1:2.507985 2:18.521833 3:5.320347 4:2.674807 
-0 0 0 1.349073238603879 0.6827302579283473 0 1:6.163385 2:2.732836 3:9.837732 4:2.528346 
-493.8356150851272 326.1751149945421 657.1674219683922 0 994.1668614834526 2217.840043971417 1:2.549612 2:2.240263 3:2.288143 4:2.688316 
-0 77.03405146867746 134.554862143254 0 0 291.8092480257179 1:3.277896 2:5.37864 3:3.48221 4:2.370357 
-8.572737987545368 0 55.01270807438446 10.97790558297658 2.716311899246163 0 1:2.469692 2:4.967109 3:6.830648 4:4.032474 
-10.27758764400004 0.1020984752711971 9.590958162657747 0 0 6.071206496737153 1:5.871722 2:2.488456 3:8.952663 4:3.034015 
-0 43.52606128625526 27.58811603217579 82.38248778122282 339.3299229080191 269.0093519882457 1:2.327486 2:2.881479 3:3.832157 4:5.626959 
-1076.478609055136 5495.018142100882 4869.733345626005 5073.456405674014 2094.035467719619 6679.044609586844 1:2.73086 2:2.619747 3:3.420942 4:2.809625 
-246.1725655948019 108.7742098427262 204.4032033686553 250.3256165652462 434.980699584812 683.4568077383395 1:2.434239 2:2.469692 3:2.674807 4:4.22251 
-43.87312643583017 31.05403357143091 23.87555926913402 3.899363997167022 29.83801805445776 0 1:2.488456 2:2.571867 3:7.908437 4:2.451637 
-1.714789918330138 1.662386868923145 1.758086746437344 1.167318133074013 1.298089138384011 2.345515590236422 1:2.70215 2:18.861033 3:3.681443 4:4.313704 
-336.3397123620373 40.04693453504949 0 216.1703699739891 0 130.9960045044286 1:3.661029 2:4.436016 3:2.595208 4:2.70215 
-0.1560581143735025 0 0 0 6.72329672613284 0.5337081378169768 1:4.625797 2:4.22251 3:8.672082 4:4.91109 
-211.7601234452324 0 0 0 1450.570679322764 793.4273357495284 1:2.571867 2:2.931835 3:3.832157 4:4.123442 
-3.817161294045857 0 0 0 8.562870149366551 0 1:2.716325 2:2.862655 3:8.252873 4:6.071687 
-466.1565930994667 147.6614117920263 0 220.8528461814933 2258.333858250676 0 1:2.761082 2:3.08624 3:4.501832 4:3.105211 
-36.56906178911017 0 62.88097705264529 14.50629883815659 17.1118494368541 0 1:2.417451 2:3.584421 3:7.460552 4:3.511179 
-0 65.31602913659543 88.73504788508981 0 115.184146490209 654.3092462745161 1:2.588222 2:3.29789 3:5.070743 4:5.067013 
-1.55846622436248 0.04309358156459642 1.660391938739912 1.973051537297557 2.113661099376785 2.193502966437274 1:5.947216 2:11.791396 3:22.972347 4:7.189488 
-0 217.7998164556768 0 972.8747357520497 3707.944094466712 0 1:3.917486 2:2.993324 3:3.203401 4:2.571867 
-5.467256812868437 1.20568670446273 1.969924736322133 0 8.86919822882513 0 1:2.70215 2:2.434239 3:9.017084 4:4.893008 
-0 0 0 6.100658193562936 28.83539663620981 0 1:5.840372 2:4.601803 3:2.528346 4:4.390942 
-0.536433264200239 0 6.398379360069543 3.500913010322409 0 16.39717380148454 1:15.243989 2:3.466427 3:2.595208 4:2.73086 
-0 0 1.647182739642359 0 0 0 1:3.725332 2:2.469692 3:9.870357 4:4.601803 
-0.9187221760629042 0 11.16733348824572 1.831439028768584 12.46725643043707 10.60335451229293 1:2.507985 2:2.275717 3:5.103478 4:8.30983 
-0 0 441.2692201015933 0 46.94929593547023 2199.705316925209 1:3.136368 2:3.29789 3:4.240145 4:3.973062 
-250.4265563588939 80.90367343993854 130.8944123521825 0 46.21574347891955 204.362419020641 1:3.120609 2:4.048064 3:4.346775 4:2.138089 
-4.094570340385266 3.9664535712538 0 10.30650323184495 0 16.21415747797797 1:8.554508 2:2.70215 3:4.352763 4:2.196742 
-2.508459272795991 0 2.663247514184551 2.082298683097368 3.278589355369511 1.779114051277135 1:4.724232 2:3.973062 3:7.502611 4:10.222869 
-2.643804563693621 0 2.53190884421713 2.750244440736558 2.028424596291206 3.535724202336982 1:3.865281 2:19.996118 3:2.776811 4:2.401233 
-0 0 0 0 11.80482462081352 4.200258967365824 1:4.352763 2:8.031091 3:4.123442 4:3.11425 
-0 121.9794556336106 0 0 0 0 1:4.033676 2:3.711098 3:3.792571 4:4.741936 
-2.282349635943558 0.6169128172212031 1.899412997733458 1.798809011081755 1.99341769947761 2.20367839943219 1:4.20527 2:3.661029 3:18.343922 4:2.792984 
-1.477746594107934 0.3350144986695531 1.547054113667629 1.839409826740978 1.970509444609996 2.063038949965004 1:19.612826 2:6.677458 3:3.800259 4:5.131413 
-31.3621846034973 3.214477356498499 0 462.0209330701349 43.95158993763072 130.4027513512153 1:2.571867 2:2.451637 3:2.385546 4:6.322581 
-900.8564484147608 202.6922359768958 90.9155435405452 0 33.20388104698868 333.4758904979857 1:2.826763 2:2.434239 3:5.887423 4:2.469692 
-128.2928929907611 0 0 2073.984786706661 1135.303887580932 0 1:2.792984 2:3.56641 3:3.29789 4:2.434239 
-1.785008016284531 0.04345417353979029 1.660220912488778 3.120537782517057 2.113745733697871 2.249539837048907 1:25.241427 2:3.816873 3:3.602866 4:3.169046 
-1.27471826139343 0.7056622533337327 1.429909664129936 1.751310611679186 1.880799137616156 1.899817897392202 1:3.548813 2:21.263024 3:5.282712 4:5.684779 
-2.155930240718349 17.19364161702992 24.02677528151992 62.98113346108411 64.38497185960514 40.31753475645896 1:5.907893 2:3.239613 3:5.692207 4:3.954136 
-0 0 0 0 0 38.02476826342581 1:6.830648 2:2.385546 3:3.867922 4:3.681443 
-2.720731438616359 0.02840193102891564 1.482314919032371 4.429782417841158 1.602545523962818 1.611821499321898 1:3.019593 2:22.177495 3:2.792984 4:3.584421 
-0 20.29050043447828 0 1.408024874281252 0 6.720614721662793 1:5.137097 2:5.281931 3:2.288143 4:4.840411 
-12.68135587790482 0 0 0 0 7765.137328875524 1:2.355636 2:2.645613 3:4.240145 4:2.688316 
-0 -0 0 0 0 0.7784779191237274 1:8.331092 2:2.862655 3:3.203401 4:2.701961 
-1.992194847352502 -1.956826903470211 1.536367534593597 1.997708841035718 1.907206464564033 2.07612832944662 1:19.856537 2:4.118658 3:2.401233 4:16.868876 
-33.86065720976188 -0 0 0 0 66.02983963879028 1:5.281474 2:2.776811 3:2.645613 4:5.300758 
-11.43388789028583 -0 0 1.739318307790158 0 0 1:8.874086 2:3.033565 3:4.139257 4:4.879617 
-2.196595374852663 -2.084160170590924 1.983606541244691 2.543525571876574 3.791732637354917 2.073880920348586 1:5.947216 2:2.826763 3:2.839589 4:19.380184 
-1.988145752178408 -2.047159513029839 1.532331766478336 1.993655778317567 1.902328094000184 2.081532554414764 1:20.950208 2:8.052247 3:2.926812 4:3.29789 
-0 -0 0 79.3418418628234 0 88.55642255877783 1:4.503583 2:3.667646 3:2.507985 4:2.619747 
-457.6126005960205 -21.88642460760487 77.74561034950752 789.7917665605821 586.0640691488792 367.6313091604533 1:2.549612 2:3.992414 3:2.370357 4:2.862655 
-28.50161383521299 -14.30994609932036 6.488637330453041 6.971848820273277 27.80404485109327 25.04746644671643 1:6.717743 2:5.708509 3:2.434239 4:2.507985 
-2.943762292482189 -27.00714187045786 10.47714970826399 4.689654939888046 12.33340463812202 9.439782396083363 1:2.341354 2:8.267911 3:3.935616 4:3.633292 
-0.9770308375466402 -0.9264247964881551 1.271040981990615 3.166375835374077 0 1.215013009919253 1:2.986147 2:12.444382 3:6.162929 4:2.623744 
-298.8041175957244 -3.696002401195744 53.10861379414369 321.8600665179058 42.87639744922502 0 1:2.986147 2:5.176445 3:2.417451 4:3.361726 
-258.9805738278802 -154.5424472080275 73.68021800826172 147.9575417439601 95.95878841597346 424.8783642475638 1:4.294757 2:2.401233 3:3.239613 4:3.992414 
-1.992211279956243 -1.956823085246485 1.536411520841673 1.998270124226803 1.906999717188067 2.075933046879365 1:22.776468 2:2.765843 3:23.052923 4:7.231391 
-466.0697868006491 -0 17.96963599651048 78.1945091092241 158.0785954346743 0 1:2.701961 2:4.724232 3:2.745772 4:4.414513 
-2.064322960518528 -2.127165379381756 3.102925303976906 1.994242955412336 1.910170430158087 2.501962187653826 1:3.92262 2:5.340249 3:18.346641 4:4.333034 
-1.55769767973333 -0 0 3.341825787505558 0 6.937898442386933 1:3.009582 2:8.217466 3:4.240145 4:5.340249 
-2.863071975693934 -2.407248366311813 1.546727175966474 2.000763795749325 1.909983667608752 2.093448198346627 1:5.66729 2:11.950046 3:3.407935 4:8.903277 
-1.478598815443754 -4.27288795858948 0.220831464482226 0 4.086962486406753 2.464505020461907 1:3.061035 2:10.670955 3:3.152508 4:4.118658 
-1.653968621883421 -0 1.688742393437412 1.275429673390754 1.728785116288185 0.9274309263676511 1:3.319011 2:2.844429 3:2.881479 4:10.477611 
-19.60788575822646 -0 0 5.784534882754723 2.281694646408034 39.35171385359592 1:3.435805 2:2.451637 3:9.245077 4:2.595208 
-519.7410710569688 -70.12819930569543 63.7659727125822 892.6254745103751 432.3654529673832 773.6925699666006 1:3.00633 2:2.765843 3:2.451637 4:4.857677 
-1.746819363371479 -0 0 0 0 0 1:3.277896 2:2.385546 3:8.016369 4:3.059534 
-1.901802143273873 -2.259591080175233 1.412088805572838 1.818272508144563 1.73458922326926 3.637768807221207 1:18.924665 2:3.667646 3:2.355636 4:2.672958 
-1.971576984301992 -2.312031830373577 1.525527126431482 2.203809273878439 1.901271019656179 2.060959005474884 1:2.921087 2:20.180124 3:6.942028 4:5.376525 
-1.992348677858756 -1.956969788019892 1.536304869999456 1.997743989440166 1.906936848855141 2.075650195470049 1:5.514034 2:6.637 3:42.79039 4:4.953941 
-95.67191136218895 -119.2070377452738 39.76623851249828 1.0539316307817 33.45825855962349 17.1095070723669 1:3.11425 2:2.488456 3:7.209958 4:2.488456 
-8.850443487925311 -0 0 4.916098115267831 23.76427531843043 0 1:5.535337 2:4.22251 3:5.297416 4:2.801296 
-34.11698519279394 -64.00251619742754 149.2693755338431 44.85651315806149 76.70030191027108 0 1:3.29789 2:6.039185 3:3.097447 4:2.341354 
-9.794057969898921 -4.836482523330962 0.6291495898703556 1.283605079992209 2.755189327563076 2.570300333488178 1:3.319011 2:4.266643 3:2.776811 4:9.730296 
-2.093096661104165 -1.967699666378535 1.575524186673965 2.875225249252942 1.930961644757147 2.102502509565662 1:3.242353 2:3.277896 3:10.787803 4:8.659228 
-0 -4853.755272673169 0 0 1435.618240825406 0 1:2.776811 2:2.672958 3:3.120609 4:2.955757 
-1.953060416261674 -1.918631122804698 1.50595179722294 1.958475998487756 1.869583143230056 2.035025494133102 1:28.540452 2:2.488456 3:13.732061 4:2.451637 
-0 -0 0 52.39787493816875 0 0 1:3.667646 2:6.830648 3:3.384432 4:2.528346 
-4.575532018865773 -7.6425169003907 4.258130275763609 7.627192329648168 5.23505314671136 3.248515908601906 1:6.508922 2:3.034015 3:7.616895 4:4.114987 
-0 -92.11941859363645 0 38.26391207050169 60.25381201999326 29.22783148340296 1:5.061983 2:5.66729 3:3.569456 4:3.498325 
-3.038422133929655 -96.17123911146899 282.2535868199757 0 17.49249232979428 830.7523452919819 1:5.067013 2:3.867922 3:3.746167 4:2.672958 
-3.513317618017276 -1.979546820167952 1.733388337629475 1.998088415743054 1.908498333994336 2.404958388830504 1:14.540269 2:6.786001 3:3.3185 4:2.941965 
-222.1426767128979 -59.57318470731494 0 18.15946867869701 0 0 1:3.917486 2:4.118658 3:2.327486 4:4.09629 
-3.935461359052363 -8.815122706961446 0 30.68821327058167 71.61793582151755 12.51116649527869 1:2.488456 2:3.258481 3:10.247317 4:2.355636 
-16.07807747063939 -32.52604796845684 0 75.18911635353442 0 23.35083472923554 1:3.3185 2:3.450963 3:2.528346 4:7.064076 
-0 -20.58275728749654 0 3.77413868491549 7.536784348593677 9.889430959352007 1:8.125344 2:2.70215 3:4.165217 4:4.436016 
-0 -0 1.604331739285099 0 0 0 1:5.627301 2:4.012211 3:2.881216 4:4.313704 
-1.03132058429097 -0 0 0 0 18.60747038196049 1:2.571867 2:3.120609 3:4.313704 4:10.800575 
-7.837085738895651 -21.41310680556314 13.45795945061569 0 5.93106620470279 18.16410637389952 1:5.199641 2:3.186003 3:4.682708 4:5.888628 
-3.507160206410278 -1.505057664058451 2.575140066261163 1.533644169755618 1.46011878618724 1.502383877748239 1:2.977217 2:4.333034 3:6.881709 4:15.810158 
-1019.939522110082 -2956.409592714447 8341.76195307552 1594.273289513817 302.252428937219 0 1:2.826763 2:2.488456 3:3.29789 4:2.645613 
-550.0296074633264 -477.7482460107504 43.69496477344757 81.22024277376958 152.7802278163325 212.9560206564399 1:3.725332 2:4.318327 3:3.29789 4:2.528346 
-177.3458769592445 -1426.549296920312 347.415213585183 354.7958874800527 900.5234775230758 214.4087486524367 1:2.619747 2:2.645613 3:4.607169 4:2.645613 
-1.992581020171511 -1.956962682182263 1.53628844380712 1.998257753492984 1.906967993891001 2.075559452102385 1:16.808161 2:58.895023 3:2.434239 4:3.239613 
-2.067881452512183 -1.775591970108144 1.40246957008541 1.84470952586916 1.74403829270412 3.280412674447161 1:19.011872 2:3.059534 3:3.29789 4:5.522164 
-0 -20.46206949933427 8.166778524934891 10.65937482882742 0 49.1797217190237 1:5.986648 2:2.549612 3:2.963631 4:5.535337 
-183.8578525743596 -26.17885347438874 0 0.1511670973340322 47.99176722331384 14.700078110909 1:2.355636 2:5.153708 3:5.153708 4:3.29789 
-2.278406908271734 -1.324414966116582 3.125697187465126 2.873225872495023 1.158425243988995 1.933211413098732 1:3.92262 2:3.384432 3:14.411706 4:3.584421 
-1.546423947143547 -0 0 18.22724096481626 10.81272537181757 1.794600412125385 1:3.120609 2:3.935616 3:11.3346 4:2.801296 
-0 -5.425771347196615 0 3.303468234723324 8.232890791898734 2.865525021543202 1:3.661029 2:8.78427 3:5.006577 4:4.393484 
-1.562092100664509 -1.544342411728569 1.203049846347535 1.351451469045004 1.717097266758083 1.867335492271846 1:4.165217 2:14.225565 3:5.947216 4:4.352763 
-2.736542817828453 -3.188339253052289 1.621955935292712 0.2847590344720438 2.319522231296574 2.050569783677849 1:2.417451 2:17.72719 3:3.867922 4:3.432292 
-832.2431847973746 -0 6126.778376638234 176.6333111311921 566.1620963157688 440.6082114955263 1:2.776811 2:2.595208 3:2.672958 4:2.434239 
-2.0064281312687 -1.949402731137773 1.533485374198774 1.991720021871123 1.898680323469025 2.100756070896867 1:3.548813 2:4.352763 3:18.495664 4:8.831135 
-1.011061781430754 -1.049401573392466 1.999471753786897 1.207032099464679 1.909177972152063 1.051684317229553 1:2.963631 2:2.451637 3:14.196894 4:3.384432 
-0.3780821469404589 -0.5686277505961085 0.8810323928736876 1.222038253740665 0.9242494206760955 0.8442029680421829 1:3.621767 2:14.342289 3:5.006034 4:2.921087 
-0 -0 0 4.469421998802649 498.6200552679515 268.6793126578416 1:3.105211 2:3.865281 3:3.009582 4:4.703795 
-2.301912935987461 -1.003568988730979 0.6521519731545006 7.826534444341099 0.933721656514486 4.450172919553181 1:10.220558 2:2.701961 3:2.619747 4:7.225939 
-0 -0 0 5.664555086446662 0.5262689686776693 16.02725079659363 1:8.056127 2:3.548813 3:3.457569 4:2.488456 
-1.716508357029791 -0.524244743081404 10.26738608635474 8.496994918110596 0.9512447437891065 1.490338226997759 1:3.174736 2:11.921268 3:2.417451 4:3.034015 
-1.994443198882793 -1.959966832793884 1.536423852799263 2.003087913429597 1.906739787749888 2.075162906280961 1:3.361726 2:25.013036 3:4.724232 4:2.701961 
-255.5541349582108 -0 3897.184783643214 0 0 537.6670053181186 1:2.801296 2:2.844429 3:2.900941 4:2.881479 
-2.691519708446105 -0 18.34196932278408 51.59558874118304 1.97381673114906 3.448306810043487 1:3.061035 2:2.623744 3:11.114411 4:2.63609 
-32.90663539500369 -0 5.915106814188074 48.39731983278536 0 196.2839020267253 1:4.062672 2:4.97993 3:2.963631 4:3.169046 
-0 -13.49649992234492 7.121011538779672 0 22.81322334192838 20.45511027099886 1:2.963631 2:3.973062 3:4.118658 4:6.260927 
-2.005290787788446 -1.349447715999247 1.29704653693492 0.7661207607820801 1.596679003351649 2.190741912698781 1:3.361726 2:7.969089 3:10.067831 4:3.894782 
-0 -18.18927537832698 42.91828519622985 0 0 3.863886707528981 1:3.531611 2:7.319019 3:3.681443 4:2.355636 
-264.3855801735203 -71.39333952802258 266.4153835832404 6.09776278284393 54.68623292746699 38.77639692775352 1:5.223315 2:2.451637 3:2.314009 4:2.645613 
-0 -296.762195403595 235.3122135261676 0 0 2039.379466154941 1:2.645613 2:2.528346 3:2.251792 4:3.105211 
-314.9682649492051 -79.08934656267166 297.3542384959636 0 59.98598484358988 0 1:6.050513 2:3.548813 3:3.20755 4:3.432292 
-1.45120411058548 -1.977888958709622 1.396999159977807 1.940661036750722 1.741769036153433 2.229235426258814 1:10.206956 2:5.381035 3:3.792571 4:6.882207 
-0 -13.92647327802483 0 0 5.372063689871693 9.74722295388583 1:2.355636 2:3.882333 3:9.165331 4:3.152508 
-98.34708670047725 -0 69.84547112711333 219.076480318887 68.13517902767514 6.524021072849719 1:3.832157 2:2.571867 3:5.56947 4:3.152508 
-0.09943929674088808 -2.928710626443205 0.5647525258688366 2.940261832010943 1.828685378057425 0 1:2.507985 2:2.619747 3:4.214437 4:9.979413 
-1.992357435544876 -1.956660791875912 1.536385787416289 1.997741543999886 1.906995901559634 2.076259708762799 1:2.275717 2:2.732836 3:13.866733 4:26.757386 
-1.992467707482297 -1.956786583071605 1.535798204981282 2.004475072245972 2.044003830576933 2.374031635989359 1:14.920547 2:3.739805 3:3.973062 4:10.444773 
-2128.520899363757 -373.3829943875918 1315.399518103257 575.3277642718517 3679.969629659919 207.8710260486285 1:3.186003 2:2.528346 3:3.882333 4:2.417451 
-1.139544998611809 -1.746216360352753 1.696457204838999 1.732632130588699 1.63543675044973 0.982269234297181 1:6.717743 2:4.726315 3:3.186003 4:11.174819 
-2.1172810378479 -1.318982808370259 1.215173798810416 56.11323630768423 1.640402675217945 1.718633111499004 1:2.881479 2:15.263755 3:3.009582 4:2.549612 
-138.3647617364181 -0 38.78855974716769 30.07004374807156 22.53172169178848 36.06854026119749 1:2.401233 2:4.766337 3:4.414513 4:2.385546 
-0 -0 12.91234861726776 0.2581350786073119 40.95270232310299 13.12471207018928 1:5.986648 2:4.953941 3:5.223315 4:3.621767 
-0 -75.9693479670108 70.00008021895238 0 125.5898578364583 512.5028235521205 1:2.469692 2:3.009582 3:4.414513 4:4.857677 
-2.081094008791119 -1.957206758474064 2.098344556765195 1.998242814378356 1.959515282407235 2.073223351662013 1:4.664074 2:3.361726 3:3.034015 4:24.397533 
-1111.499999508312 -0 132.1513975015847 0 61.80927770566772 0 1:5.489264 2:3.641147 3:2.776811 4:3.136368 
-44.45593283125007 -29.39751469637113 119.4333859941298 117.3760906967655 0 44.18603968360881 1:2.839589 2:3.034015 3:5.987648 4:4.012211 
-1.905267819104371 -1.724408714849397 1.535850540368933 1.663557575398684 1.753380280897521 2.098457343065658 1:7.888672 2:3.702415 3:10.726726 4:4.266643 
-5.87003062145333 -0 46.73190888413207 309.6034755724988 149.6606128423012 192.8188448009825 1:2.619747 2:3.203401 3:2.385546 4:5.986648 
-49.39823770862722 -86.71423577332753 121.4999105775726 10.64015468726469 119.3566375789222 42.79241942835277 1:4.788039 2:5.738868 3:2.844429 4:2.401233 
-0 -0 10.56227020101431 0 10.10451800959004 32.84058573650103 1:4.726315 2:4.333034 3:2.370357 4:4.436016 
-1.572414839134163 -3.359668091862667 3.532308937198381 1.463782469814655 2.963068881091718 3.062818182598375 1:3.120609 2:5.443516 3:6.548596 4:6.790814 
-300.2512698860871 -0 0 0 166.3600207820039 856.4474390226491 1:2.327486 2:2.434239 3:2.765843 4:3.279404 
-1.309949926107126 -1.008026562351014 1.024071506965825 2.822398509662974 2.405545577435204 0.9852741775766531 1:3.483838 2:8.073618 3:8.040433 4:4.032474 
-95.7925411542915 -465.0468146148922 807.1738622683126 110.0905718341464 296.75983930622 1939.640389033461 1:3.992414 2:3.186003 3:2.688316 4:2.355636 
-5.343432706244815 -527.8971797095533 29.27354264619914 0 13.00200959491586 0 1:2.963631 2:4.644761 3:4.654973 4:2.451637 
-43.85690226351768 -4.960180099291468 0.07368376129906726 11.46520368456421 38.99017180558467 0 1:2.469692 2:2.645613 3:7.864589 4:3.681443 
-5.531188524081675 -1.890082012546586 2.915464275604742 1.695204945584092 3.800957447470715 3.846317883067841 1:2.401233 2:6.243205 3:8.418258 4:2.619747 
-7.828456899305966 -3.344055947764228 0.9880700336130374 2.197266063759302 14.59734404960842 4.852777533362734 1:3.339764 2:10.109386 3:5.66729 4:2.900941 
-3.980617597714205 -0.2361861499915469 1.506078265835906 1.204998520737961 7.825552087636526 4.683077241158801 1:5.40194 2:4.393484 3:2.370357 4:10.071746 
-2.082482462338893 -0.05368298893720554 5.613462068230743 5.103211500850692 0.2383686176662529 0 1:5.090821 2:5.658591 3:3.816873 4:6.414266 
-0.7867733411616017 -1.086799964122076 1.299802622696133 12.95142595181705 1.275004174108508 3.208259726183777 1:8.745813 2:2.595208 3:2.645613 4:7.450663 
-11.8921540439798 -13.13656539256942 5.967209727302782 0.2712652078333918 5.954487882926587 7.624944313697039 1:5.512087 2:2.507985 3:6.138862 4:3.033124 
-0 -1.445314842487611 1.133501371331573 2.51421118715399 2.357209545131652 0 1:5.817474 2:4.551433 3:6.185163 4:6.597507 
-6.88388490207213 -0.9705937237977117 7.07900770142865 1.149977403579142 1.957558835943877 30.54748815491294 1:2.900941 2:2.434239 3:4.22251 4:12.161322 
-71.95450151056293 -81.06426829789923 19.11628100376858 50.27035223856361 102.9528688541954 188.1191408902497 1:3.08624 2:3.136368 3:4.352763 4:4.953941 
-95.26973976943138 -3.334981578103931 2.117759892040527 0 18.32994997729695 0 1:8.056127 2:3.08624 3:2.70215 4:2.672958 
-0 -0 51.14771319754628 61.40628405449458 0 15.06979190109447 1:5.426451 2:3.899731 3:2.275717 4:3.661029 
-1.952782795201133 -1.918134768835673 1.505784804359365 1.958507762264858 1.869619314632506 2.034868862214339 1:30.072901 2:4.053225 3:11.629048 4:4.97993 
-0 -0 266.7831849212309 0 0 3.04655417922026 1:4.745074 2:2.672958 3:2.921087 4:3.92262 
-6.204676365420797 -0 0 0 44.74526314567162 0 1:5.627301 2:2.963631 3:2.921087 4:5.55903 
-0 -40.41486407521199 0 0 0 2.785990453708476 1:4.629361 2:4.214437 3:3.361726 4:5.176445 
-1.786807137730201 -1.506153077576518 1.590051188674249 1.535165278987329 1.46388102856897 3.6014604865788 1:2.809625 2:2.355636 3:7.737437 4:16.13904 
-0 -81.39153393611531 258.4498952125099 0 22.64272244268595 25.6900926678056 1:4.629361 2:4.012211 3:4.412947 4:3.641147 
-0.7586850688873527 -0 3.792503504883149 33.5685829201426 0 7.392449674657672 1:5.109542 2:6.55936 3:2.370357 4:4.257952 
-233.1248786015396 -0 0 972.8762215600224 1.615922002123338 286.9064569743214 1:2.488456 2:2.401233 3:4.607169 4:3.009582 
-1.612192854602573 -0 0 2.226633889431368 4.008557845976092 1.19576092553124 1:4.802465 2:6.386824 3:4.079379 4:5.243778 
-10.99812730355593 -3.780660619944327 -0 0 9.90373599468492 0 1:3.061035 2:5.223315 3:5.936094 4:5.588471 
-0.6566819562101898 -0.3387784648844064 -0.4639628070415268 0.9071573601527565 0.9900842788813019 1.394420022132425 1:8.42617 2:6.071687 3:18.002188 4:10.068878 
-49.51583301394904 -16.51746394841453 -39.77253768414492 1.605920911064864 5.177513733877477 0 1:4.458012 2:4.266643 3:5.675614 4:3.865281 
-0.6578326553018383 -0.3394092115588083 -0.463710427234633 0.9087057596463675 0.9918576789387801 1.397918882171184 1:28.695755 2:12.460208 3:5.579898 4:3.56641 
-63.14901783259429 -33.10143831377097 -0 56.87793516278784 388.5404053566455 47.78328108284884 1:6.281204 2:4.580782 3:2.688316 4:2.761082 
-0.2812638654841904 -0.3633216966683546 -0 0.06292911060958328 2.598208466610727 0.5950146703163186 1:2.176381 2:3.584421 3:3.702415 4:21.744576 
-5799.626746359091 -2061.368400931765 -1801.605720066157 934.5091807767265 1724.747779804317 0 1:2.488456 2:2.434239 3:3.435805 4:2.761082 
-0.657745518397099 -0.3396036239208596 -0.4638673370388974 0.908398450936901 0.9919052120647652 1.397586810668714 1:11.273748 2:45.184221 3:3.4459 4:13.587239 
-44.75053903416956 -1.486649845323202 -9.567918469472392 14.77807340904882 0 0 1:3.450963 2:5.365289 3:2.314009 4:5.550735 
-0 -7.371343605628112 -0 0 13.14505725544332 1.752449153884057 1:3.702415 2:7.852887 3:2.571867 4:4.588864 
-0 -0 -1.85406771413361 0 324.0986120047665 0 1:2.300902 2:3.120609 3:3.277896 4:6.906542 
-0.6578121612653617 -0.3401058999139903 -0.4639013551733508 0.9086787012601233 0.991540517622681 1.397113034279196 1:6.786001 2:19.936333 3:3.152508 4:9.768561 
-0.5021789361242334 -0.2593058354026028 -0.3551782462904823 0.6945089372966256 0.7575914591567763 1.137617429965568 1:7.189112 2:4.476331 3:13.539425 4:10.62857 
-1.26199720795415 -1.080389891587691 -0.5895313452864832 0.8781175842050457 0.9288539104100711 1.353255120049946 1:5.478311 2:4.580782 3:12.148703 4:5.038848 
-0.6543533624949354 -0.336787441525378 -0.4623068147835756 0.912668085131813 1.005529136093694 1.394369416257465 1:9.02923 2:8.859865 3:7.923848 4:6.904847 
-1426.347405362977 -0 -62.81329941512562 552.979225780351 69.71216662658919 850.9816787286485 1:2.862655 2:4.567194 3:3.364216 4:3.258481 
-0 -1112.036954875029 -529.2967527671332 0 0 0 1:2.417451 2:2.986147 3:3.046934 4:3.250138 
-3219.136082604482 -0 -4888.677431505638 0 1422.477031162539 0 1:2.963631 2:2.507985 3:3.407935 4:2.493203 
-1353.225259006867 -161.6781676621352 -27.86758512287336 69.72383204285292 0 0 1:4.766337 2:2.417451 3:2.488456 4:2.300902 
-267.1342485851362 -0 -0 0 0 0 1:5.179403 2:2.881479 3:3.816873 4:2.792984 
-1.383826858036896 -0.08802717997892832 -2.678214071527297 2.237735995757384 0.6913975756505607 17.32019661681861 1:3.556452 2:3.204426 3:15.615481 4:3.848559 
-0.6577610604820452 -0.3395977897641445 -0.4637839966204091 0.9084447911980714 0.9920132997780682 1.397789147698488 1:21.162772 2:5.070743 3:25.322404 4:2.776811 
-0 -1639.094045924784 -10000 4.457132673551464 855.3684168247935 6082.635057463929 1:2.809625 2:2.611658 3:2.921087 4:2.59982 
-52.95064028945033 -583.1018391240465 -480.7141896774097 105.3125054727545 1002.533728171126 684.7444498455665 1:4.665871 2:3.182554 3:2.881479 4:2.576854 
-0 -14.51686773787327 -0 0 0.2141675157282478 0 1:2.420205 2:3.661029 3:6.548119 4:5.817474 
-1.586233316038956 -0.5360840074599793 -0.7334534360701868 1.56885406023231 1.161118549618876 1.338332349646676 1:7.225939 2:3.935616 3:4.437043 4:17.941089 
-0.6577953713805 -0.3396114882314074 -0.4640694724429517 0.9087681588052364 0.9912482794556789 1.399306969199012 1:2.275717 2:3.584421 3:52.088551 4:2.623744 
-0.6601864423251658 -0.3872402096412076 -1.414324873362308 1.138798960769248 1.218357580397418 1.62932863019226 1:2.355636 2:14.932687 3:6.315276 4:2.854255 
-0.5523450218828706 -9.734283804339515 -1.011875339944716 2.547841479404276 4.355200049911098 1.660094550010125 1:4.188335 2:2.341354 3:3.239613 4:18.262805 
-0.5065435484298451 -0.2604398049680064 -0.3557768445318283 0.6970247975406114 0.7607974286845854 1.063458783998983 1:5.951892 2:5.795542 3:13.442015 4:11.842936 
-0.8363369625509545 -1.191735526731691 -0.4887255192695234 1.019727052779868 1.026396908138321 1.452366690760628 1:7.419398 2:3.81606 3:18.004405 4:2.900941 
-0.657792418652254 -0.3392686110494773 -0.4636667169528111 0.9091133324838957 0.9917893827665364 1.397543938667376 1:3.136368 2:44.530723 3:9.5185 4:2.533506 
-0.1409476569135819 -0.1530567366002681 -0 0.51058880139737 0.129093826452576 0.02338303266768165 1:5.182399 2:2.314009 3:3.152508 4:12.574981 
-0 -0 -0 0 14.76578146215403 4.297183827883502 1:4.665871 2:2.218008 3:3.584421 4:8.800626 
-0.6578703151879872 -0.3394492917914652 -0.4635691300696974 0.9448666512889946 0.9919469508077514 1.397547681983996 1:6.641199 2:4.518672 3:2.826763 4:31.456561 
-0.6678579242925701 -0.1220659311748541 -0.6541396036454495 1.731004732987546 0.3984306265361671 0 1:2.619747 2:4.077507 3:11.53325 4:4.45287 
-0.6577901917391438 -0.3397948620107274 -0.4637130514431541 0.9087900951047679 0.9917275182007276 1.397935894675581 1:5.825561 2:2.370357 3:38.626747 4:9.135124 
-514.6092026651663 -9.453411658848434 -51.47573401707444 0 382.3261111815949 222.2923947072036 1:2.792984 2:5.409602 3:2.623744 4:3.203401 
-5.510517792799838 -5.868975519084937 -3.436341329041978 0.240706008172907 2.623630948057902 8.987672336052412 1:2.921087 2:2.434239 3:10.034679 4:3.865281 
-1.008097929307003 -1.086856951385235 -2.137088492528361 0.8033479527375729 0.8227356319380175 2.207916378408614 1:3.420942 2:4.806639 3:17.359555 4:4.421451 
-0.6578077224868573 -0.339428785571541 -0.4637531225949179 0.9088665276049136 0.9922226839641475 1.397822731313614 1:3.602866 2:61.81734 3:59.162639 4:3.203401 
-13.3863745254713 -0.1318750538598462 -6.935202171111338 0.9689048769736853 1.279364151826683 2.513895977373467 1:3.339764 2:2.674807 3:3.604979 4:12.352392 
-5926.370546370128 -295.0188544166339 -0 862.2625798974999 0 1795.808261790914 1:2.469692 2:3.378008 3:3.420942 4:3.221262 
-178.3227532170942 -0 -82.94842352050904 222.7423583166368 610.8544377256268 950.4121201543995 1:2.73086 2:2.941965 3:2.844429 4:5.461463 
-317.7100635185897 -0 -122.7868376615334 0 236.8930719040569 0 1:5.659212 2:2.469692 3:2.451637 4:2.300902 
-1.213173789011768 -0.3568893117695488 -1.059014898158792 0.9111975112672772 1.116911548314617 1.599256037398699 1:3.584421 2:9.281959 3:11.223773 4:3.186003 
-0.6973377325392478 -0.3392953393397091 -0.4635116814759583 0.9088837065853181 1.020065788526934 1.429793170476182 1:33.975389 2:3.832157 3:4.644761 4:5.225351 
-0 -19.22325845829009 -0 0 28.31306171978383 3.790578167642773 1:3.739805 2:9.652816 3:3.00633 4:2.385546 
-0 -13.67144250468895 -0 0 116.0006953147856 59.68161263722225 1:6.359246 2:2.70215 3:2.648708 4:4.501567 
-1.021063018109762 -202.2663625981708 -0 0 188.0169526781516 69.86657910609964 1:2.645613 2:3.378008 3:5.109542 4:2.488456 
-1.095246351924984 -1.760399307768238 -0.8697650266958171 2.198824269810502 2.330359482541614 1.940298143628691 1:6.470192 2:8.321393 3:3.740733 4:5.888628 
-239.8168193607056 -688.3625487557514 -135.9818942857052 161.0551090845562 72.4373960732142 187.4764781278268 1:3.364216 2:2.943689 3:4.91109 4:4.188335 
-0.6578121064169891 -0.3391440842180733 -0.463750405708772 0.9087928189893937 0.9913994375693059 1.398359585436878 1:2.920186 2:14.354462 3:66.634882 4:3.29789 
-668.7599098147761 -2885.284042642882 -0 1131.248294580693 2097.178614796383 1307.257513784085 1:3.3185 2:2.648708 3:3.324271 4:2.611658 
-6372.433857777382 -0 -0 0 666.7415327493699 0 1:2.240263 2:4.171695 3:2.401233 4:2.688316 
-29.56886725026817 -14.78209497146034 -8.356937221306589 2.604803595447825 5.03175476808486 5.979218436187983 1:5.550735 2:2.70215 3:7.84969 4:2.507985 
-0 -0 -0 0.9944266480093805 6.783902795726765 16.45371052018699 1:4.304387 2:7.718671 3:5.360475 4:2.54404 
-6.363578094482232 -3.122415434373587 -0.3702035306433615 8.193261787927364 8.17151451664113 0 1:4.644761 2:4.092575 3:2.745772 4:8.352562 
-1.993845212239319 -1.660914467812589 -0.3767980106855809 2.929001326527948 1.22627071776088 0.9678568705079879 1:5.489264 2:3.832157 3:5.6673 4:10.044868 
-8.148728912435258 -0.5078618989015781 -0.3350173856364748 0.3162741148805767 0.7009218198234987 21.93875341146424 1:2.59982 2:2.327486 3:16.148331 4:2.745772 
-553.836359782493 -243.4548587670805 -262.2896997276734 55.86375404916186 194.7947965587306 82.12600915890827 1:4.155339 2:5.103478 3:3.136368 4:2.370357 
-4.951983833133103 -0 -0.5237959902079057 0 7.64679622126368 26.04234454681127 1:2.385546 2:7.697119 3:3.392054 4:6.002089 
-0.6574059948213085 -0.3393115612293981 -0.463506680822714 0.9088103416170551 0.9917712014522864 1.398037306271346 1:3.600614 2:36.100582 3:20.943308 4:2.166517 
-0 -1.682654228504486 -0 16.04063127355157 19.3397471225994 2.888305432507099 1:6.036493 2:2.688316 3:5.087003 4:4.790118 
-10.92110946205976 -3.773986818577356 -1.146609094669283 18.01972730581303 14.36587952583527 13.20835790936385 1:7.048428 2:3.661029 3:6.17286 4:2.229006 
-434.1084102745647 -0 -34.98032951427846 0 9.674001995364243 1.229459038543977 1:2.648708 2:5.251828 3:2.300902 4:2.240263 
-0 -214.6422747549094 -0 0 30.97599249692906 52.25454652079031 1:6.604494 2:2.275717 3:3.514787 4:2.401233 
-74.86754603712775 -0 -0 0 1298.734847848337 205.4454887081983 1:5.189295 2:2.844429 3:3.548813 4:3.888226 
-3.981519946160453 -0.2076551639358753 -0 0 0 5.581700349069499 1:11.463857 2:2.688316 3:3.420942 4:2.451637 
-27.74702914107711 -15.42148192650563 -13.72657950359848 0 0 36.05940751825042 1:2.881479 2:4.372907 3:4.806639 4:4.788039 
-0 -14.06847497628904 -3.12688242767552 0 9.78760008138846 10.96404732419636 1:2.619747 2:3.29789 3:5.534332 4:7.634637 
-46.90495209818985 -0 -0 126.2771830202965 0 493.1926672158394 1:4.594533 2:2.469692 3:4.107884 4:2.565706 
-24.3756969206401 -0.926933022143906 -4.17908086331293 0.8519390239286208 0 5.769359661294356 1:4.570872 2:2.59982 3:9.296366 4:2.327486 
-0 -25.85392932930563 -0 0 0 0 1:2.968047 2:7.136081 3:2.355636 4:2.900941 
-49.66305190862959 -16.49941257898314 -0 0 0 64.57935218856285 1:2.469692 2:6.850792 3:3.277896 4:3.864001 
-0 -25.4634753978936 -47.27603057263646 224.0012970079023 0 0 1:3.033124 2:6.952099 3:2.70215 4:2.59982 
-0.6581073561503462 -0.3396153746755543 -0.4638245425274559 0.9088844966832303 0.9918476789065114 1.397921151192851 1:15.427081 2:7.835761 3:13.081388 4:3.852115 
-0 -214.3018679986495 -103.0264123978495 0 585.6035627010428 0 1:5.842885 2:3.186003 3:3.514787 4:3.739805 
-54.2340898699406 -33.96802341172251 -39.72842049094754 16.51550447727743 48.26438457680786 31.55665898796133 1:2.826763 2:6.695612 3:4.332455 4:2.275717 
-176.2053002237685 -2.642290447609037 -0.8283071077927836 1.430994110496234 1.153335867695467 3.564828200988496 1:2.314009 2:19.702058 3:2.688316 4:2.826763 
-0.6503012722432866 -0.3298596287036701 -0.45243661610864 0.9371395769141267 1.149892045565571 1.427605280857052 1:9.254187 2:11.004933 3:4.967109 4:3.514787 
-199.9159320801717 -0 -0 144.9932662796278 192.7881126150712 0 1:2.207257 2:3.203401 3:2.196742 4:3.250138 
-1.216806675924127 -3.19545784162562 -0.5441244643141587 1.202925244960977 1.147569049506866 3.611298923600075 1:10.055151 2:7.718671 3:2.355636 4:3.792571 
-2.493218534122128 -0.6390823453183895 -1.217088810299145 2.649968986834484 1.087401113186787 1.767761595251108 1:3.226941 2:4.992488 3:14.049762 4:2.370357 
-694.9110810221138 -57.50011537616923 -295.8712504832147 728.3295227746631 185.928998692609 730.7751487806104 1:3.751306 2:2.176381 3:2.941965 4:3.739805 
-6.281335709172277 -0.3890803706332341 -0.6721856780327421 0.5240217339392482 0.01553435351458659 0.6406129397547579 1:2.327486 2:2.207257 3:4.726315 4:15.061766 
-0.8226735373129433 -0 -1.222770439549412 0.5300382571364686 3.653934714324144 0.9666772181303287 1:3.406361 2:4.293982 3:2.900941 4:23.373341 
-669.1504054791075 -0 -0 3.546427614559775 85.52410282978749 7.439596981678235 1:2.327486 2:4.703795 3:4.601803 4:3.450963 
-0 -22.28572490302374 -18.5602159558035 0.4753481856848581 55.89812992708082 0 1:5.323219 2:3.784743 3:3.769502 4:5.92742 
-1885.478085164497 -335.7064239578046 -9.644934328945446 192.7419871026493 889.6084453656558 1589.595275186839 1:2.70215 2:4.118658 3:2.73086 4:2.176381 
-1682.641300992193 -0 -0 0 0 706.9696957164006 1:2.111255 2:2.588222 3:3.019593 4:3.392054 
-4.825143970600251 -0.4089305273996442 -0.4841649240732062 1.127370163954977 3.306043757424763 2.135131730666781 1:3.258481 2:9.017084 3:5.376525 4:7.474536 
-2.372874687439277 -0.1111003889859209 -0.8083135920743689 0.3043163076967093 0.5756788252938049 9.272091954613613 1:2.716325 2:4.033676 3:5.840794 4:12.827169 
-40.40836690698807 -0 -41.1482459837765 89.23309186569912 32.19292162071896 22.87485160254211 1:2.401233 2:2.401233 3:6.205843 4:4.501567 
-3133.321827777803 -0 -618.459552384497 0 934.2296992554533 0 1:3.450963 2:2.886409 3:3.973062 4:2.826763 
-0.6575419052031265 -0.3394307397238162 -0.4635250619291577 0.9839481322464984 0.9912802189955939 1.397524234070321 1:16.276561 2:5.426451 3:22.190477 4:2.434239 
-0.8750801408142587 -0.2955594347859096 -0.5634240287065582 2.073551571229086 1.171629999759902 1.79866120939031 1:13.780874 2:5.176445 3:5.968442 4:2.488456 
-3.340450996942944 -0.8931362788663665 -0.6216634686619406 4.068219830544993 3.085372320483685 2.414634934706962 1:5.120174 2:17.91522 3:2.528346 4:2.792984 
-0 -0.1978264618756068 -0 0.8341999192225693 5.740928094857765 0.799436887136015 1:3.258481 2:2.341354 3:2.761082 4:15.04373 
-393.6271339965393 -231.2611701523572 -312.0146205845459 201.6822842974872 81.19705137898089 57.21580396790986 1:2.941965 2:2.623744 3:5.360288 4:2.474065 
-0 -4.653232430319563 -0 0 59.6139350421212 0 1:5.640204 2:2.176381 3:4.118658 4:2.70215 
-16.03449342719469 -17.68895186944489 -108.8302508518782 0 112.4072523394678 0.02774298762063554 1:5.550735 2:3.604979 3:2.370357 4:4.257952 
-0.3545128025126631 -0 -8.502030718041491 2.505352477721666 1.911941403355823 2.396021767788259 1:2.528346 2:12.032368 3:2.327486 4:3.169046 
-1.013031372784115 -0 -1.612430623364802 1.211734698755276 2.038817724400137 3.39599287829333 1:6.036493 2:3.203401 3:2.341354 4:11.35259 
-0.6702771949726517 -0.4047323203078372 -0.9059718884809166 1.027675588423066 0.158986587552759 1.995378805284516 1:6.917854 2:3.498325 3:5.550735 4:8.532874 
-0 -95.58261047423406 -10.76854412566079 0 135.5337355879906 54.83006099542338 1:2.70215 2:3.090159 3:3.643258 4:5.4608 
-0 -11.81339976009169 -0 13.34495505512987 11.89864168904308 48.15015732225888 1:2.385546 2:2.507985 3:4.437043 4:7.704231 
-100.5945683566577 -113.257866252426 -290.4509684573048 50.43349633554298 0 0 1:5.214786 2:3.867922 3:4.22251 4:3.48221 
-0 -0 -0 0 684.694942934905 0 1:2.59982 2:3.120609 3:3.548813 4:6.281204 
-0 -2317.237088166299 -159.9195627790141 1953.798643259162 1817.66359057182 1461.224109877892 1:2.980566 2:3.364216 3:3.56641 4:3.08624 
-923.7392468869241 -229.2464871275028 -227.2212741588753 12.26744071023271 260.9352270000453 161.3981581813748 1:2.528346 2:2.881479 3:2.229006 4:3.311406 
-1.732781639445844 -1.43613973517923 -0.4948090359753232 3.32648844932443 0.8148269196445459 3.296225951165146 1:3.11425 2:2.980566 3:7.266492 4:10.683301 
-2.274814806038834 -0.004852129855866937 -0 1.829888852402379 3.633392050426646 0 1:2.792984 2:2.674807 3:7.75528 4:7.748065 
-32.18057899160755 -0 -0.02652082120011751 2.012429166621863 0 13.01113621926634 1:9.024276 2:2.314009 3:2.474065 4:3.951613 
-1.918301833825865 -1.878553005079442 -0.140156298683989 2.200248059944473 0.5585283741532541 7.600572204993489 1:13.941868 2:3.604979 3:2.826763 4:2.549612 
-681.870429676836 -391.3000913168704 -217.0190374085801 2623.476797006538 443.2307913003142 712.8541623229434 1:3.569456 2:3.169046 3:2.528346 4:3.3185 
-0 -2399.187071047931 -0 933.7083812850167 0 3847.330416827892 1:3.384432 2:2.716325 3:2.451637 4:2.401233 
-54.48239813330165 -289.2800031440985 -0 0 231.9717583234062 61.29590418636387 1:6.75235 2:2.776811 3:3.378008 4:3.324271 
-12.80242022232364 -0 -10.62354425027659 6.478531911757575 428.6895819945705 0 1:2.507985 2:3.800259 3:2.716325 4:5.68103 
-4.384177352364539 -83.59282740545061 -0 90.01127317436077 0 69.65055300787328 1:5.579898 2:2.595208 3:4.480526 4:4.012211 
-0.882560788345593 -4.254231899991792 -0.4640540982242533 1.014480312871421 0.993371408609228 1.398340354870393 1:2.263605 2:34.319638 3:3.683317 4:4.062672 
-0 -4.68670506397097 -0 0 0 184.4219519579974 1:2.469692 2:2.844429 3:3.29789 4:5.109542 
-0.5380028927703115 -0.2937333674908997 -0.4455064480811822 1.034480972122157 0.9643648773671653 1.43769233072779 1:2.300902 2:2.54404 3:9.652816 4:13.839052 
-0.7585821839006666 -0 -1.882797947835699 1.428239797907641 0 0 1:2.451637 2:11.900067 3:3.337356 4:2.576854 
-0.7637360639329703 -0 -0.6018158139963972 0.5433414312007613 0.8783312768592646 3.579781122970467 1:13.505877 2:5.120174 3:2.300902 4:4.553183 
-69.39174538631065 -34.3155723929131 -0 1.615172421923862 13.32044226507329 33.10275586826981 1:7.775892 2:3.034015 3:2.528346 4:2.434239 
-16.46318581069862 -15.50451131764443 -1.768665259415342 6.491202575889485 9.817002668425719 17.98816421408706 1:3.954136 2:2.63609 3:3.29789 4:7.976651 
-1024.866147381892 -0 -232.787050193531 0 150.1474716602773 0 1:5.171651 2:3.239613 3:2.826763 4:3.203401 
-30.54683438926634 -31.77074143099208 -5.244705499475176 17.65309493647907 20.2670807899432 0.09557136817257217 1:2.355636 2:5.165377 3:6.652234 4:3.384432 
-0 -108.8930431867232 -75.86458324501947 0 9.993136600534109 63.64360278743552 1:6.039185 2:2.370357 3:2.417451 4:3.852115 
-0.3672497836812877 -4.551261193335374 -0.3612678654477332 1.64101933016606 5.178022201823581 0.8667912455733392 1:3.250138 2:3.090159 3:2.370357 4:21.170815 
-0.6843261534345675 -0.3405837953846935 -0.4609485910273781 0.9061365325851635 0.988266982072081 1.402253732655995 1:7.112904 2:8.42331 3:14.71025 4:2.341354 
-7465.113918174149 -411.4985684585499 -0 194.5609577644205 819.2016467485449 0 1:2.588222 2:2.70215 3:3.964811 4:2.341354 
-0 -0.1198068385361678 -0 1.098554767806657 3.250758272438726 1.159554601096482 1:3.48221 2:2.776811 3:2.240263 4:12.00131 
-34.67802874720703 -0.9241635376736814 -0 0 0 0 1:2.488456 2:5.647146 3:2.844429 4:6.98997 
-1.396512448644729 -0.3344261675859022 -0.5182609655116703 0.8122254286064746 0.6177840661582503 1.196369694408484 1:2.955757 2:2.385546 3:5.312726 4:23.441297 
-24.43579462681855 -92.40504857674976 -0 25.01748944996063 0.4995010992991148 0 1:2.147378 2:3.499403 3:7.208114 4:3.420942 
-0.200933057830142 -6.995424639560105 -0.4879809691445747 0.6229380545037849 0.5100591981581295 3.774549378488422 1:15.235171 2:4.09629 3:2.218008 4:3.059534 
-5888.858315438758 -0 -0 605.7059672906149 0 88.57969531094869 1:2.571867 2:2.341354 3:3.498325 4:2.327486 
-0 -0 -33.76360258890377 0 0 0 1:2.571867 2:3.250138 3:6.871173 4:4.141623 
-1.02471295379119 -0.2647577298359535 -2.306613751425627 0.6908756619721568 0.7582730325566974 0.3567414774931864 1:3.569456 2:3.723978 3:7.281951 4:14.748809 
-963.9507457242217 -0 -2124.164285730015 0 154.8597302122395 454.8287450969413 1:2.900941 2:2.761082 3:2.341354 4:2.469692 
-15.56699234804013 -24.36646161528746 -0 0 7.481216172341567 0 1:3.239613 2:4.857677 3:7.160748 4:4.079379 
-3.388132024793009 -0 -15.85569136427052 4.847945469881898 1.814181547471059 5.654665086032096 1:3.337356 2:2.385546 3:11.505521 4:2.73086 
-0 -0 -21.97080011758847 23.04127752806722 0 0 1:3.498325 2:7.474704 3:4.033676 4:2.275717 
-113.0224378058151 -76.30350259189348 -0 7.530854746415319 0 13.65018871802356 1:2.931835 2:2.300902 3:6.97267 4:2.451637 
-0 -0 -2.8288319478366 0.6218061078698205 7.713452443856921 11.8524976902889 1:2.716325 2:5.433321 3:4.625797 4:6.810737 
-0 -0 -36.09466242220348 5.503742153324332 45.15439538584662 14.98194488666467 1:4.840411 2:7.178268 3:2.571867 4:2.745772 
-575.2084176763286 -21.39275678873642 -193.8383930617464 16.40566209949193 234.6207553659205 0 1:5.947216 2:4.165217 3:3.136368 4:2.862655 
-0.6701212046377327 -0.3447691841841927 -0.4600617858504308 0.9689884062297286 0.9513589006060801 1.606212881525918 1:6.779277 2:8.996609 3:7.300992 4:0.005507821 
-1093.666915361085 -0 -0 112.7018604379239 0 838.2141645125957 1:2.0037477 2:3.954136 3:2.469692 4:2.488456 
-0 -1.958076582916028 -0.4782397236678068 6.143332200924141 8.491897470386661 0 1:10.03667 2:2.451637 3:4.928579 4:2.881479 
-4.109265123685944 -0 -0.7355858103038408 0 11.24909123292472 6.555879686942664 1:4.092575 2:10.026974 3:3.169046 4:3.169046 
-5.830793531475904 -2.635884004163688 -0.4615430230115533 0.2726701772086189 3.411044319282332 3.166209993074458 1:11.060218 2:2.488456 3:2.196742 4:2.229006 
-0 -0 -25.77128307086828 0 18.80430643347617 0 1:4.033676 2:5.888628 3:3.483838 4:2.341354 
-1.160419603051049 -0.5641242890862004 -0.37059716414669 0.7155990040116396 0.8169427658422452 1.491267773206353 1:2.661609 2:9.331741 3:4.290629 4:9.602227 
-0.6627766265017447 -0.3639805281790675 -0.4692441174548905 0.9305459676851793 1.023478953193673 1.405606104026592 1:2.288143 2:17.029149 3:2.745772 4:8.052247 
-0.6603616062493713 -0.3396489009091767 -0.4640527561566927 0.9356712865147261 0.9920686362605667 1.398225628352302 1:8.750685 2:23.943114 3:2.963631 4:2.59982 
-1.853157244960648 -0.9002988564430825 -0.3775997505869799 0.769956030676371 1.080797964156496 1.417247503011034 1:2.251792 2:5.56947 3:10.517657 4:6.036094 
-4.102279459759817 -0 -0.4042389539026381 0 15.61710025953864 11.65780663446214 1:10.398704 2:2.469692 3:4.276177 4:3.203401 
-0 -43.25800761108754 -0 0 44.97026934441433 170.5496767844052 1:6.609983 2:3.917486 3:3.090159 4:2.186453 
-674.7208605811796 -147.041460489216 -0 498.3411703009603 0 0 1:3.2156 2:2.437603 3:2.102635 4:3.656405 
-0 -82.99863250886484 -0 0 0 0 1:5.504739 2:2.623744 3:3.935616 4:4.155339 
-0.6280647316909624 -0.3023966649092878 -0.4444582633577125 1.078769358526968 1.242575336998337 1.825983582574479 1:12.951013 2:1.4501343 3:7.533141 4:2.385546 
-0.6574095924389121 -0.3394375525480237 -0.464044020509841 0.908658273565106 0.9919534842289621 1.39852669937486 1:3.105211 2:8.763217 3:2.844429 4:51.081689 
-14.2736363144696 -0 -0 4.000071549821295 87.86747608883026 30.43653331420903 1:3.08624 2:5.243778 3:3.061035 4:5.223315 
-0 -0.7069790856649993 -0.4622479648237763 -0.5984738561645594 0.3373744355316798 1.158085066426231 1:5.936094 2:5.588471 3:8.42617 4:6.071687 
-1.255453497938887 -0.06908134935502472 -0.04144906216161581 -1.086766719417397 0.7552389468932341 1.375280178462815 1:18.002188 2:10.068878 3:4.458012 4:4.266643 
-14.60662756058641 -0 -0 -0 6.723058947832235 17.88040445660444 1:5.675614 2:3.865281 3:2.469692 4:7.009851 
-1.201242413438388 -0.02705522302278329 -0.001719200620688366 -1.090873982978998 0.4433171459133592 1.333435812043289 1:3.384432 2:5.109542 3:28.695755 4:12.460208 
-0 -5.742847243321171 -0 -3.962133363475891 26.68578032338739 0 1:5.579898 2:3.56641 3:6.281204 4:4.580782 
-9823.728010142286 -72.10997025443071 -207.7846469086869 -245.169977384776 728.5681767647191 0 1:2.688316 2:2.761082 3:2.176381 4:3.584421 
-8.375550510262828 -3.743647938052004 -0.006201847994809717 -1.132028482202034 0.5024824054781015 1.311563865399521 1:3.702415 2:21.744576 3:2.488456 4:2.434239 
-1.201242413438298 -0.02709250086291781 -0.001874309785790451 -1.091577503516984 0.443950056976008 1.333386640339395 1:3.435805 2:2.761082 3:11.273748 4:45.184221 
-0.3092522222180352 -0.4772881936597165 -0 -0.2747335890344547 0.5184676491053313 1.157307157006001 1:3.4459 2:13.587239 3:3.450963 4:5.365289 
-15.16230428679471 -16.13751233886536 -0 -0 6.069672209175984 6.580266702692065 1:2.314009 2:5.550735 3:3.702415 4:7.852887 
-516.5732701254947 -34.67070695874425 -635.9664672283427 -124.5959412596078 223.7387966489967 0 1:2.571867 2:4.588864 3:2.300902 4:3.120609 
-1.210266511111184 -0.02752065649572477 -0.006342803596973479 -1.086634102668684 0.4616988439793089 1.371622439963437 1:3.277896 2:6.906542 3:6.786001 4:19.936333 
-1.976401074480262 -3.506221896458033 -0 -0.3575808697279211 1.087043247867711 1.392421437375972 1:3.152508 2:9.768561 3:7.189112 4:4.476331 
-0.9757920766255648 -0.02217457627286656 -0.008122560969652432 -0.8873078261245028 0.355327299638899 2.0740158664262 1:13.539425 2:10.62857 3:5.478311 4:4.580782 
-1.208334622765062 -0.02659816077859439 -0.002698990375954609 -1.091883297471439 0.4524594186873449 1.33887812794613 1:12.148703 2:5.038848 3:9.02923 4:8.859865 
-0.9819896756394011 -0.1945101890314136 -2.415338029539384 -1.340491552017596 0 12.52897276880705 1:7.923848 2:6.904847 3:2.862655 4:4.567194 
-0 -1988.283519181355 -0 -0 0 0 1:3.364216 2:3.258481 3:2.417451 4:2.986147 
-0 -5541.827551877436 -825.3308602636174 -262.8782662473761 5841.820230691706 8.003728438281644 1:3.046934 2:3.250138 3:2.963631 4:2.507985 
-1328.567061518732 -296.4939221826766 -177.2198445363992 -205.8435584520356 226.662715261364 0 1:3.407935 2:2.493203 3:4.766337 4:2.417451 
-0 -0 -303.7010673627492 -0 147.4350476896258 3426.873630274819 1:2.488456 2:2.300902 3:5.179403 4:2.881479 
-202.9112425863005 -0 -0 -675.2771414810877 1026.340920528273 920.3912292767959 1:3.816873 2:2.792984 3:3.556452 4:3.204426 
-1.201392757657507 -0.02713485359760393 -0.001971321436182782 -1.155169606082548 0.4433183681702702 1.333496560152034 1:15.615481 2:3.848559 3:21.162772 4:5.070743 
-1.322580565859927 -1.905994639141866 -0.002190238453186666 -1.090272882048599 0.4431049040109726 1.375886770679573 1:25.322404 2:2.776811 3:2.809625 4:2.611658 
-0 -0 -533.1399657787553 -0 1200.837883888853 0 1:2.921087 2:2.59982 3:4.665871 4:3.182554 
-2301.692520605868 -672.036712881662 -0 -0 0 6524.746389980099 1:2.881479 2:2.576854 3:2.420205 4:3.661029 
-0 -0.8292195021131116 -0.3590497880096333 -1.303869310151798 0.3917560617709604 0 1:6.548119 2:5.817474 3:7.225939 4:3.935616 
-1.430151086688479 -0.8292882839225949 -1.022136855049367 -4.207309334610563 1.372753300159782 2.342001441775645 1:4.437043 2:17.941089 3:2.275717 4:3.584421 
-1.201437391027179 -0.02705388365856032 -0.001737021785739423 -1.091183855498373 0.4434355779868226 1.333078994165431 1:52.088551 2:2.623744 3:2.355636 4:14.932687 
-0 -62.68262614800772 -0 -36.48379658427125 40.49595434879481 72.40373231885286 1:6.315276 2:2.854255 3:4.188335 4:2.341354 
-1.181928906541473 -0.5103518877745356 -0.6771947174534699 -1.077375355097832 0.7194703487531009 1.351766999224908 1:3.239613 2:18.262805 3:5.951892 4:5.795542 
-0.9800103761333876 -0.02164776817691927 -0 -0.8872605294570181 0.3996134050273674 1.35715166246883 1:13.442015 2:11.842936 3:7.419398 4:3.81606 
-1.201256740586843 -0.02712095347914295 -0.001686278468771285 -1.091625076433264 0.4432737257706066 1.333406834294341 1:18.004405 2:2.900941 3:3.136368 4:44.530723 
-1.979934569974328 -6.625290252541658 -1.603285048770078 -5.674101680065814 2.651273817264043 5.196046121792905 1:9.5185 2:2.533506 3:5.182399 4:2.314009 
-0.9108918543886642 -0.1563529477355503 -2.240993057351162 -1.552217582286663 0.6474874794376378 1.262574268814641 1:3.152508 2:12.574981 3:4.665871 4:2.218008 
-0 -0 -1.656535316667171 -0 2.077791056517103 0 1:3.584421 2:8.800626 3:6.641199 4:4.518672 
-5.039806062105167 -0.1233237148653615 -0.001687212629335577 -1.181917891038444 0.443349116858962 1.356202084185436 1:2.826763 2:31.456561 3:2.619747 4:4.077507 
-0.5759464582711202 -0 -0 -1.090709538802904 1.711270295599367 0.553053477220476 1:11.53325 2:4.45287 3:5.825561 4:2.370357 
-1.201247769548199 -0.02704439238693762 -0.001829949942828035 -1.090912383931076 0.4435022524566428 1.333473761972048 1:38.626747 2:9.135124 3:2.792984 4:5.409602 
-0 -7963.711704916182 -0 -0 1988.522920062702 0 1:2.623744 2:3.203401 3:2.921087 4:2.434239 
-3.402473469669283 -1.145238022733253 -2.081751936187966 -1.987899047817281 1.252353640424192 4.641789887407347 1:10.034679 2:3.865281 3:3.420942 4:4.806639 
-1.201208834771932 -0.02726501090918237 -0.001734370555133091 -1.091214922362681 0.4431436201524286 1.333721563267658 1:17.359555 2:4.421451 3:3.602866 4:61.81734 
-1.201249570263376 -0.0272523527809394 -0.002258453705576813 -1.091227502144541 0.4430030531071492 1.333436500029252 1:59.162639 2:3.203401 3:3.339764 4:2.674807 
-2.542927431934573 -0.03674359668197773 -5.671958837516347 -2.771566974270879 0.6395035588193715 1.286993448086938 1:3.604979 2:12.352392 3:2.469692 4:3.378008 
-0 -0 -0 -0 0 346.0325432702207 1:3.420942 2:3.221262 3:2.73086 4:2.941965 
-0 -8.051357812262824 -7.234381468174038 -0 0 0 1:2.844429 2:5.461463 3:5.659212 4:2.469692 
-0 -0 -0 -1.760066927565013 0.5061786046226719 18.69388505785775 1:2.451637 2:2.300902 3:3.584421 4:9.281959 
-1.201186857201334 -0.02688565497875134 -0.001719641532037075 -1.091386387527669 0.9484521240571352 1.333196865294184 1:11.223773 2:3.186003 3:33.975389 4:3.832157 
-1.23412078615135 -0.3865576037137948 -0.4640368496534637 -3.056754980629099 5.612040710175861 9.590312296544166 1:4.644761 2:5.225351 3:3.739805 4:9.652816 
-149.3585394520714 -0 -0 -19.82852795955717 67.4673413499372 0 1:3.00633 2:2.385546 3:6.359246 4:2.70215 
-269.5670532508374 -0 -55.30165383818373 -0 0 0 1:2.648708 2:4.501567 3:2.645613 4:3.378008 
-3.158714404950234 -1.418024646147403 -0 -1.70751835998006 14.97783466564281 1.937655159711646 1:5.109542 2:2.488456 3:6.470192 4:8.321393 
-32.67989689272007 -0 -126.6306790332271 -81.41884799355775 88.43415527980623 171.8009737117679 1:3.740733 2:5.888628 3:3.364216 4:2.943689 
-1.552826435432384 -0.09528422070580181 -0.07454388784993189 -1.483908752214903 0.9635147730065048 1.272233335930248 1:4.91109 2:4.188335 3:2.920186 4:14.354462 
-1.201743423485294 -0.02701926904124713 -0.001871725391246359 -1.091207195287353 0.443007578869054 1.333233966232808 1:66.634882 2:3.29789 3:3.3185 4:2.648708 
-1083.696558498472 -0 -0 -292.0097376522664 0 0 1:3.324271 2:2.611658 3:2.240263 4:4.171695 
-0 -170.4055789153985 -0 -0 0 209.4168857200056 1:2.401233 2:2.688316 3:5.550735 4:2.70215 
-0 -0.7057870720810919 -0 -0.964969204289453 0.6877077947703887 0.07826569954386459 1:7.84969 2:2.507985 3:4.304387 4:7.718671 
-36.78170232032463 -40.1932235395503 -11.91411696586522 -124.259047035364 0 136.5783786746555 1:5.360475 2:2.54404 3:4.644761 4:4.092575 
-1.191235417591586 -0 -5.056850771587011 -0 3.748916092563107 0 1:2.745772 2:8.352562 3:5.489264 4:3.832157 
-3.910846440172661 -0.2169552730005908 -0 -0 0 1.377710470735766 1:5.6673 2:10.044868 3:2.59982 4:2.327486 
-1.953081010482272 -0.8417122963515521 -0.210958537466079 -1.017397653429629 0.5178161617294892 2.463161574706869 1:16.148331 2:2.745772 3:4.155339 4:5.103478 
-0 -10.60168396728663 -0 -0 0 0 1:3.136368 2:2.370357 3:2.385546 4:7.697119 
-1.112154116387695 -0.02493721437849816 -0.001882878063153626 -1.007910732232923 0.4104790756527054 1.234588203204921 1:3.392054 2:6.002089 3:3.600614 4:36.100582 
-1.265247047464378 -0.03123147195909598 -0.02677050204213782 -1.090338421899709 0.4528912143902771 1.346218516073098 1:20.943308 2:2.166517 3:6.036493 4:2.688316 
-12.18191961750725 -0 -0 -0 0.6469797131634568 4.739916311525572 1:5.087003 2:4.790118 3:7.048428 4:3.661029 
-16.97946531025623 -0 -23.61983529072256 -14.46238932329417 4.713414233772374 88.84997499850684 1:6.17286 2:2.229006 3:2.648708 4:5.251828 
-228.7712708291648 -0 -0 -22.46687869862554 0 0 1:2.300902 2:2.240263 3:6.604494 4:2.275717 
-1.047841869120544 -0.9741481322772118 -0 -0 1.591319246388625 1.448328492615315 1:3.548813 2:3.888226 3:11.463857 4:2.688316 
-0 -0 -351.6514839056101 -278.980571862278 168.4653248543895 1779.456917181345 1:3.420942 2:2.451637 3:2.881479 4:4.372907 
-60.65583224299431 -0 -80.98155889663111 -0 30.03579821885741 278.8501741335621 1:4.806639 2:4.788039 3:2.619747 4:3.29789 
-0 -3.310506429169894 -5.556174973250617 -0.6378516176628639 0.2358330622720148 8.188972754636794 1:5.534332 2:7.634637 3:4.594533 4:2.469692 
-0 -0 -55.02544700013129 -0 0 219.0815965994238 1:4.107884 2:2.565706 3:4.570872 4:2.59982 
-1.001243730156759 -0 -16.16485856087785 -0 0 4.571523638018544 1:9.296366 2:2.327486 3:2.968047 4:7.136081 
-0 -196.9016192897313 -73.94745516380929 -42.3861125508305 2.051281304604237 92.18034399222468 1:2.355636 2:2.900941 3:2.469692 4:6.850792 
-0 -0 -28.3164389556216 -6.547661420590659 3.988451172524549 0 1:3.277896 2:3.864001 3:3.033124 4:6.952099 
-1.212169072691511 -0 -0 -0.808894149382711 1.239948409340073 1.101011113060272 1:2.70215 2:2.59982 3:15.427081 4:7.835761 
-0.9445101070460946 -0 -0 -1.936902314729816 1.487768476894728 1.461359319073097 1:13.081388 2:3.852115 3:5.842885 4:3.186003 
-0 -52.06529212084779 -56.85060140620524 -21.04767960398802 25.64873042782859 28.96697912889361 1:3.514787 2:3.739805 3:2.826763 4:6.695612 
-1.149751084521988 -1.331823343976017 -1.112352959172571 -2.841118295565961 2.654841701565297 1.406252467735168 1:4.332455 2:2.275717 3:2.314009 4:19.702058 
-1.288545874569313 -0.1306751870226497 -0.2632555884534905 -2.027585847011004 0.01417543165105155 12.86546605857319 1:2.688316 2:2.826763 3:9.254187 4:11.004933 
-41.04714861227009 -0 -88.1338106860161 -106.5618638019397 101.5914189677745 0 1:4.967109 2:3.514787 3:2.207257 4:3.203401 
-1.901160314420977 -0.1033904200357414 -1.566854536608449 -1.495593106205584 0.9365716050061865 1.446146695034808 1:2.196742 2:3.250138 3:10.055151 4:7.718671 
-0 -0 -35.14263332196877 -54.84705335597628 160.5331444633914 57.67724578384086 1:2.355636 2:3.792571 3:3.226941 4:4.992488 
-1.205844772102518 -0 -0 -1.129460648911009 1.049826969428011 0 1:14.049762 2:2.370357 3:3.751306 4:2.176381 
-547.5778461954926 -964.4017184597864 -0 -2013.616469099823 218.9513130979969 420.5932878316676 1:2.941965 2:3.739805 3:3.56641 4:3.203401 
-1.590599285171704 -0 -3.605769672797098 -12.29925327325105 105.5158918004959 32.3759542118444 1:5.68103 2:5.179403 3:2.327486 4:2.207257 
-0.4765842195563422 -0.4113991986559237 -0.8978405896278322 -0.460245275992069 0.5976665446667156 0.7561203472307861 1:4.726315 2:15.061766 3:3.406361 4:4.293982 
-1.615493212955667 -1.796692648515117 -0.07769320157721521 -0.8463553558644672 0.334334350866514 1.036479220568604 1:2.900941 2:23.373341 3:2.327486 4:4.703795 
-0 -135.0461518086088 -0 -7.22542079305873 0 0 1:4.601803 2:3.450963 3:5.323219 4:3.784743 
-28.31225472682104 -0 -74.72034499931846 -0 26.46232544740884 56.58301056000791 1:3.769502 2:5.92742 3:2.70215 4:4.118658 
-53.24461839712227 -234.4725620422773 -0 -0 61.1387756292375 62.0609098581478 1:2.73086 2:2.176381 3:2.176381 4:6.333766 
-0 -0 -0 -32.45480827628655 0 0 1:2.716325 2:6.65052 3:2.111255 4:2.588222 
-9.402422748874386 -17.18897642229267 -0.5483095875224765 -0 1.546390744468511 12.11261821836676 1:3.019593 2:3.392054 3:3.258481 4:9.017084 
-0 -6.745181431020328 -16.58053371956008 -0 13.22780499281084 29.59278629689231 1:5.376525 2:7.474536 3:2.716325 4:4.033676 
-2.789527204136464 -0.007856968189042317 -0 -0.2271221576260016 0.4399155124700496 0.6600493460488447 1:5.840794 2:12.827169 3:2.401233 4:2.401233 
-60.28106238805511 -21.22035731409699 -18.19360585008726 -65.63984185959883 44.12197130258912 12.08390567172803 1:6.205843 2:4.501567 3:3.450963 4:2.886409 
-0.9133039773997889 -0.3910272875679042 -0.3573738942458878 -1.886565534126113 0.8635897559272406 1.436108814793984 1:3.973062 2:2.826763 3:16.276561 4:5.426451 
-1.201489746293343 -0.02714138787973935 -0.002057252603670068 -1.091489820007696 0.4460481713616193 1.333328392031679 1:22.190477 2:2.434239 3:13.780874 4:5.176445 
-1.474019784298121 -3.418094605292302 -0.3807175638723935 -2.019727483834405 0.9404896816247161 1.292755924909166 1:5.968442 2:2.488456 3:5.120174 4:17.91522 
-1277.102644260282 -0 -0 -1140.065410546093 1031.960178699894 0 1:2.528346 2:2.792984 3:3.258481 4:2.341354 
-0.9772146847997707 -0 -55.09055797690759 -0.8449850997996061 0.8344635326683489 1.114075774057288 1:2.761082 2:15.04373 3:2.941965 4:2.623744 
-0 -0 -3.036579107467374 -0 0 47.54954856049679 1:5.360288 2:2.474065 3:5.640204 4:2.176381 
-0 -0 -58.91387119318087 -0 0 0 1:4.118658 2:2.70215 3:5.550735 4:3.604979 
-1.835782608361534 -0.008716578870395257 -0.9744820829373466 -1.656917910655068 1.821565815942317 2.497549057206963 1:2.370357 2:4.257952 3:2.528346 4:12.032368 
-0 -0 -17.84425922883317 -0 0 0 1:2.327486 2:3.169046 3:6.036493 4:3.203401 
-2.188271680562317 -0 -1.913068351446937 -0.7837027720396602 1.094848957903862 2.080667559479263 1:2.341354 2:11.35259 3:6.917854 4:3.498325 
-0 -0 -0 -6.504577765222127 13.3339654989898 0 1:5.550735 2:8.532874 3:2.70215 4:3.090159 
-0 -0 -19.47393232813475 -0 70.21840247919205 0 1:3.643258 2:5.4608 3:2.385546 4:2.507985 
-0 -2.481672668488418 -0 -0 0.9230705648515352 6.19733678480358 1:4.437043 2:7.704231 3:5.214786 4:3.867922 
-0 -71.23218377202417 -45.63159753037844 -20.09816879545722 0 78.54843419869435 1:4.22251 2:3.48221 3:2.59982 4:3.120609 
-0 -0 -0 -38.49860443541451 0 676.2682507200351 1:3.548813 2:6.281204 3:2.980566 4:3.364216 
-1209.411985978923 -0 -0 -2354.400339535613 0 0 1:3.56641 2:3.08624 3:2.528346 4:2.881479 
-1276.403739642035 -5169.598470050783 -0 -378.252629377066 0 710.0467461722149 1:2.229006 2:3.311406 3:3.11425 4:2.980566 
-0.1912780237939407 -0.2377447243196738 -0 -0.2495636110015059 0 2.087818279144908 1:7.266492 2:10.683301 3:2.792984 4:2.674807 
-1.116522183588143 -0 -0 -1.052640289996428 0.5095084086940367 1.268304676292921 1:7.75528 2:7.748065 3:9.024276 4:2.314009 
-1.11511855718311 -0 -2.943633926582199 -2.841058232567458 0.612378447527847 1.455597886839761 1:2.474065 2:3.951613 3:13.941868 4:3.604979 
-1694.82622004266 -5356.934018997624 -239.6646413832483 -767.5005996696144 2609.752018787947 1192.062775621168 1:2.826763 2:2.549612 3:3.569456 4:3.169046 
-0 -4399.782567879541 -0 -0 0 0 1:2.528346 2:3.3185 3:3.384432 4:2.716325 
-0 -242.1859573507652 -0 -650.3554712612803 0 283.9866379357114 1:3.378008 2:3.324271 3:2.507985 4:3.800259 
-5.402027218382823 -0 -0 -14.87516944153706 22.98130682851037 0 1:2.716325 2:5.68103 3:5.579898 4:2.595208 
-1.112681698491511 -0.02527449191392661 -0.001299583531702508 -1.043905680273624 0.4105953033026379 1.234658704549932 1:4.480526 2:4.012211 3:2.263605 4:34.319638 
-0 -0 -7.424428603096779 -0 0 0 1:3.683317 2:4.062672 3:2.469692 4:2.844429 
-7.068988185818248 -203.3638983804657 -42.32607541770058 -37.55624050687587 0 55.87600190026595 1:3.29789 2:5.109542 3:2.300902 4:2.54404 
-1.201767937177702 -0.03918991025304991 -0.003143374112638818 -1.091221606644947 0.4433242093322148 1.33350151732961 1:9.652816 2:13.839052 3:2.451637 4:11.900067 
-2.502997519937608 -0.05606151632709473 -1.680816572893239 -1.137437072622471 1.631447557318013 1.041938656129495 1:3.337356 2:2.576854 3:13.505877 4:5.120174 
-6.008493620833899 -8.552598681603241 -0 -17.84949175863072 0 7.459325174630188 1:2.300902 2:4.553183 3:7.775892 4:3.034015 
-6876.039680642174 -2614.849547259031 -1243.486876821876 -675.7454612339151 0 144.0485769060287 1:2.528346 2:2.434239 3:3.954136 4:2.63609 
-0 -5.737453267850183 -0.170276704399302 -6.226455815497428 19.62682148582242 41.1025499390071 1:3.29789 2:7.976651 3:5.171651 4:3.239613 
-385.3802732434382 -0 -554.9597742223996 -0 408.918317072713 23.30467083024979 1:2.826763 2:3.203401 3:2.355636 4:5.165377 
-13.21650357379344 -0 -0 -11.60893427721835 2.801966282960035 0 1:6.652234 2:3.384432 3:6.039185 4:2.370357 
-3809.986719060584 -0 -0 -232.5791902979912 0 0 1:2.417451 2:3.852115 3:3.250138 4:3.090159 
-1.186415908152543 -0.6737092639459308 -0.1491388486551823 -1.077668763464349 0.4337442162069589 1.316670404258842 1:2.370357 2:21.170815 3:7.112904 4:8.42331 
-0.9488368921737259 -3.720830012772247 -0.01230582518936857 -1.853272166502801 0 35.18136005862974 1:14.71025 2:2.341354 3:2.588222 4:2.70215 
-1198.867173826986 -0 -46.2883057191839 -0 0 328.687117038465 1:3.964811 2:2.341354 3:3.48221 4:2.776811 
-0.631106133094215 -0.02396440822651166 -0.1431477818832218 -1.058066501405773 1.965292146939392 1.128948037724019 1:2.240263 2:12.00131 3:2.488456 4:5.647146 
-2.309174826796307 -11.57192413915426 -28.38824074518125 -189.9412785103272 18.12417970742473 0 1:2.844429 2:6.98997 3:2.955757 4:2.385546 
-1.789920151601042 -0 -0.05543420032373414 -0.7797327728849391 0.3053295996318605 0.9289205984597393 1:5.312726 2:23.441297 3:2.147378 4:3.499403 
-2.386715487031161 -0.08822739149967307 -0.1467981571944146 -1.222917347571182 0.4670901139210785 1.311848506552333 1:7.208114 2:3.420942 3:15.235171 4:4.09629 
-1926.818176559714 -0 -165.9568143324953 -0 650.1377815690224 985.111964729358 1:2.218008 2:3.059534 3:2.571867 4:2.341354 
-0 -0 -0 -962.4849472461146 0 3527.864899558695 1:3.498325 2:2.327486 3:2.571867 4:3.250138 
-19.54141773580057 -0 -3.95391149566343 -0 14.33397720874155 13.898990392662 1:6.871173 2:4.141623 3:3.569456 4:3.723978 
-0.6147814760507215 -0.01079581944190969 -0 -1.035745140261144 0.2825732233817072 1.063974199020416 1:7.281951 2:14.748809 3:2.900941 4:2.761082 
-118.6599974878782 -308.3104198369777 -30.39809981471418 -0 563.4651667466643 0 1:2.341354 2:2.469692 3:3.239613 4:4.857677 
-43.24818778894569 -0 -0 -0 0 0 1:7.160748 2:4.079379 3:3.337356 4:2.385546 
-2.362884316239822 -0 -1.755915258327893 -0.9377781598417785 1.593883896819334 1.350767303801921 1:11.505521 2:2.73086 3:3.498325 4:7.474704 
-124.6909170936059 -405.0627963543318 -15.12883621529922 -193.8749392673284 0 118.5786239065888 1:4.033676 2:2.275717 3:2.931835 4:2.300902 
-0 -2.22172534196783 -0 -0 0 87.85747420487363 1:6.97267 2:2.451637 3:2.716325 4:5.433321 
-2.695908743164588 -0 -2.574551073112471 -1.804527336730652 3.548111592364626 0.3081342445386069 1:4.625797 2:6.810737 3:4.840411 4:7.178268 
-100.6928972901427 -6.185356888417213 -98.60886360023544 -151.8775821707546 119.8878483318024 78.8314013095319 1:2.571867 2:2.745772 3:5.947216 4:4.165217 
-5.511412438822442 -1.366316721517078 -0.2704009283466534 -4.603644832049515 7.723833320945726 1.170225379586219 1:3.136368 2:2.862655 3:6.779277 4:8.996609 
-0.2094100675061625 -0.1020467790400965 -0 -1.825222604480542 0.06099536977350916 0 1:7.300992 2:0.005507821 3:2.0037477 4:3.954136 
-34.2905205562688 -2.277582203876712 -31.08122688981388 -0.9485611177098597 17.83469330958318 12.76147495871498 1:2.469692 2:2.488456 3:10.03667 4:2.451637 
-0 -0 -0.9785627031242873 -4.52236529156344 4.936149663738981 0.04870553788790931 1:4.928579 2:2.881479 3:4.092575 4:10.026974 
-0.008411996917101436 -0 -69.29227028925116 -4.496271340685007 3.862479765810196 0 1:3.169046 2:3.169046 3:11.060218 4:2.488456 
-0 -32.30458668558735 -0.2275163624455555 -47.09698756248381 14.5426947941533 132.4238282282529 1:2.196742 2:2.229006 3:4.033676 4:5.888628 
-0 -0 -1.869145404482569 -0 0 11.66669594363929 1:3.483838 2:2.341354 3:2.661609 4:9.331741 
-3.376351845363775 -4.892908397146264 -0.2163766933982491 -1.237556746517563 3.118171172252791 0.16043370542362 1:4.290629 2:9.602227 3:2.745772 4:5.613579 
-1.266404708136808 -0.1585982537923236 -0 -1.336798941365412 0.91719160803453 1.48912538329884 1:2.554771 2:4.361292 3:2.288143 4:17.029149 
-1.222705467027963 -0.02684140394317031 -0.002227959448619699 -1.085903742352482 0.4407518709642843 1.32715752824337 1:2.745772 2:8.052247 3:8.750685 4:23.943114 
-0 -0 -270.7956785818008 -0 112.6633907928584 0 1:2.963631 2:2.59982 3:2.251792 4:5.56947 
-1.150096131707204 -0.02713548338429059 -0.03546434132046795 -1.043923288428516 0.897651906924724 1.429995950525933 1:10.517657 2:6.036094 3:10.398704 4:2.469692 
-16.36898323407499 -0 -43.38795051476855 -7.561039952088466 16.12508782707077 0 1:4.276177 2:3.203401 3:6.609983 4:3.917486 
-8069.155437613567 -0 -653.2633833393203 -451.5818241377825 939.3635820657792 256.7936333120708 1:3.090159 2:2.186453 3:3.2156 4:2.437603 
-138.2457122909196 -61.93920472423294 -33.96777127782217 -20.7507993810336 0 78.23676654371756 1:2.102635 2:3.656405 3:5.504739 4:2.623744 
-1.809132416100454 -0.7813105143238659 -0 -1.831836915232533 1.454509647379681 0.8969770718977397 1:3.935616 2:4.155339 3:12.951013 4:1.4501343 
