svm_type c_svc
kernel_type rbf
gamma 0.25
nr_class 7
total_sv 142
rho -0.959382 -0.952893 0.0595785 -0.61585 -0.878503 -0.880091 -0.00470445 0.939934 0.0685275 0.0496648 0.0424267 0.975232 0.120226 0.0570565 0.0429447 -0.813686 -0.981524 -0.914667 -0.0312985 -0.0809198 -0.0653957
label 1 2 3 4 5 6 7
probA 0.321078 0.675113 0.55675 0.361877 0.626961 0.44015 0.46792 0.641006 0.697852 0.474863 0.484285 0.67338 0.735334 0.49218 0.495822 0.377048 0.629726 0.744809 0.986061 0.460138 0.469306
probB -0.175224 -0.444657 -0.245849 -0.145043 -0.309748 -0.132616 0.00105972 0.26595 -0.213785 0.00190499 -0.00365595 0.154911 -0.0328545 -0.00636983 -0.00825153 -0.137121 0.0906586 -0.0324786 0.0405086 0.0427072 -0.00742279
nr_sv 21 20 20 21 20 20 20
SV
1 1 1 1 1 1 1:0.0337386 2:0.024568537 3:0.041179657 4:0.035062322 
1 1 1 1 1 1 1:0.040290601 2:0.02159462 3:0.081128204 4:0.029721448 
1 1 1 1 1 0 1:0.024099 2:0.023680793 3:0.028416953 4:0.067301709 
1 1 1 1 1 1 1:0.024405544 2:0.044794462 3:0.036564337 4:0.063637388 
1 1 1 1 1 1 1:0.024568537 2:0.026606684 3:0.040834056 4:0.022449206 
1 1 1 1 1 1 1:0.023550958 2:0.021998125 3:0.036736957 4:0.057651521 
1 1 1 1 1 1 1:0.055017558 2:0.081604344 3:0.021750958 4:0.068184126 
1 1 1 1 0.5522701069454936 1 1:0.20435054 2:0.02650103 3:0.069563387 4:0.037061692 
1 1 1 1 1 1 1:0.035197 2:0.046842359 3:0.065201808 4:0.10764288 
1 0 1 1 1 1 1:0.040238351 2:0.025726199 3:0.023550958 4:0.11916256 
1 1 1 1 1 1 1:0.035918728 2:0.024738776 3:0.032625308 4:0.11409033 
1 1 1 1 1 1 1:0.027823133 2:0.037613472 3:0.023680793 4:0.1062392 
1 1 1 0 1 1 1:0.10373682 2:0.021299878 3:0.022747779 4:0.022852711 
1 1 1 1 1 1 1:0.027174777 2:0.06478386 3:0.039151726 4:0.15306865 
1 1 1 1 0.4477298930545064 1 1:0.1387883 2:0.029166298 3:0.026714823 4:0.11367964 
1 1 1 1 1 1 1:0.035197 2:0.047678383 3:0.029099048 4:0.044091933 
1 1 1 1 1 1 1:0.023303791 2:0.024099 3:0.044794462 4:0.024099 
1 1 1 1 1 1 1:0.081818247 2:0.050462898 3:0.022747779 4:0.083705321 
0 1 1 1 1 1 1:0.025913545 2:0.029529939 3:0.039582041 4:0.13137674 
1 1 1 1 1 1 1:0.039009586 2:0.046607582 3:0.078459858 4:0.033967368 
1 1 1 1 1 1 1:0.023303791 2:0.022960598 3:0.046527194 4:0.08712416 
-1 1 1 1 1 1 1:0.047507089 2:0.039910024 3:0.040072233 4:0.022546167 
-1 1 1 1 1 1 1:0.031296495 2:0.028261151 3:0.03104113 4:0.021160599 
-1 1 1 1 1 1 1:0.027423255 2:0.024405544 3:0.065516054 4:0.023303791 
-1 1 1 1 1 1 1:0.023815184 2:0.024568537 3:0.025822538 4:0.036564337 
-1 1 1 1 1 1 1:0.048734432 2:0.027423255 3:0.031296495 4:0.029286654 
-1 1 1 1 1 1 1:0.042321197 2:0.022852711 3:0.034801533 4:0.025958377 
-1 1 1 1 1 1 1:0.037889268 2:0.059059879 3:0.068673627 4:0.054349552 
-1 1 1 1 1 1 1:0.13667544 2:0.023303791 3:0.040408571 4:0.027174777 
-1 1 1 1 1 1 1:0.028993326 2:0.26201372 3:0.024249205 4:0.027685938 
-1 1 1 1 1 1 1:0.042321197 2:0.028918801 3:0.074337283 4:0.026606684 
-1 1 1 1 1 1 1:0.038599946 2:0.024099 3:0.16001028 4:0.042165687 
-1 1 1 1 1 1 1:0.04785211 2:0.029099048 3:0.024568537 4:0.17506379 
-1 1 1 1 1 1 1:0.035767422 2:0.024405544 3:0.026825568 4:0.035062322 
-1 1 1 1 1 1 1:0.024738776 2:0.059442895 3:0.034801533 4:0.025822538 
-1 1 1 1 1 1 1:0.29246566 2:0.025507296 3:0.027174777 4:0.14540757 
-1 1 1 1 1 1 1:0.029900326 2:0.021750958 3:0.037277134 4:0.031428888 
-1 1 1 1 1 1 1:0.035918728 2:0.045168989 3:0.027055402 4:0.039751544 
-1 1 1 1 1 1 1:0.027964551 2:0.032625308 3:0.047177713 4:0.031564634 
-1 1 1 1 1 1 1:0.023071614 2:0.022645646 3:0.02650103 4:0.099933407 
-1 1 1 1 1 1 1:0.05197676 2:0.098243825 3:0.025507296 4:0.063078622 
-1 -1 1 1 1 1 1:0.025300232 2:0.056552494 3:0.070620705 4:0.027964551 
-1 -1 1 1 1 1 1:0.024405544 2:0.027823133 3:0.038870317 4:0.038870317 
-1 -1 1 1 1 1 1:0.038558399 2:0.028745358 3:0.024099 4:0.026753585 
-1 -1 1 1 1 1 1:0.045495559 2:0.027297337 3:0.039596626 4:0.027823133 
-1 -1 1 1 1 1 1:0.055565809 2:0.025507296 3:0.063811195 4:0.037499526 
-1 -1 1 1 1 1 1:0.025726199 2:0.038468636 3:0.29502953 4:0.042391726 
-1 -1 1 1 1 1 1:0.042391726 2:0.092668383 3:0.024405544 4:0.0578376 
-1 -1 1 1 1 1 1:0.16516015 2:0.031846892 3:0.035918728 4:0.029482246 
-1 -1 1 1 1 1 1:0.025103791 2:0.030679532 3:0.035918728 4:0.024249205 
-1 -1 1 1 1 1 1:0.026714823 2:0.12724939 3:0.032144838 4:0.076069626 
-1 -1 1 1 1 1 1:0.27830969 2:0.078241349 3:0.023425381 4:0.023954463 
-1 -1 1 1 1 1 1:0.080939537 2:0.03002218 3:0.052593484 4:0.040583101 
-1 -1 1 1 1 1 1:0.037286065 2:0.026397752 3:0.041946825 4:0.028918801 
-1 -1 1 1 1 1 1:0.036073866 2:0.024568537 3:0.023071614 4:0.024568537 
-1 -1 1 1 1 1 1:0.043343983 2:0.040762165 3:0.024916937 4:0.039048869 
-1 -1 1 1 1 1 1:0.055017558 2:0.036564337 3:0.11978803 4:0.2412846 
-1 -1 1 1 1 1 1:0.056260944 2:0.037613472 3:0.036073866 4:0.086274169 
-1 -1 1 1 1 1 1:0.024568537 2:0.042165687 3:0.074683801 4:0.12404416 
-1 -1 1 1 1 1 1:0.029286654 2:0.1203958 3:0.033536249 4:0.031993796 
-1 -1 1 1 1 1 1:0.023954463 2:0.079964246 3:0.048585221 4:0.053687937 
-1 -1 -1 1 1 1 1:0.036956445 2:0.032971342 3:0.058509844 4:0.038859211 
-1 -1 -1 1 1 1 1:0.027964551 2:0.027297337 3:0.021671991 4:0.14174859 
-1 -0.3281719812375055 -0.2751810733410565 0.3787256335405562 0.5938534925121061 0.4545186031596594 1:0.10553756 2:1.0823633 3:0.023071614 4:0.025913545 
-1 -1 -1 1 1 1 1:0.022747779 2:0.059528381 3:0.092525536 4:0.02159462 
-1 -1 -1 1 1 1 1:0.032625308 2:0.039596626 3:0.27005819 4:0.022747779 
-1 -1 -1 1 1 1 1:0.027423255 2:0.028416953 3:0.024916937 4:0.15144844 
-1 -1 -1 0.6212743664594437 1 1 1:0.43907278 2:0.068046939 3:0.032795534 4:0.051591266 
-1 -1 -1 1 1 1 1:0.036233034 2:0.073185591 3:0.07869617 4:0.05837372 
-1 -1 -1 1 1 1 1:0.028578222 2:0.0434435 3:0.063653061 4:0.066499096 
-1 -1 -1 1 1 1 1:0.050785437 2:0.12678799 3:0.31457168 4:0.023550958 
-1 -1 -1 1 1 1 1:0.040072233 2:0.021831588 3:0.17882067 4:0.094044335 
-1 -1 -1 1 1 1 1:0.15579292 2:0.025733298 3:0.047858396 4:0.035334705 
-1 -1 -1 1 1 1 1:0.041528906 2:0.025507296 3:0.028416953 4:0.025958377 
-1 -1 -1 1 1 1 1:0.041419036 2:0.027685938 3:0.034675186 4:0.027174777 
-1 -1 -1 1 1 1 1:0.025103791 2:0.044435877 3:0.039296859 4:0.026939048 
-1 -1 -1 1 1 1 1:0.023303791 2:0.026006391 3:0.069790792 4:0.034395952 
-1 -1 -1 1 1 1 1:0.022852711 2:0.031296495 3:0.033967368 4:0.022852711 
-1 -1 -1 1 1 1 1:0.11451787 2:0.26385005 3:0.057531007 4:0.056042755 
-1 -0.6718280187624945 -0.7248189266589435 1 0.406146507487894 0.5454813968403406 1:0.025913545 2:0.043237991 3:0.51524665 4:0.041541591 
-1 -1 -1 1 1 1 1:0.030917868 2:0.022546167 3:0.035334705 4:0.024099 
-1 -1 -1 1 1 1 1:0.053687937 2:0.036956445 3:0.032971342 4:0.058509844 
-1 -1 -1 -1 1 1 1:0.038859211 2:0.027964551 3:0.027297337 4:0.021671991 
-1 -1 -1 -1 1 1 1:0.14174859 2:0.10553756 3:1.0823633 4:0.023071614 
-1 -1 -1 -1 1 1 1:0.025913545 2:0.022747779 3:0.059528381 4:0.092525536 
-1 -1 -1 -1 1 1 1:0.02159462 2:0.032625308 3:0.039596626 4:0.27005819 
-1 -1 -1 -1 1 1 1:0.022747779 2:0.027423255 3:0.028416953 4:0.024916937 
-1 -1 -1 -1 1 1 1:0.15144844 2:0.43907278 3:0.068046939 4:0.032795534 
-1 -1 -1 -1 1 1 1:0.051591266 2:0.036233034 3:0.073185591 4:0.07869617 
-1 -1 -1 -1 1 1 1:0.05837372 2:0.028578222 3:0.0434435 4:0.063653061 
-1 -1 -1 -1 1 1 1:0.066499096 2:0.050785437 3:0.12678799 4:0.31457168 
-1 -1 -1 -1 1 1 1:0.023550958 2:0.040072233 3:0.021831588 4:0.17882067 
-1 -1 -1 -1 1 1 1:0.094044335 2:0.15579292 3:0.025733298 4:0.047858396 
-1 -1 -1 -1 1 1 1:0.035334705 2:0.041528906 3:0.025507296 4:0.028416953 
-1 -1 -1 -1 1 1 1:0.025958377 2:0.041419036 3:0.027685938 4:0.034675186 
-1 -1 -1 -1 1 1 1:0.027174777 2:0.025103791 3:0.044435877 4:0.039296859 
-1 -1 -1 -1 1 1 1:0.026939048 2:0.023303791 3:0.026006391 4:0.069790792 
-1 -1 -1 -1 1 1 1:0.034395952 2:0.022852711 3:0.031296495 4:0.033967368 
-1 -1 -1 -1 1 1 1:0.022852711 2:0.11451787 3:0.26385005 4:0.057531007 
-1 -1 -1 -1 1 1 1:0.056042755 2:0.025913545 3:0.043237991 4:0.51524665 
-1 -1 -1 -1 1 1 1:0.041541591 2:0.030917868 3:0.022546167 4:0.035334705 
-1 -1 -1 -1 1 1 1:0.024099 2:0.023680793 3:0.030917868 4:0.054165982 
-1 -1 -1 -1 -1 1 1:0.031846892 2:0.033967368 3:0.023071614 4:0.022960598 
-1 -1 -1 -1 -1 1 1:0.066466547 2:0.03036028 3:0.061594073 4:0.066665824 
-1 -1 -1 -1 -1 1 1:0.054165982 2:0.04113488 3:0.023425381 4:0.10227619 
-1 -1 -1 -1 -1 1 1:0.026606684 2:0.048498411 3:0.031703906 4:0.027685938 
-1 -1 -1 -1 -1 1 1:0.032460321 2:0.021518781 3:0.047177713 4:0.10832382 
-1 -1 -1 -1 -1 1 1:0.030917868 2:0.024916937 3:0.027685938 4:0.023185943 
-1 -1 -1 -1 -1 1 1:0.085285662 2:0.4925742 3:0.027297337 4:0.031703906 
-1 -1 -1 -1 -1 1 1:0.031564634 2:0.023550958 3:0.023071614 4:0.435657 
-1 -1 -1 -1 -1 1 1:0.027964551 2:0.024405544 3:0.075458665 4:0.028578222 
-1 -1 -1 -1 -1 1 1:0.022546167 2:0.029436691 3:0.023071614 4:0.023680793 
-1 -1 -1 -1 -1 1 1:0.023185943 2:0.14399282 3:0.027297337 4:0.032460321 
-1 -1 -1 -1 -1 1 1:0.02650103 2:0.023550958 3:0.033536249 4:0.082354267 
-1 -1 -1 -1 -1 1 1:0.029686533 2:0.067643385 3:0.04245921 4:0.097010012 
-1 -1 -1 -1 -1 1 1:0.040612026 2:0.035062322 3:0.041329078 4:0.031993796 
-1 -1 -1 -1 -1 1 1:0.023815184 2:0.041666139 3:0.026939048 4:0.038870317 
-1 -1 -1 -1 -1 1 1:0.023954463 2:0.037967065 3:0.38053769 4:0.05477484 
-1 -1 -1 -1 -1 1 1:0.023071614 2:0.025958377 3:0.0337386 4:0.083912223 
-1 -1 -1 -1 -1 1 1:0.04399625 2:0.024099 3:0.03493054 4:0.033310054 
-1 -1 -1 -1 -1 1 1:0.044709278 2:0.098488181 3:0.048395877 4:0.041666139 
-1 -1 -1 -1 -1 1 1:0.027964551 2:0.11279469 3:0.022546167 4:0.053381532 
-1 -1 -1 -1 -1 -1 1:0.057653888 2:0.03061836 3:0.044529798 4:0.032472157 
-1 -1 -1 -1 -1 -1 1:0.030340788 2:0.024707796 3:0.067075425 4:0.024779048 
-1 -1 -1 -1 -1 -1 1:0.02159462 2:0.037480609 3:0.031846892 4:0.024851423 
-1 -1 -1 -1 -1 -1 1:0.033748501 2:0.021444414 3:0.12810408 4:0.20552654 
-1 -1 -1 -1 -1 -1 1:0.50626107 2:0.02755272 3:0.023869899 4:0.034518605 
-1 -1 -1 -1 -1 -1 1:0.022960598 2:0.043980336 3:0.077309004 4:0.20055134 
-1 -1 -1 -1 -1 -1 1:0.080578368 2:0.023071614 3:0.022747779 4:0.41620029 
-1 -1 -1 -1 -1 -1 1:0.27564255 2:0.20077473 3:0.042599756 4:0.02992005 
-1 -1 -1 -1 -1 -1 1:0.030232468 2:0.098500269 3:0.03230026 4:0.085490264 
-1 -1 -1 -1 -1 -1 1:0.027174777 2:0.092359855 3:0.020709518 4:0.052791311 
-1 -1 -1 -1 -1 -1 1:0.022546167 2:0.059830153 3:0.031826529 4:0.023425381 
-1 -1 -1 -1 -1 -1 1:0.036073866 2:0.075703564 3:0.024851423 4:0.051257233 
-1 -1 -1 -1 -1 -1 1:0.11823763 2:0.071689346 3:0.21028549 4:0.032460321 
-1 -1 -1 -1 -1 -1 1:0.026606684 2:0.089973104 3:0.041329078 4:0.079864073 
-1 -1 -1 -1 -1 -1 1:0.040947533 2:0.044319662 3:0.028745358 4:0.041329078 
-1 -1 -1 -1 -1 -1 1:0.022354639 2:0.027423255 3:0.039910024 4:0.033641931 
-1 -1 -1 -1 -1 -1 1:0.051627039 2:0.042462689 3:0.03616775 4:0.077880079 
-1 -1 -1 -1 -1 -1 1:0.10084577 2:0.030917868 3:0.023815184 4:0.023425381 
-1 -1 -1 -1 -1 -1 1:0.035619761 2:0.04913704 3:0.049860208 4:0.074367439 
-1 -1 -1 -1 -1 -1 1:0.035630317 2:0.02159462 3:0.029099048 
